FANN_FLO_2.1
num_layers=3
learning_rate=0.700000
connection_rate=1.000000
network_type=0
learning_momentum=0.000000
training_algorithm=2
train_error_function=1
train_stop_function=0
cascade_output_change_fraction=0.010000
quickprop_decay=-0.000100
quickprop_mu=1.750000
rprop_increase_factor=1.200000
rprop_decrease_factor=0.500000
rprop_delta_min=0.000000
rprop_delta_max=50.000000
rprop_delta_zero=0.100000
cascade_output_stagnation_epochs=12
cascade_candidate_change_fraction=0.010000
cascade_candidate_stagnation_epochs=12
cascade_max_out_epochs=150
cascade_min_out_epochs=50
cascade_max_cand_epochs=150
cascade_min_cand_epochs=50
cascade_num_candidate_groups=2
bit_fail_limit=3.49999994039535522461e-01
cascade_candidate_limit=1.00000000000000000000e+03
cascade_weight_multiplier=4.00000005960464477539e-01
cascade_activation_functions_count=10
cascade_activation_functions=3 5 7 8 10 11 14 15 16 17 
cascade_activation_steepnesses_count=4
cascade_activation_steepnesses=2.50000000000000000000e-01 5.00000000000000000000e-01 7.50000000000000000000e-01 1.00000000000000000000e+00 
layer_sizes=19 31 2 
scale_included=0
neurons (num_inputs, activation_function, activation_steepness)=(0, 0, 0.00000000000000000000e+00) (0, 0, 0.00000000000000000000e+00) (0, 0, 0.00000000000000000000e+00) (0, 0, 0.00000000000000000000e+00) (0, 0, 0.00000000000000000000e+00) (0, 0, 0.00000000000000000000e+00) (0, 0, 0.00000000000000000000e+00) (0, 0, 0.00000000000000000000e+00) (0, 0, 0.00000000000000000000e+00) (0, 0, 0.00000000000000000000e+00) (0, 0, 0.00000000000000000000e+00) (0, 0, 0.00000000000000000000e+00) (0, 0, 0.00000000000000000000e+00) (0, 0, 0.00000000000000000000e+00) (0, 0, 0.00000000000000000000e+00) (0, 0, 0.00000000000000000000e+00) (0, 0, 0.00000000000000000000e+00) (0, 0, 0.00000000000000000000e+00) (0, 0, 0.00000000000000000000e+00) (19, 4, 5.00000000000000000000e-01) (19, 4, 5.00000000000000000000e-01) (19, 4, 5.00000000000000000000e-01) (19, 4, 5.00000000000000000000e-01) (19, 4, 5.00000000000000000000e-01) (19, 4, 5.00000000000000000000e-01) (19, 4, 5.00000000000000000000e-01) (19, 4, 5.00000000000000000000e-01) (19, 4, 5.00000000000000000000e-01) (19, 4, 5.00000000000000000000e-01) (19, 4, 5.00000000000000000000e-01) (19, 4, 5.00000000000000000000e-01) (19, 4, 5.00000000000000000000e-01) (19, 4, 5.00000000000000000000e-01) (19, 4, 5.00000000000000000000e-01) (19, 4, 5.00000000000000000000e-01) (19, 4, 5.00000000000000000000e-01) (19, 4, 5.00000000000000000000e-01) (19, 4, 5.00000000000000000000e-01) (19, 4, 5.00000000000000000000e-01) (19, 4, 5.00000000000000000000e-01) (19, 4, 5.00000000000000000000e-01) (19, 4, 5.00000000000000000000e-01) (19, 4, 5.00000000000000000000e-01) (19, 4, 5.00000000000000000000e-01) (19, 4, 5.00000000000000000000e-01) (19, 4, 5.00000000000000000000e-01) (19, 4, 5.00000000000000000000e-01) (19, 4, 5.00000000000000000000e-01) (19, 4, 5.00000000000000000000e-01) (0, 0, 0.00000000000000000000e+00) (31, 4, 5.00000000000000000000e-01) (0, 0, 0.00000000000000000000e+00) 
connections (connected_to_neuron, weight)=(0, -2.60280638933181762695e-01) (1, -3.52380573749542236328e-01) (2, -2.75923132896423339844e-01) (3, -2.55870640277862548828e-01) (4, -2.33681827783584594727e-01) (5, -3.06310057640075683594e-01) (6, -1.69055908918380737305e-01) (7, -3.38666498661041259766e-01) (8, -1.83699369430541992188e-01) (9, -2.51078903675079345703e-01) (10, -9.51165258884429931641e-02) (11, -6.34992569684982299805e-02) (12, -2.75875568389892578125e-01) (13, -2.56563544273376464844e-01) (14, -2.79378771781921386719e-01) (15, -3.34754288196563720703e-01) (16, -2.70825698971748352051e-02) (17, -1.67095884680747985840e-02) (18, -2.81999677419662475586e-01) (0, -1.84424936771392822266e-01) (1, -2.45582789182662963867e-01) (2, -3.25571179389953613281e-01) (3, -2.90413141250610351562e-01) (4, -1.89389526844024658203e-01) (5, -2.85299479961395263672e-01) (6, -2.43955820798873901367e-01) (7, -1.81434392929077148438e-01) (8, -1.83922499418258666992e-01) (9, -2.01254367828369140625e-01) (10, -9.38291102647781372070e-02) (11, -2.58250162005424499512e-02) (12, -2.85159587860107421875e-01) (13, -2.92695373296737670898e-01) (14, -3.46818149089813232422e-01) (15, -1.88186079263687133789e-01) (16, -5.54208531975746154785e-02) (17, -9.82278436422348022461e-02) (18, -3.59394848346710205078e-01) (0, -1.65199488401412963867e-01) (1, -3.23536038398742675781e-01) (2, -2.86205470561981201172e-01) (3, -2.70844399929046630859e-01) (4, -2.97284722328186035156e-01) (5, -2.80400216579437255859e-01) (6, -3.02393019199371337891e-01) (7, -3.35177958011627197266e-01) (8, -3.51442873477935791016e-01) (9, -3.16522181034088134766e-01) (10, 3.15196812152862548828e-04) (11, -1.42597690224647521973e-01) (12, -2.83275246620178222656e-01) (13, -2.22659796476364135742e-01) (14, -2.58843541145324707031e-01) (15, -1.99013859033584594727e-01) (16, -3.76619547605514526367e-02) (17, -2.44467183947563171387e-02) (18, -3.20015966892242431641e-01) (0, 1.19517445564270019531e-01) (1, 2.49540746212005615234e-01) (2, 1.51162013411521911621e-01) (3, 9.97661873698234558105e-02) (4, 9.02458578348159790039e-02) (5, 8.20156335830688476562e-02) (6, 1.56650662422180175781e-01) (7, 1.47497981786727905273e-01) (8, 1.18464902043342590332e-01) (9, 1.59584224224090576172e-01) (10, 3.35853993892669677734e-01) (11, 3.13919186592102050781e-01) (12, 1.71489045023918151855e-01) (13, 1.36311888694763183594e-01) (14, 1.13666743040084838867e-01) (15, 1.16788074374198913574e-01) (16, 2.60970950126647949219e-01) (17, 3.54738175868988037109e-01) (18, 2.16711729764938354492e-01) (0, -2.50134915113449096680e-01) (1, -2.33245640993118286133e-01) (2, -1.75243556499481201172e-01) (3, -3.33988308906555175781e-01) (4, -3.57134044170379638672e-01) (5, -1.67484879493713378906e-01) (6, -3.34160506725311279297e-01) (7, -2.51438081264495849609e-01) (8, -3.35684359073638916016e-01) (9, -2.63024866580963134766e-01) (10, -7.07852691411972045898e-02) (11, -1.27927601337432861328e-01) (12, -3.23141276836395263672e-01) (13, -2.51303851604461669922e-01) (14, -2.79877424240112304688e-01) (15, -3.15887928009033203125e-01) (16, -1.39800474047660827637e-01) (17, -6.65630996227264404297e-02) (18, -1.69874399900436401367e-01) (0, 1.49306192994117736816e-01) (1, 1.09125465154647827148e-01) (2, 1.91638618707656860352e-01) (3, 1.90128058195114135742e-01) (4, 2.02342569828033447266e-01) (5, 9.15238559246063232422e-02) (6, 1.61293536424636840820e-01) (7, 1.80379986763000488281e-01) (8, 1.66371330618858337402e-01) (9, 1.22735567390918731689e-01) (10, 2.20587879419326782227e-01) (11, 2.36335456371307373047e-01) (12, 2.21822261810302734375e-01) (13, 8.68621170520782470703e-02) (14, 2.11438894271850585938e-01) (15, 1.73131108283996582031e-01) (16, 2.18307882547378540039e-01) (17, 3.16468715667724609375e-01) (18, 2.21396058797836303711e-01) (0, 1.23580425977706909180e-01) (1, 1.36088579893112182617e-01) (2, 1.60737976431846618652e-01) (3, 2.43081629276275634766e-01) (4, 1.92692831158638000488e-01) (5, 1.08337789773941040039e-01) (6, 1.53065785765647888184e-01) (7, 9.65839922428131103516e-02) (8, 2.07026600837707519531e-01) (9, 2.15810805559158325195e-01) (10, 3.36017906665802001953e-01) (11, 2.68510013818740844727e-01) (12, 1.79709732532501220703e-01) (13, 1.01206548511981964111e-01) (14, 9.83188897371292114258e-02) (15, 1.65415912866592407227e-01) (16, 3.49276721477508544922e-01) (17, 3.09585988521575927734e-01) (18, 1.43281906843185424805e-01) (0, 2.58893311023712158203e-01) (1, 1.39549821615219116211e-01) (2, 1.33755624294281005859e-01) (3, 1.50690600275993347168e-01) (4, 1.76786661148071289062e-01) (5, 1.73338294029235839844e-01) (6, 2.16602355241775512695e-01) (7, 1.55768722295761108398e-01) (8, 1.24753743410110473633e-01) (9, 2.56148934364318847656e-01) (10, 2.99218237400054931641e-01) (11, 1.77147716283798217773e-01) (12, 2.53389626741409301758e-01) (13, 2.39502131938934326172e-01) (14, 2.32477068901062011719e-01) (15, 1.62018701434135437012e-01) (16, 2.52250224351882934570e-01) (17, 1.85396730899810791016e-01) (18, 9.45783481001853942871e-02) (0, -3.45750033855438232422e-01) (1, -2.36439079046249389648e-01) (2, -2.47407019138336181641e-01) (3, -1.85474485158920288086e-01) (4, -2.85455226898193359375e-01) (5, -2.61957734823226928711e-01) (6, -3.39561283588409423828e-01) (7, -2.22492098808288574219e-01) (8, -2.40344122052192687988e-01) (9, -2.79522776603698730469e-01) (10, -1.50827318429946899414e-01) (11, 5.45268505811691284180e-03) (12, -2.00680881738662719727e-01) (13, -2.59253084659576416016e-01) (14, -2.82684415578842163086e-01) (15, -2.92762815952301025391e-01) (16, -7.66148567199707031250e-02) (17, -1.05709031224250793457e-01) (18, -2.95720875263214111328e-01) (0, 2.47540563344955444336e-01) (1, 1.34241938591003417969e-01) (2, 1.24228209257125854492e-01) (3, 2.23366498947143554688e-01) (4, 2.40899503231048583984e-01) (5, 1.17997780442237854004e-01) (6, 1.08511805534362792969e-01) (7, 2.77836322784423828125e-01) (8, 1.15085169672966003418e-01) (9, 1.56289190053939819336e-01) (10, 3.56391549110412597656e-01) (11, 2.88562953472137451172e-01) (12, 2.08946973085403442383e-01) (13, 9.15103107690811157227e-02) (14, 1.33726194500923156738e-01) (15, 2.56114155054092407227e-01) (16, 3.14417839050292968750e-01) (17, 2.36849635839462280273e-01) (18, 2.63625651597976684570e-01) (0, 2.76074588298797607422e-01) (1, 1.05516605079174041748e-01) (2, 1.37489736080169677734e-01) (3, 1.09846368432044982910e-01) (4, 1.07795834541320800781e-01) (5, 2.44400709867477416992e-01) (6, 1.62618085741996765137e-01) (7, 2.42027163505554199219e-01) (8, 2.70322620868682861328e-01) (9, 2.32126384973526000977e-01) (10, 3.52216362953186035156e-01) (11, 3.16440820693969726562e-01) (12, 1.52532368898391723633e-01) (13, 1.31460785865783691406e-01) (14, 1.81325465440750122070e-01) (15, 2.56904691457748413086e-01) (16, 2.00869292020797729492e-01) (17, 2.25966453552246093750e-01) (18, 1.50060683488845825195e-01) (0, -2.54165321588516235352e-01) (1, -1.72356158494949340820e-01) (2, -2.05922037363052368164e-01) (3, -3.47347915172576904297e-01) (4, -2.91883260011672973633e-01) (5, -2.97637969255447387695e-01) (6, -2.17202186584472656250e-01) (7, -3.33118051290512084961e-01) (8, -3.30803513526916503906e-01) (9, -2.30115264654159545898e-01) (10, -1.59202471375465393066e-01) (11, -1.55902594327926635742e-01) (12, -2.98851817846298217773e-01) (13, -2.18361735343933105469e-01) (14, -2.21456825733184814453e-01) (15, -2.40759998559951782227e-01) (16, -6.49228617548942565918e-02) (17, 1.47669762372970581055e-03) (18, -2.25255101919174194336e-01) (0, 1.65533870458602905273e-01) (1, 2.47791528701782226562e-01) (2, 1.52083650231361389160e-01) (3, 1.89778834581375122070e-01) (4, 1.32841110229492187500e-01) (5, 1.80546611547470092773e-01) (6, 1.66954606771469116211e-01) (7, 1.25922054052352905273e-01) (8, 9.17189568281173706055e-02) (9, 2.40352869033813476562e-01) (10, 2.14397504925727844238e-01) (11, 1.94722250103950500488e-01) (12, 2.28678286075592041016e-01) (13, 1.16096429526805877686e-01) (14, 1.52594611048698425293e-01) (15, 1.77536427974700927734e-01) (16, 2.58703798055648803711e-01) (17, 2.50511407852172851562e-01) (18, 2.76962220668792724609e-01) (0, 2.24025845527648925781e-01) (1, 1.22488975524902343750e-01) (2, 1.92055776715278625488e-01) (3, 2.01246351003646850586e-01) (4, 2.67400681972503662109e-01) (5, 1.23000726103782653809e-01) (6, 1.93194895982742309570e-01) (7, 1.46419197320938110352e-01) (8, 1.87345340847969055176e-01) (9, 2.33003914356231689453e-01) (10, 3.00721228122711181641e-01) (11, 2.37606018781661987305e-01) (12, 1.75933063030242919922e-01) (13, 2.26745665073394775391e-01) (14, 2.34394371509552001953e-01) (15, 1.85841903090476989746e-01) (16, 2.48883605003356933594e-01) (17, 2.02683225274085998535e-01) (18, 2.28752046823501586914e-01) (0, 1.55536621809005737305e-01) (1, 2.23797023296356201172e-01) (2, 2.76717543601989746094e-01) (3, 1.11876137554645538330e-01) (4, 2.22152113914489746094e-01) (5, 2.30215281248092651367e-01) (6, 1.48170828819274902344e-01) (7, 2.26878196001052856445e-01) (8, 2.61818170547485351562e-01) (9, 9.80363935232162475586e-02) (10, 3.01606953144073486328e-01) (11, 3.23479294776916503906e-01) (12, 2.48355746269226074219e-01) (13, 2.34761536121368408203e-01) (14, 1.56794756650924682617e-01) (15, 1.69461861252784729004e-01) (16, 3.49459290504455566406e-01) (17, 1.77801340818405151367e-01) (18, 2.38979279994964599609e-01) (0, -1.99256807565689086914e-01) (1, -3.24791491031646728516e-01) (2, -1.86665177345275878906e-01) (3, -2.97321796417236328125e-01) (4, -3.02868962287902832031e-01) (5, -3.34065437316894531250e-01) (6, -2.53357648849487304688e-01) (7, -1.97955399751663208008e-01) (8, -2.52196282148361206055e-01) (9, -2.78777599334716796875e-01) (10, -2.67393812537193298340e-02) (11, -4.87584024667739868164e-02) (12, -3.26438724994659423828e-01) (13, -2.71383583545684814453e-01) (14, -3.60046595335006713867e-01) (15, -3.18931102752685546875e-01) (16, -8.70566964149475097656e-02) (17, -1.91234797239303588867e-03) (18, -1.84933513402938842773e-01) (0, -1.93396151065826416016e-01) (1, -2.24870711565017700195e-01) (2, -2.17934489250183105469e-01) (3, -2.40853816270828247070e-01) (4, -2.45976984500885009766e-01) (5, -3.50830674171447753906e-01) (6, -2.26825088262557983398e-01) (7, -2.65029400587081909180e-01) (8, -1.64936661720275878906e-01) (9, -3.06549251079559326172e-01) (10, 1.49796083569526672363e-02) (11, -7.77043849229812622070e-02) (12, -2.21570789813995361328e-01) (13, -3.55980575084686279297e-01) (14, -1.80902987718582153320e-01) (15, -2.52217888832092285156e-01) (16, -3.79085913300514221191e-02) (17, 3.03512290120124816895e-02) (18, -3.30739736557006835938e-01) (0, -3.58719766139984130859e-01) (1, -2.18771934509277343750e-01) (2, -3.15957546234130859375e-01) (3, -3.13852071762084960938e-01) (4, -3.27735841274261474609e-01) (5, -2.72268950939178466797e-01) (6, -2.39796534180641174316e-01) (7, -2.76188373565673828125e-01) (8, -3.13468456268310546875e-01) (9, -2.80449569225311279297e-01) (10, -1.27466917037963867188e-01) (11, 2.36955955624580383301e-02) (12, -1.92281097173690795898e-01) (13, -2.84407258033752441406e-01) (14, -2.48552501201629638672e-01) (15, -2.37666666507720947266e-01) (16, -7.54225254058837890625e-02) (17, -6.62576705217361450195e-02) (18, -2.36721575260162353516e-01) (0, -1.95436716079711914062e-01) (1, -3.20637524127960205078e-01) (2, -1.70755565166473388672e-01) (3, -3.04411828517913818359e-01) (4, -2.65695929527282714844e-01) (5, -1.67229115962982177734e-01) (6, -2.35298663377761840820e-01) (7, -2.80397057533264160156e-01) (8, -2.48793333768844604492e-01) (9, -2.85482048988342285156e-01) (10, -1.08833298087120056152e-01) (11, -1.22865289449691772461e-03) (12, -2.93982684612274169922e-01) (13, -1.82714223861694335938e-01) (14, -2.93516635894775390625e-01) (15, -3.49759846925735473633e-01) (16, -2.54785045981407165527e-02) (17, -5.72467073798179626465e-02) (18, -1.89334064722061157227e-01) (0, -3.53480994701385498047e-01) (1, -1.70746594667434692383e-01) (2, -3.53926420211791992188e-01) (3, -2.57105499505996704102e-01) (4, -1.88093930482864379883e-01) (5, -3.10562044382095336914e-01) (6, -2.31956064701080322266e-01) (7, -3.01558613777160644531e-01) (8, -3.11601489782333374023e-01) (9, -3.02057385444641113281e-01) (10, -8.99372249841690063477e-02) (11, -1.49795189499855041504e-02) (12, -2.04768240451812744141e-01) (13, -3.55514526367187500000e-01) (14, -3.48084807395935058594e-01) (15, -2.76937305927276611328e-01) (16, -9.69280749559402465820e-02) (17, -1.10016614198684692383e-01) (18, -2.93123960494995117188e-01) (0, 9.39778834581375122070e-02) (1, 2.06206321716308593750e-01) (2, 2.29437530040740966797e-01) (3, 2.76222944259643554688e-01) (4, 1.99151247739791870117e-01) (5, 2.54932790994644165039e-01) (6, 1.75362020730972290039e-01) (7, 2.29369223117828369141e-01) (8, 1.28478080034255981445e-01) (9, 2.50982254743576049805e-01) (10, 2.62827575206756591797e-01) (11, 3.58865320682525634766e-01) (12, 1.81235492229461669922e-01) (13, 1.44843876361846923828e-01) (14, 1.10969796776771545410e-01) (15, 1.89234107732772827148e-01) (16, 2.61652976274490356445e-01) (17, 2.17352882027626037598e-01) (18, 1.81677907705307006836e-01) (0, 1.80589646100997924805e-01) (1, 9.02613922953605651855e-02) (2, 1.43072009086608886719e-01) (3, 1.31111964583396911621e-01) (4, 1.18625119328498840332e-01) (5, 2.52265334129333496094e-01) (6, 1.43555343151092529297e-01) (7, 2.54473149776458740234e-01) (8, 2.50137627124786376953e-01) (9, 1.82984918355941772461e-01) (10, 2.31224983930587768555e-01) (11, 2.13903754949569702148e-01) (12, 2.12084829807281494141e-01) (13, 2.29477643966674804688e-01) (14, 1.50823116302490234375e-01) (15, 2.04030483961105346680e-01) (16, 3.44163656234741210938e-01) (17, 1.74403280019760131836e-01) (18, 1.27611756324768066406e-01) (0, -3.53289067745208740234e-01) (1, -3.44687461853027343750e-01) (2, -1.77810192108154296875e-01) (3, -2.71996498107910156250e-01) (4, -2.60844588279724121094e-01) (5, -2.30785250663757324219e-01) (6, -2.23306715488433837891e-01) (7, -3.31985473632812500000e-01) (8, -2.95622467994689941406e-01) (9, -3.42245161533355712891e-01) (10, -1.26397415995597839355e-01) (11, -1.33030861616134643555e-03) (12, -2.02419608831405639648e-01) (13, -2.82178670167922973633e-01) (14, -1.92751348018646240234e-01) (15, -1.87817722558975219727e-01) (16, -6.43745809793472290039e-02) (17, 1.64676979184150695801e-02) (18, -2.71514594554901123047e-01) (0, -3.61801505088806152344e-01) (1, -2.13488042354583740234e-01) (2, -3.09444308280944824219e-01) (3, -2.46005743741989135742e-01) (4, -2.34551936388015747070e-01) (5, -3.30281734466552734375e-01) (6, -2.60936170816421508789e-01) (7, -1.70180410146713256836e-01) (8, -2.38085091114044189453e-01) (9, -3.11866104602813720703e-01) (10, -1.45480901002883911133e-01) (11, -1.37580364942550659180e-01) (12, -3.57217550277709960938e-01) (13, -1.70845240354537963867e-01) (14, -2.11720466613769531250e-01) (15, -2.01850444078445434570e-01) (16, -1.12409800291061401367e-01) (17, -1.11346259713172912598e-01) (18, -2.40612298250198364258e-01) (0, 2.57258683443069458008e-01) (1, 2.66520589590072631836e-01) (2, 1.31432056427001953125e-01) (3, 9.85042154788970947266e-02) (4, 8.02936702966690063477e-02) (5, 2.15574562549591064453e-01) (6, 8.14878866076469421387e-02) (7, 8.67571458220481872559e-02) (8, 2.47295409440994262695e-01) (9, 2.13998198509216308594e-01) (10, 2.71510839462280273438e-01) (11, 2.98501789569854736328e-01) (12, 2.51857548952102661133e-01) (13, 8.95983725786209106445e-02) (14, 1.99738755822181701660e-01) (15, 1.29135742783546447754e-01) (16, 1.88382714986801147461e-01) (17, 1.64080232381820678711e-01) (18, 2.28350371122360229492e-01) (0, 2.04754680395126342773e-01) (1, 2.31723725795745849609e-01) (2, 1.00678175687789916992e-01) (3, 2.17963099479675292969e-01) (4, 2.25498169660568237305e-01) (5, 2.67615288496017456055e-01) (6, 1.30016237497329711914e-01) (7, 1.02686755359172821045e-01) (8, 1.76191389560699462891e-01) (9, 1.68416187167167663574e-01) (10, 1.74829006195068359375e-01) (11, 1.66724294424057006836e-01) (12, 2.66918003559112548828e-01) (13, 2.10870385169982910156e-01) (14, 2.18408375978469848633e-01) (15, 1.09336987137794494629e-01) (16, 2.30615019798278808594e-01) (17, 3.62559020519256591797e-01) (18, 2.61206418275833129883e-01) (0, -2.27862507104873657227e-01) (1, -3.00796389579772949219e-01) (2, -3.01038712263107299805e-01) (3, -1.73378825187683105469e-01) (4, -1.93602532148361206055e-01) (5, -2.93411135673522949219e-01) (6, -1.76725625991821289062e-01) (7, -2.43418276309967041016e-01) (8, -3.46803665161132812500e-01) (9, -3.44817310571670532227e-01) (10, -1.56360745429992675781e-01) (11, 4.87113744020462036133e-03) (12, -1.74892574548721313477e-01) (13, -2.35184907913208007812e-01) (14, -1.68677985668182373047e-01) (15, -1.86819642782211303711e-01) (16, -8.96086394786834716797e-02) (17, -9.22488272190093994141e-02) (18, -2.70108044147491455078e-01) (0, 1.22208625078201293945e-01) (1, 8.03279057145118713379e-02) (2, 1.90959841012954711914e-01) (3, 1.81826829910278320312e-01) (4, 8.33185389637947082520e-02) (5, 2.54614263772964477539e-01) (6, 2.21972048282623291016e-01) (7, 2.04138651490211486816e-01) (8, 2.78232365846633911133e-01) (9, 1.71204045414924621582e-01) (10, 2.30199798941612243652e-01) (11, 1.83816850185394287109e-01) (12, 1.41670316457748413086e-01) (13, 1.72757506370544433594e-01) (14, 2.55167990922927856445e-01) (15, 1.28429830074310302734e-01) (16, 3.24009180068969726562e-01) (17, 2.38297507166862487793e-01) (18, 1.98016270995140075684e-01) (0, -2.64624506235122680664e-01) (1, -3.59957158565521240234e-01) (2, -2.15293049812316894531e-01) (3, -2.46124818921089172363e-01) (4, -2.35627770423889160156e-01) (5, -2.11797773838043212891e-01) (6, -3.01015228033065795898e-01) (7, -1.78781092166900634766e-01) (8, -1.89862132072448730469e-01) (9, -2.28671371936798095703e-01) (10, -9.17241722345352172852e-02) (11, -4.80751842260360717773e-02) (12, -2.43588179349899291992e-01) (13, -2.02312409877777099609e-01) (14, -2.80200958251953125000e-01) (15, -3.53643000125885009766e-01) (16, -8.97721201181411743164e-02) (17, -3.99399399757385253906e-02) (18, -3.14614713191986083984e-01) (0, 9.89660099148750305176e-02) (1, 2.41632044315338134766e-01) (2, 2.29928493499755859375e-01) (3, 1.27939730882644653320e-01) (4, 2.03004419803619384766e-01) (5, 2.15178489685058593750e-01) (6, 2.24655240774154663086e-01) (7, 1.00600272417068481445e-01) (8, 1.08664728701114654541e-01) (9, 2.47998774051666259766e-01) (10, 3.19328248500823974609e-01) (11, 1.65766343474388122559e-01) (12, 1.66684910655021667480e-01) (13, 1.93241149187088012695e-01) (14, 1.24026894569396972656e-01) (15, 2.39977002143859863281e-01) (16, 2.97243356704711914062e-01) (17, 1.85338810086250305176e-01) (18, 1.21120452880859375000e-01) (19, 3.53927314281463623047e-02) (20, 1.01496733725070953369e-01) (21, 1.11614130437374114990e-01) (22, -1.29444837570190429688e-01) (23, 6.48227557539939880371e-02) (24, -1.52002796530723571777e-01) (25, -1.51001855731010437012e-01) (26, -1.28183573484420776367e-01) (27, 6.28115609288215637207e-02) (28, -1.54224678874015808105e-01) (29, -9.41345989704132080078e-02) (30, 1.23965613543987274170e-01) (31, -1.38018071651458740234e-01) (32, -1.09650880098342895508e-01) (33, -1.42191782593727111816e-01) (34, 2.67767682671546936035e-02) (35, 9.31274816393852233887e-02) (36, 4.95019182562828063965e-02) (37, 3.44605594873428344727e-02) (38, 3.45627442002296447754e-02) (39, -1.31912350654602050781e-01) (40, -9.07682925462722778320e-02) (41, 1.01366572082042694092e-01) (42, 1.23957656323909759521e-01) (43, -7.18301981687545776367e-02) (44, -9.01374220848083496094e-02) (45, 1.04251466691493988037e-01) (46, -7.37188160419464111328e-02) (47, 5.20090982317924499512e-02) (48, -1.11082270741462707520e-01) (49, 4.30367887020111083984e-04) 
