FANN_FLO_2.1
num_layers=3
learning_rate=0.700000
connection_rate=1.000000
network_type=0
learning_momentum=0.000000
training_algorithm=2
train_error_function=1
train_stop_function=0
cascade_output_change_fraction=0.010000
quickprop_decay=-0.000100
quickprop_mu=1.750000
rprop_increase_factor=1.200000
rprop_decrease_factor=0.500000
rprop_delta_min=0.000000
rprop_delta_max=50.000000
rprop_delta_zero=0.100000
cascade_output_stagnation_epochs=12
cascade_candidate_change_fraction=0.010000
cascade_candidate_stagnation_epochs=12
cascade_max_out_epochs=150
cascade_min_out_epochs=50
cascade_max_cand_epochs=150
cascade_min_cand_epochs=50
cascade_num_candidate_groups=2
bit_fail_limit=3.49999994039535522461e-01
cascade_candidate_limit=1.00000000000000000000e+03
cascade_weight_multiplier=4.00000005960464477539e-01
cascade_activation_functions_count=10
cascade_activation_functions=3 5 7 8 10 11 14 15 16 17 
cascade_activation_steepnesses_count=4
cascade_activation_steepnesses=2.50000000000000000000e-01 5.00000000000000000000e-01 7.50000000000000000000e-01 1.00000000000000000000e+00 
layer_sizes=19 20 2 
scale_included=0
neurons (num_inputs, activation_function, activation_steepness)=(0, 0, 0.00000000000000000000e+00) (0, 0, 0.00000000000000000000e+00) (0, 0, 0.00000000000000000000e+00) (0, 0, 0.00000000000000000000e+00) (0, 0, 0.00000000000000000000e+00) (0, 0, 0.00000000000000000000e+00) (0, 0, 0.00000000000000000000e+00) (0, 0, 0.00000000000000000000e+00) (0, 0, 0.00000000000000000000e+00) (0, 0, 0.00000000000000000000e+00) (0, 0, 0.00000000000000000000e+00) (0, 0, 0.00000000000000000000e+00) (0, 0, 0.00000000000000000000e+00) (0, 0, 0.00000000000000000000e+00) (0, 0, 0.00000000000000000000e+00) (0, 0, 0.00000000000000000000e+00) (0, 0, 0.00000000000000000000e+00) (0, 0, 0.00000000000000000000e+00) (0, 0, 0.00000000000000000000e+00) (19, 4, 5.00000000000000000000e-01) (19, 4, 5.00000000000000000000e-01) (19, 4, 5.00000000000000000000e-01) (19, 4, 5.00000000000000000000e-01) (19, 4, 5.00000000000000000000e-01) (19, 4, 5.00000000000000000000e-01) (19, 4, 5.00000000000000000000e-01) (19, 4, 5.00000000000000000000e-01) (19, 4, 5.00000000000000000000e-01) (19, 4, 5.00000000000000000000e-01) (19, 4, 5.00000000000000000000e-01) (19, 4, 5.00000000000000000000e-01) (19, 4, 5.00000000000000000000e-01) (19, 4, 5.00000000000000000000e-01) (19, 4, 5.00000000000000000000e-01) (19, 4, 5.00000000000000000000e-01) (19, 4, 5.00000000000000000000e-01) (19, 4, 5.00000000000000000000e-01) (19, 4, 5.00000000000000000000e-01) (0, 0, 0.00000000000000000000e+00) (20, 4, 5.00000000000000000000e-01) (0, 0, 0.00000000000000000000e+00) 
connections (connected_to_neuron, weight)=(0, -1.75940454006195068359e-01) (1, -3.66082215309143066406e+00) (2, -1.55478525161743164062e+00) (3, -3.51580202579498291016e-01) (4, -4.89599257707595825195e-01) (5, -4.08835977315902709961e-01) (6, -8.20303201675415039062e-01) (7, 2.67681503295898437500e+00) (8, -6.38822269439697265625e+00) (9, 2.32268691062927246094e+00) (10, 1.08845973014831542969e+00) (11, -8.16774815320968627930e-02) (12, -5.27158856391906738281e-01) (13, -3.95221054553985595703e-01) (14, -5.02019941806793212891e-01) (15, -4.40856546163558959961e-01) (16, 2.22117781639099121094e-01) (17, 1.51136726140975952148e-01) (18, -3.95915627479553222656e-01) (0, -2.76504254341125488281e+00) (1, 1.50000000000000000000e+03) (2, 1.32929599285125732422e+00) (3, 2.48157888650894165039e-01) (4, 3.76738548278808593750e-01) (5, 4.30143415927886962891e-01) (6, 6.25629305839538574219e-01) (7, 2.33606510162353515625e+01) (8, 1.61699600219726562500e+02) (9, -5.56434097290039062500e+01) (10, -3.12275657653808593750e+01) (11, -2.34558671712875366211e-01) (12, 3.93341094255447387695e-01) (13, 2.98259377479553222656e-01) (14, 3.29391151666641235352e-01) (15, 3.97936195135116577148e-01) (16, 4.97930943965911865234e-01) (17, -5.79830169677734375000e-01) (18, 4.33687508106231689453e-01) (0, -3.21173334121704101562e+00) (1, 1.50000000000000000000e+03) (2, 1.05121600627899169922e+00) (3, 2.86962330341339111328e-01) (4, 2.81032145023345947266e-01) (5, 2.44036495685577392578e-01) (6, 4.19721543788909912109e-01) (7, 1.08140707015991210938e+01) (8, 3.12117340087890625000e+02) (9, -1.99231281280517578125e+01) (10, -1.00812301635742187500e+01) (11, -3.07757616043090820312e-01) (12, 4.22872632741928100586e-01) (13, 3.90981644392013549805e-01) (14, 3.98708760738372802734e-01) (15, 2.68212437629699707031e-01) (16, -4.91470098495483398438e-03) (17, -4.44116711616516113281e-01) (18, 2.81978875398635864258e-01) (0, -5.27293348312377929688e+00) (1, 1.80451507568359375000e+02) (2, 2.14442744851112365723e-01) (3, -5.22123239934444427490e-02) (4, -4.47510406374931335449e-02) (5, -8.07985588908195495605e-02) (6, 2.29147344827651977539e-01) (7, 4.49192285537719726562e+00) (8, 2.74955993652343750000e+02) (9, -5.00542114257812500000e+02) (10, -6.74092712402343750000e+01) (11, -1.03083455562591552734e+00) (12, 4.19334024190902709961e-02) (13, 4.83933717012405395508e-01) (14, 6.54431104660034179688e-01) (15, 1.37456965446472167969e+00) (16, 7.38645577803254127502e-03) (17, -1.57961392402648925781e+00) (18, 1.51783570647239685059e-01) (0, 4.90594319999217987061e-02) (1, -9.32688331604003906250e+00) (2, -1.84514629840850830078e+00) (3, -4.97872680425643920898e-01) (4, -3.37755352258682250977e-01) (5, -3.94428372383117675781e-01) (6, -9.02790188789367675781e-01) (7, -7.31491565704345703125e+00) (8, -8.43518257141113281250e+00) (9, 1.60890352725982666016e+00) (10, 6.94450902938842773438e+00) (11, 1.30499839782714843750e-01) (12, -5.24761497974395751953e-01) (13, -4.43153381347656250000e-01) (14, -3.93938690423965454102e-01) (15, -5.37589013576507568359e-01) (16, -2.17353031039237976074e-01) (17, 1.82410329580307006836e-01) (18, -4.22112971544265747070e-01) (0, 1.05651326477527618408e-01) (1, -8.28697143554687500000e+02) (2, -1.26445913314819335938e+01) (3, -5.01650571823120117188e-01) (4, -2.75719404220581054688e-01) (5, -3.10586810111999511719e-01) (6, -8.76691222190856933594e-01) (7, -2.46804809570312500000e+01) (8, -1.23909301757812500000e+01) (9, 2.16728854179382324219e+00) (10, 4.77760696411132812500e+00) (11, 7.88712948560714721680e-02) (12, -5.17393529415130615234e-01) (13, -7.05265641212463378906e-01) (14, -6.54761135578155517578e-01) (15, -6.29544198513031005859e-01) (16, -4.81172889471054077148e-01) (17, -3.22662517428398132324e-02) (18, -3.88676881790161132812e-01) (0, -1.59735012054443359375e+00) (1, 1.50000000000000000000e+03) (2, 7.03489065170288085938e-01) (3, 3.71965616941452026367e-01) (4, 2.59580761194229125977e-01) (5, 2.98591643571853637695e-01) (6, 3.87283176183700561523e-01) (7, 2.63570308685302734375e+01) (8, 1.06971572875976562500e+02) (9, -1.64483909606933593750e+01) (10, -2.64147624969482421875e+01) (11, -1.02884471416473388672e+00) (12, 2.18159392476081848145e-01) (13, 2.52278000116348266602e-01) (14, 2.62963831424713134766e-01) (15, 4.07493263483047485352e-01) (16, -4.31202128529548645020e-02) (17, -2.32938721776008605957e-01) (18, 2.00229942798614501953e-01) (0, -7.61697351932525634766e-01) (1, 1.50000000000000000000e+03) (2, 1.03171217441558837891e+00) (3, 3.60833823680877685547e-01) (4, 4.14658308029174804688e-01) (5, 3.05654197931289672852e-01) (6, 6.32442057132720947266e-01) (7, 1.60041961669921875000e+01) (8, 1.13703788757324218750e+02) (9, -2.92045059204101562500e+01) (10, -2.32997665405273437500e+01) (11, -7.18202665448188781738e-02) (12, 3.45093727111816406250e-01) (13, 4.26415503025054931641e-01) (14, 2.69239366054534912109e-01) (15, 4.64308887720108032227e-01) (16, 2.49645411968231201172e-01) (17, 1.06128811836242675781e-01) (18, 3.57824534177780151367e-01) (0, 2.48006284236907958984e-01) (1, 1.01188392639160156250e+01) (2, -2.88576483726501464844e+00) (3, -3.73596787452697753906e-01) (4, -5.14678359031677246094e-01) (5, -5.44384598731994628906e-01) (6, -1.45171535015106201172e+00) (7, -6.15950679779052734375e+00) (8, -2.93148841857910156250e+01) (9, 4.22638416290283203125e+00) (10, 2.11331987380981445312e+00) (11, -1.38393819332122802734e-01) (12, -4.33434456586837768555e-01) (13, -5.40564537048339843750e-01) (14, -5.93662381172180175781e-01) (15, -6.35644495487213134766e-01) (16, -5.00632464885711669922e-01) (17, -1.34886050224304199219e+00) (18, -4.28145170211791992188e-01) (0, 4.23356860876083374023e-01) (1, -1.41793762207031250000e+03) (2, -1.32766973972320556641e+00) (3, -3.10511559247970581055e-01) (4, -4.14366483688354492188e-01) (5, -3.21598410606384277344e-01) (6, -7.95367062091827392578e-01) (7, -3.81644165039062500000e+02) (8, -7.19978103637695312500e+01) (9, 4.27779006958007812500e+00) (10, 3.74030113220214843750e+00) (11, 3.33298183977603912354e-02) (12, -3.51594984531402587891e-01) (13, -3.50153684616088867188e-01) (14, -3.25908243656158447266e-01) (15, -4.36220765113830566406e-01) (16, 1.57180093228816986084e-02) (17, 1.39260336756706237793e-01) (18, -3.33039402961730957031e-01) (0, 1.93398547172546386719e+00) (1, 4.15809676051139831543e-02) (2, -1.99689903259277343750e+01) (3, -1.27693176269531250000e+00) (4, -4.85771596431732177734e-01) (5, -5.57407379150390625000e-01) (6, -1.35403132438659667969e+00) (7, -1.61646820068359375000e+02) (8, -9.45866870880126953125e+00) (9, 1.54840230941772460938e+00) (10, 2.05066537857055664062e+00) (11, 1.89090013504028320312e+00) (12, -3.87850284576416015625e-01) (13, -4.79384273290634155273e-01) (14, -6.15556001663208007812e-01) (15, -6.44768834114074707031e-01) (16, 1.61071312427520751953e+00) (17, 2.00804328918457031250e+00) (18, -5.29678165912628173828e-01) (0, -1.42517175674438476562e+01) (1, 1.99712276458740234375e+00) (2, -1.29154312610626220703e+00) (3, -4.16882932186126708984e-01) (4, -4.29617792367935180664e-01) (5, -4.69692707061767578125e-01) (6, -7.91042029857635498047e-01) (7, 3.72128915786743164062e+00) (8, -5.42424726486206054688e+00) (9, 2.99168348312377929688e-01) (10, 2.78526067733764648438e+00) (11, -2.15152904391288757324e-01) (12, -4.47721779346466064453e-01) (13, -4.30364668369293212891e-01) (14, -4.33998614549636840820e-01) (15, -3.06996524333953857422e-01) (16, -2.21973404288291931152e-01) (17, 9.43308845162391662598e-02) (18, -5.05878746509552001953e-01) (0, -3.38904495239257812500e+01) (1, 1.50000000000000000000e+03) (2, 1.05046880245208740234e+00) (3, 2.70775556564331054688e-01) (4, 1.90983042120933532715e-01) (5, 2.63010263442993164062e-01) (6, 3.66969078779220581055e-01) (7, 1.92836513519287109375e+01) (8, 9.05767150878906250000e+02) (9, -4.36095962524414062500e+01) (10, -6.89994354248046875000e+01) (11, -1.09699475765228271484e+00) (12, 4.75823372602462768555e-01) (13, 4.63772326707839965820e-01) (14, 2.94437021017074584961e-01) (15, 6.76398754119873046875e-01) (16, 2.43915468454360961914e-01) (17, -8.05922389030456542969e-01) (18, 2.11194023489952087402e-01) (0, 3.55021715164184570312e+00) (1, -2.23958473205566406250e+01) (2, -2.16553092002868652344e+00) (3, -4.17040497064590454102e-01) (4, -4.42635208368301391602e-01) (5, -4.10892546176910400391e-01) (6, -7.97635734081268310547e-01) (7, -4.98814487457275390625e+00) (8, -2.98581943511962890625e+01) (9, 1.87599887847900390625e+01) (10, 8.56716251373291015625e+00) (11, 5.12276172637939453125e-01) (12, -3.06583315134048461914e-01) (13, -4.23684865236282348633e-01) (14, -3.83923143148422241211e-01) (15, -3.85525435209274291992e-01) (16, 1.11893098801374435425e-03) (17, 2.91204422712326049805e-01) (18, -3.22565913200378417969e-01) (0, -5.11949253082275390625e+00) (1, 1.50000000000000000000e+03) (2, 1.55563986301422119141e+00) (3, 3.44592332839965820312e-01) (4, 3.31915259361267089844e-01) (5, 2.09386453032493591309e-01) (6, 4.78895872831344604492e-01) (7, 2.37684574127197265625e+01) (8, 1.72443939208984375000e+02) (9, -2.25788993835449218750e+01) (10, -1.80935440063476562500e+01) (11, -4.50562983751296997070e-01) (12, 4.32094961404800415039e-01) (13, 2.99414008855819702148e-01) (14, 3.12000244855880737305e-01) (15, 4.56902235746383666992e-01) (16, 2.61556476354598999023e-01) (17, -3.63393962383270263672e-01) (18, 2.79874861240386962891e-01) (0, -6.35197782516479492188e+00) (1, 4.61165571212768554688e+00) (2, -1.59778869152069091797e+00) (3, -4.01261001825332641602e-01) (4, -4.36502963304519653320e-01) (5, -3.48248541355133056641e-01) (6, -8.66726219654083251953e-01) (7, 3.68631410598754882812e+00) (8, 4.41006612777709960938e+00) (9, 1.46242451667785644531e+00) (10, 4.94731456041336059570e-01) (11, -1.96183100342750549316e-01) (12, -5.43717086315155029297e-01) (13, -4.57525044679641723633e-01) (14, -5.55850863456726074219e-01) (15, -5.56341707706451416016e-01) (16, -5.08590519428253173828e-01) (17, -1.95862397551536560059e-01) (18, -4.83161538839340209961e-01) (0, -2.89459490776062011719e+00) (1, 1.50000000000000000000e+03) (2, 1.52971780300140380859e+00) (3, 2.58018255233764648438e-01) (4, 3.26097786426544189453e-01) (5, 2.58124440908432006836e-01) (6, 5.16812086105346679688e-01) (7, 1.31787786483764648438e+01) (8, 3.42713531494140625000e+02) (9, -1.39794254302978515625e+01) (10, -1.01842899322509765625e+01) (11, -4.03080612421035766602e-01) (12, 2.06347361207008361816e-01) (13, 3.86880755424499511719e-01) (14, 2.56943315267562866211e-01) (15, 2.48022332787513732910e-01) (16, -2.89355993270874023438e-01) (17, -5.66482663154602050781e-01) (18, 3.93577456474304199219e-01) (0, 9.77573841810226440430e-02) (1, 7.06917047500610351562e-01) (2, -3.93443077802658081055e-01) (3, -3.54813009500503540039e-01) (4, -4.37286704778671264648e-01) (5, -4.27995532751083374023e-01) (6, -8.39311957359313964844e-01) (7, -2.65987777709960937500e+01) (8, -7.05412483215332031250e+00) (9, 4.21726846694946289062e+00) (10, 4.37127494812011718750e+00) (11, 7.36698955297470092773e-02) (12, -4.74203050136566162109e-01) (13, -3.77203017473220825195e-01) (14, -5.36192476749420166016e-01) (15, -5.05352079868316650391e-01) (16, -2.30387702584266662598e-01) (17, 8.19015875458717346191e-02) (18, -5.21424114704132080078e-01) (0, -1.60068735480308532715e-01) (1, 1.63222122192382812500e+00) (2, -1.71417462825775146484e+00) (3, -3.91637712717056274414e-01) (4, -3.57362300157546997070e-01) (5, -3.91170591115951538086e-01) (6, -7.01960742473602294922e-01) (7, -9.63591158390045166016e-01) (8, -6.07179355621337890625e+00) (9, 2.35945606231689453125e+00) (10, 2.65673470497131347656e+00) (11, -4.29055169224739074707e-02) (12, -4.62881594896316528320e-01) (13, -3.92062544822692871094e-01) (14, -3.60835641622543334961e-01) (15, -3.48366290330886840820e-01) (16, 9.32900160551071166992e-02) (17, 2.27848410606384277344e-01) (18, -5.33814609050750732422e-01) (19, -1.75821721553802490234e+00) (20, -8.05434063076972961426e-02) (21, -8.76329019665718078613e-02) (22, -1.66980230808258056641e+00) (23, -7.31367766857147216797e-01) (24, 2.30300530791282653809e-01) (25, -1.11059904098510742188e-01) (26, -7.67671465873718261719e-02) (27, -6.02685630321502685547e-01) (28, 5.54877936840057373047e-01) (29, 7.77586281299591064453e-01) (30, -1.96848630905151367188e+00) (31, -1.04717323556542396545e-02) (32, 3.12856167554855346680e-01) (33, -1.20596878230571746826e-01) (34, -2.15803551673889160156e+00) (35, -8.51591974496841430664e-02) (36, 4.03048425912857055664e-01) (37, 1.76419949531555175781e+00) (38, -6.96564242243766784668e-02) 
