FANN_FLO_2.1
num_layers=3
learning_rate=0.700000
connection_rate=1.000000
network_type=0
learning_momentum=0.000000
training_algorithm=2
train_error_function=1
train_stop_function=0
cascade_output_change_fraction=0.010000
quickprop_decay=-0.000100
quickprop_mu=1.750000
rprop_increase_factor=1.200000
rprop_decrease_factor=0.500000
rprop_delta_min=0.000000
rprop_delta_max=50.000000
rprop_delta_zero=0.100000
cascade_output_stagnation_epochs=12
cascade_candidate_change_fraction=0.010000
cascade_candidate_stagnation_epochs=12
cascade_max_out_epochs=150
cascade_min_out_epochs=50
cascade_max_cand_epochs=150
cascade_min_cand_epochs=50
cascade_num_candidate_groups=2
bit_fail_limit=3.49999994039535522461e-01
cascade_candidate_limit=1.00000000000000000000e+03
cascade_weight_multiplier=4.00000005960464477539e-01
cascade_activation_functions_count=10
cascade_activation_functions=3 5 7 8 10 11 14 15 16 17 
cascade_activation_steepnesses_count=4
cascade_activation_steepnesses=2.50000000000000000000e-01 5.00000000000000000000e-01 7.50000000000000000000e-01 1.00000000000000000000e+00 
layer_sizes=19 31 2 
scale_included=0
neurons (num_inputs, activation_function, activation_steepness)=(0, 0, 0.00000000000000000000e+00) (0, 0, 0.00000000000000000000e+00) (0, 0, 0.00000000000000000000e+00) (0, 0, 0.00000000000000000000e+00) (0, 0, 0.00000000000000000000e+00) (0, 0, 0.00000000000000000000e+00) (0, 0, 0.00000000000000000000e+00) (0, 0, 0.00000000000000000000e+00) (0, 0, 0.00000000000000000000e+00) (0, 0, 0.00000000000000000000e+00) (0, 0, 0.00000000000000000000e+00) (0, 0, 0.00000000000000000000e+00) (0, 0, 0.00000000000000000000e+00) (0, 0, 0.00000000000000000000e+00) (0, 0, 0.00000000000000000000e+00) (0, 0, 0.00000000000000000000e+00) (0, 0, 0.00000000000000000000e+00) (0, 0, 0.00000000000000000000e+00) (0, 0, 0.00000000000000000000e+00) (19, 4, 5.00000000000000000000e-01) (19, 4, 5.00000000000000000000e-01) (19, 4, 5.00000000000000000000e-01) (19, 4, 5.00000000000000000000e-01) (19, 4, 5.00000000000000000000e-01) (19, 4, 5.00000000000000000000e-01) (19, 4, 5.00000000000000000000e-01) (19, 4, 5.00000000000000000000e-01) (19, 4, 5.00000000000000000000e-01) (19, 4, 5.00000000000000000000e-01) (19, 4, 5.00000000000000000000e-01) (19, 4, 5.00000000000000000000e-01) (19, 4, 5.00000000000000000000e-01) (19, 4, 5.00000000000000000000e-01) (19, 4, 5.00000000000000000000e-01) (19, 4, 5.00000000000000000000e-01) (19, 4, 5.00000000000000000000e-01) (19, 4, 5.00000000000000000000e-01) (19, 4, 5.00000000000000000000e-01) (19, 4, 5.00000000000000000000e-01) (19, 4, 5.00000000000000000000e-01) (19, 4, 5.00000000000000000000e-01) (19, 4, 5.00000000000000000000e-01) (19, 4, 5.00000000000000000000e-01) (19, 4, 5.00000000000000000000e-01) (19, 4, 5.00000000000000000000e-01) (19, 4, 5.00000000000000000000e-01) (19, 4, 5.00000000000000000000e-01) (19, 4, 5.00000000000000000000e-01) (19, 4, 5.00000000000000000000e-01) (0, 0, 0.00000000000000000000e+00) (31, 4, 5.00000000000000000000e-01) (0, 0, 0.00000000000000000000e+00) 
connections (connected_to_neuron, weight)=(0, 3.38710844516754150391e-04) (1, -1.47229850292205810547e-01) (2, -1.32216483354568481445e-01) (3, -2.35632807016372680664e-03) (4, -4.26690950989723205566e-02) (5, 2.06254050135612487793e-02) (6, 1.11374482512474060059e-02) (7, -5.27515634894371032715e-02) (8, -3.55680584907531738281e-02) (9, -3.22303548455238342285e-02) (10, -1.35557860136032104492e-01) (11, 3.90113815665245056152e-02) (12, 2.44004800915718078613e-02) (13, -1.40978455543518066406e-01) (14, -6.48480206727981567383e-02) (15, -1.40547156333923339844e-01) (16, -1.59552320837974548340e-02) (17, 3.60079109668731689453e-04) (18, 1.19363144040107727051e-02) (0, -2.63505652546882629395e-02) (1, -1.14031210541725158691e-01) (2, 3.74551191926002502441e-02) (3, -1.31868720054626464844e-01) (4, -1.57675415277481079102e-01) (5, -9.06331837177276611328e-02) (6, -1.11754477024078369141e-01) (7, -9.74329859018325805664e-02) (8, 3.88408452272415161133e-03) (9, 3.96511331200599670410e-02) (10, -2.33358517289161682129e-02) (11, -4.55077439546585083008e-02) (12, -8.84661078453063964844e-02) (13, -8.98840129375457763672e-02) (14, -1.20622739195823669434e-01) (15, -1.46335721015930175781e-01) (16, -1.04441717267036437988e-01) (17, 8.01075249910354614258e-03) (18, -3.43545526266098022461e-03) (0, 2.02977433800697326660e-02) (1, -9.59076285362243652344e-02) (2, -1.59376755356788635254e-01) (3, -8.51044207811355590820e-02) (4, 9.95136052370071411133e-03) (5, 1.26422420144081115723e-02) (6, 3.82577404379844665527e-02) (7, -4.21148389577865600586e-02) (8, -6.40511065721511840820e-02) (9, -1.46985605359077453613e-01) (10, -2.69774422049522399902e-02) (11, -4.98863831162452697754e-02) (12, -8.03281068801879882812e-02) (13, -1.14365547895431518555e-01) (14, 1.81892886757850646973e-02) (15, -1.32530540227890014648e-01) (16, -8.08056741952896118164e-02) (17, -1.40963077545166015625e-01) (18, -6.41816109418869018555e-03) (0, 2.13832467794418334961e-01) (1, 2.98025786876678466797e-01) (2, 3.35176289081573486328e-01) (3, 3.23222577571868896484e-01) (4, 2.17565670609474182129e-01) (5, 2.42014050483703613281e-01) (6, 3.45952033996582031250e-01) (7, 2.31170564889907836914e-01) (8, 2.99625694751739501953e-01) (9, 2.25366383790969848633e-01) (10, 3.48617792129516601562e-01) (11, 2.34681800007820129395e-01) (12, 3.12802553176879882812e-01) (13, 2.88224995136260986328e-01) (14, 2.12928175926208496094e-01) (15, 2.99614250659942626953e-01) (16, 2.32721865177154541016e-01) (17, 1.72270178794860839844e-01) (18, 3.60797047615051269531e-01) (0, 3.31535279750823974609e-01) (1, 3.29229533672332763672e-01) (2, 1.76348537206649780273e-01) (3, 3.05795073509216308594e-01) (4, 3.13489079475402832031e-01) (5, 2.27099806070327758789e-01) (6, 2.82102048397064208984e-01) (7, 3.04598271846771240234e-01) (8, 1.99114337563514709473e-01) (9, 3.30547034740447998047e-01) (10, 3.20208847522735595703e-01) (11, 1.66034802794456481934e-01) (12, 3.62780869007110595703e-01) (13, 2.74242848157882690430e-01) (14, 2.15284332633018493652e-01) (15, 2.99554109573364257812e-01) (16, 2.22238987684249877930e-01) (17, 1.86444774270057678223e-01) (18, 1.93074598908424377441e-01) (0, -1.03487715125083923340e-01) (1, -1.57987594604492187500e-01) (2, -1.37492179870605468750e-01) (3, -7.09204077720642089844e-02) (4, 8.45961272716522216797e-04) (5, -2.20284387469291687012e-02) (6, -7.18944370746612548828e-02) (7, 3.02681401371955871582e-02) (8, -1.23165935277938842773e-01) (9, -8.97994190454483032227e-02) (10, -9.88688468933105468750e-02) (11, -1.28666058182716369629e-01) (12, -1.30401134490966796875e-01) (13, -9.17237848043441772461e-02) (14, -4.15526852011680603027e-02) (15, -1.59955248236656188965e-02) (16, -7.68368691205978393555e-02) (17, -3.71810197830200195312e-02) (18, -1.41427338123321533203e-01) (0, -9.18623059988021850586e-03) (1, -3.29567864537239074707e-02) (2, -1.44759654998779296875e-01) (3, -1.54093727469444274902e-02) (4, -2.53084674477577209473e-02) (5, 5.59858977794647216797e-04) (6, -3.04557904601097106934e-02) (7, -1.10476136207580566406e-01) (8, -1.24246105551719665527e-02) (9, -6.04181140661239624023e-02) (10, -8.72586071491241455078e-02) (11, 4.56141680479049682617e-03) (12, 2.36671641469001770020e-02) (13, -6.60684257745742797852e-02) (14, -5.19129261374473571777e-02) (15, -1.40503972768783569336e-01) (16, -9.03803706169128417969e-02) (17, -6.28389567136764526367e-02) (18, 2.57517024874687194824e-02) (0, -3.12700793147087097168e-02) (1, 3.78204137086868286133e-03) (2, -7.53396004438400268555e-02) (3, -7.25440979003906250000e-02) (4, -8.86392742395401000977e-02) (5, -1.44474208354949951172e-04) (6, -6.80646896362304687500e-02) (7, -3.33098322153091430664e-03) (8, -2.36778780817985534668e-02) (9, 5.92387467622756958008e-03) (10, -7.75409489870071411133e-02) (11, -7.07843899726867675781e-02) (12, -1.13242208957672119141e-01) (13, -1.01635605096817016602e-01) (14, -2.94772908091545104980e-02) (15, -6.47698864340782165527e-02) (16, -2.74436101317405700684e-02) (17, -8.47832560539245605469e-02) (18, 7.95478373765945434570e-03) (0, -1.44119650125503540039e-01) (1, -5.89179024100303649902e-02) (2, -7.31246024370193481445e-02) (3, -4.50631827116012573242e-02) (4, -1.69913843274116516113e-02) (5, -1.42819806933403015137e-02) (6, -7.73679614067077636719e-02) (7, 3.67055311799049377441e-02) (8, -1.30177244544029235840e-01) (9, -1.28924399614334106445e-01) (10, -7.23878294229507446289e-02) (11, -6.22850507497787475586e-02) (12, -6.48900717496871948242e-02) (13, -4.74952608346939086914e-02) (14, -9.28204208612442016602e-02) (15, -7.27884769439697265625e-02) (16, 4.16979938745498657227e-03) (17, -1.58138781785964965820e-01) (18, -7.83730447292327880859e-02) (0, -5.56829199194908142090e-02) (1, -1.02878719568252563477e-01) (2, -1.22718229889869689941e-01) (3, 3.47693786025047302246e-02) (4, -7.09120631217956542969e-02) (5, -5.89055046439170837402e-02) (6, -6.48649111390113830566e-02) (7, -2.45206877589225769043e-02) (8, -1.59367784857749938965e-01) (9, -1.34271502494812011719e-01) (10, -1.41180425882339477539e-01) (11, -5.93462809920310974121e-02) (12, -7.29397833347320556641e-02) (13, -1.38808533549308776855e-01) (14, 4.97148185968399047852e-03) (15, -8.43240618705749511719e-02) (16, -7.46080726385116577148e-02) (17, 2.21654698252677917480e-02) (18, -1.04960367083549499512e-01) (0, 2.15072676539421081543e-01) (1, 3.42278361320495605469e-01) (2, 2.88005888462066650391e-01) (3, 3.30737292766571044922e-01) (4, 3.17052185535430908203e-01) (5, 3.11587870121002197266e-01) (6, 2.73222148418426513672e-01) (7, 2.60549724102020263672e-01) (8, 2.74963855743408203125e-01) (9, 3.33560943603515625000e-01) (10, 1.74259811639785766602e-01) (11, 2.00435742735862731934e-01) (12, 3.39403808116912841797e-01) (13, 1.75471574068069458008e-01) (14, 1.66406363248825073242e-01) (15, 2.07539528608322143555e-01) (16, 3.32778394222259521484e-01) (17, 2.22490802407264709473e-01) (18, 2.18807518482208251953e-01) (0, 3.13837349414825439453e-01) (1, 2.80101716518402099609e-01) (2, 2.85114288330078125000e-01) (3, 3.31796944141387939453e-01) (4, 3.27364146709442138672e-01) (5, 2.25309520959854125977e-01) (6, 1.92834943532943725586e-01) (7, 1.92765280604362487793e-01) (8, 2.21797987818717956543e-01) (9, 1.74704030156135559082e-01) (10, 2.66486793756484985352e-01) (11, 2.59318649768829345703e-01) (12, 1.84238061308860778809e-01) (13, 3.04906189441680908203e-01) (14, 1.74108475446701049805e-01) (15, 2.57127135992050170898e-01) (16, 3.51619422435760498047e-01) (17, 2.82975941896438598633e-01) (18, 1.92445650696754455566e-01) (0, -7.41937011480331420898e-02) (1, -1.35414078831672668457e-02) (2, -3.04887220263481140137e-02) (3, -6.40931501984596252441e-02) (4, -5.35596162080764770508e-02) (5, -1.63363590836524963379e-02) (6, -5.10054081678390502930e-03) (7, 3.53816822171211242676e-02) (8, 2.01201960444450378418e-02) (9, -7.99034237861633300781e-02) (10, 2.30640843510627746582e-02) (11, -2.08220630884170532227e-03) (12, -3.56376990675926208496e-02) (13, -2.69518047571182250977e-03) (14, -1.37925833463668823242e-01) (15, -1.59344166517257690430e-01) (16, -1.37429192662239074707e-01) (17, -1.24023929238319396973e-02) (18, -8.70001316070556640625e-02) (0, 2.72919535636901855469e-01) (1, 1.74178242683410644531e-01) (2, 2.29681611061096191406e-01) (3, 2.74576783180236816406e-01) (4, 2.27952525019645690918e-01) (5, 2.13860556483268737793e-01) (6, 1.70082628726959228516e-01) (7, 1.94713473320007324219e-01) (8, 1.64957150816917419434e-01) (9, 2.50652790069580078125e-01) (10, 3.37259232997894287109e-01) (11, 3.32026422023773193359e-01) (12, 1.83651089668273925781e-01) (13, 2.39661306142807006836e-01) (14, 2.03240111470222473145e-01) (15, 2.72267937660217285156e-01) (16, 2.22688093781471252441e-01) (17, 3.34583461284637451172e-01) (18, 3.60234141349792480469e-01) (0, 2.71261155605316162109e-01) (1, 3.02285909652709960938e-01) (2, 3.35523128509521484375e-01) (3, 3.52750062942504882812e-01) (4, 2.86136209964752197266e-01) (5, 3.06609332561492919922e-01) (6, 1.98996141552925109863e-01) (7, 3.43881130218505859375e-01) (8, 2.26068347692489624023e-01) (9, 3.46475005149841308594e-01) (10, 2.20803096890449523926e-01) (11, 2.53503322601318359375e-01) (12, 2.46132925152778625488e-01) (13, 1.71858251094818115234e-01) (14, 2.37460881471633911133e-01) (15, 2.20616549253463745117e-01) (16, 3.18167448043823242188e-01) (17, 2.56056874990463256836e-01) (18, 3.63644123077392578125e-01) (0, -1.41459226608276367188e-01) (1, -1.45344182848930358887e-01) (2, -3.95939946174621582031e-02) (3, -9.63251292705535888672e-02) (4, 2.34630033373832702637e-02) (5, -9.73349660634994506836e-02) (6, -1.48834258317947387695e-01) (7, -9.71609503030776977539e-02) (8, -2.40887477993965148926e-02) (9, -9.95807051658630371094e-02) (10, -9.27631855010986328125e-02) (11, -1.10680371522903442383e-01) (12, -4.50732931494712829590e-02) (13, 1.30871757864952087402e-02) (14, -8.38154852390289306641e-02) (15, -1.26760274171829223633e-01) (16, -9.97687131166458129883e-02) (17, -5.27755990624427795410e-02) (18, -3.94024476408958435059e-02) (0, 2.47131705284118652344e-01) (1, 3.58301162719726562500e-01) (2, 1.83124259114265441895e-01) (3, 1.85163825750350952148e-01) (4, 2.64174371957778930664e-01) (5, 1.94591030478477478027e-01) (6, 3.07154238224029541016e-01) (7, 3.56940746307373046875e-01) (8, 3.18683862686157226562e-01) (9, 3.35539519786834716797e-01) (10, 2.28383839130401611328e-01) (11, 2.62881696224212646484e-01) (12, 2.68209606409072875977e-01) (13, 2.14532300829887390137e-01) (14, 2.60108649730682373047e-01) (15, 2.62067973613739013672e-01) (16, 1.91995590925216674805e-01) (17, 2.85720586776733398438e-01) (18, 3.21901917457580566406e-01) (0, 2.21357911825180053711e-01) (1, 1.78124547004699707031e-01) (2, 3.54902207851409912109e-01) (3, 2.56755143404006958008e-01) (4, 2.99499273300170898438e-01) (5, 2.99996852874755859375e-01) (6, 2.62873113155364990234e-01) (7, 3.24238836765289306641e-01) (8, 2.97996699810028076172e-01) (9, 2.46843695640563964844e-01) (10, 3.17701160907745361328e-01) (11, 2.19003051519393920898e-01) (12, 2.00112581253051757812e-01) (13, 3.07959854602813720703e-01) (14, 2.97572255134582519531e-01) (15, 3.13161313533782958984e-01) (16, 3.18265616893768310547e-01) (17, 3.05938482284545898438e-01) (18, 3.23685228824615478516e-01) (0, -1.30124107003211975098e-01) (1, -3.58433127403259277344e-02) (2, -5.86148053407669067383e-02) (3, 2.11201980710029602051e-02) (4, -7.27660506963729858398e-02) (5, -1.90531387925148010254e-02) (6, -6.59419894218444824219e-02) (7, -1.26951932907104492188e-01) (8, -1.21031865477561950684e-01) (9, -2.25352272391319274902e-02) (10, 1.04299858212471008301e-02) (11, -1.43316820263862609863e-01) (12, 3.42874154448509216309e-02) (13, 2.86642834544181823730e-02) (14, -7.94685333967208862305e-02) (15, -6.75061792135238647461e-02) (16, -1.63836851716041564941e-02) (17, -5.78962266445159912109e-04) (18, 2.93645933270454406738e-02) (0, 2.14688047766685485840e-01) (1, 2.77767777442932128906e-01) (2, 2.58839726448059082031e-01) (3, 3.35052073001861572266e-01) (4, 2.35934585332870483398e-01) (5, 1.68390557169914245605e-01) (6, 3.55947852134704589844e-01) (7, 2.30958104133605957031e-01) (8, 3.28613102436065673828e-01) (9, 2.16007530689239501953e-01) (10, 2.54448741674423217773e-01) (11, 3.35947811603546142578e-01) (12, 2.90823042392730712891e-01) (13, 2.78270870447158813477e-01) (14, 3.14259648323059082031e-01) (15, 1.78147464990615844727e-01) (16, 3.40385317802429199219e-01) (17, 2.71587461233139038086e-01) (18, 1.86280786991119384766e-01) (0, -8.69453549385070800781e-02) (1, -1.30508512258529663086e-01) (2, -9.64140892028808593750e-02) (3, -7.16584026813507080078e-02) (4, -2.84580141305923461914e-03) (5, -6.94072246551513671875e-02) (6, 3.27768698334693908691e-02) (7, -1.59161925315856933594e-01) (8, -7.42837488651275634766e-02) (9, -1.26884177327156066895e-01) (10, 1.77220776677131652832e-02) (11, 1.50227323174476623535e-02) (12, -1.52858942747116088867e-01) (13, -1.40091657638549804688e-01) (14, 3.94188091158866882324e-02) (15, -1.28014773130416870117e-01) (16, 1.56888440251350402832e-02) (17, -1.57699465751647949219e-01) (18, -9.48823690414428710938e-02) (0, 1.96104809641838073730e-01) (1, 3.49343955516815185547e-01) (2, 2.39539951086044311523e-01) (3, 3.63750874996185302734e-01) (4, 1.76980108022689819336e-01) (5, 3.20566654205322265625e-01) (6, 1.79405272006988525391e-01) (7, 2.80302464962005615234e-01) (8, 2.58977562189102172852e-01) (9, 2.51657366752624511719e-01) (10, 2.21224963665008544922e-01) (11, 3.43760311603546142578e-01) (12, 1.94997161626815795898e-01) (13, 3.33232104778289794922e-01) (14, 2.47766196727752685547e-01) (15, 2.22407013177871704102e-01) (16, 2.10641771554946899414e-01) (17, 2.72075474262237548828e-01) (18, 1.88021510839462280273e-01) (0, 2.93207883834838867188e-01) (1, 3.60391795635223388672e-01) (2, 3.20596754550933837891e-01) (3, 2.85101413726806640625e-01) (4, 3.15560638904571533203e-01) (5, 2.43508011102676391602e-01) (6, 2.54741519689559936523e-01) (7, 2.56610006093978881836e-01) (8, 2.60209381580352783203e-01) (9, 3.54647099971771240234e-01) (10, 1.69593721628189086914e-01) (11, 1.77451491355895996094e-01) (12, 2.43062496185302734375e-01) (13, 1.67277529835700988770e-01) (14, 2.49306797981262207031e-01) (15, 3.15281331539154052734e-01) (16, 3.49386334419250488281e-01) (17, 3.51863205432891845703e-01) (18, 1.80768966674804687500e-01) (0, -1.24136060476303100586e-01) (1, 5.24375587701797485352e-03) (2, -1.08267873525619506836e-01) (3, -9.81865674257278442383e-02) (4, -6.16419985890388488770e-02) (5, -5.70451021194458007812e-02) (6, 3.03929299116134643555e-03) (7, -1.58561348915100097656e-01) (8, 1.93815603852272033691e-02) (9, -9.41310524940490722656e-02) (10, -1.00485116243362426758e-01) (11, -9.32956486940383911133e-02) (12, -5.98753541707992553711e-02) (13, 3.49319949746131896973e-02) (14, -1.37867212295532226562e-01) (15, 2.57844105362892150879e-02) (16, -8.14222395420074462891e-02) (17, -1.03681743144989013672e-01) (18, -1.89445242285728454590e-02) (0, 2.83394306898117065430e-01) (1, 2.23838925361633300781e-01) (2, 2.76658356189727783203e-01) (3, 2.13083162903785705566e-01) (4, 3.04444372653961181641e-01) (5, 2.12751314043998718262e-01) (6, 3.27082514762878417969e-01) (7, 2.91714787483215332031e-01) (8, 2.65968352556228637695e-01) (9, 3.45921218395233154297e-01) (10, 3.13647210597991943359e-01) (11, 2.84462094306945800781e-01) (12, 1.70073047280311584473e-01) (13, 2.33454257249832153320e-01) (14, 2.81447589397430419922e-01) (15, 3.05231094360351562500e-01) (16, 2.34751015901565551758e-01) (17, 2.76206433773040771484e-01) (18, 2.17200472950935363770e-01) (0, 3.04162025451660156250e-01) (1, 2.67294913530349731445e-01) (2, 2.41544216871261596680e-01) (3, 2.49444395303726196289e-01) (4, 2.27677628397941589355e-01) (5, 1.93654239177703857422e-01) (6, 3.62690687179565429688e-01) (7, 3.57777357101440429688e-01) (8, 1.79917678236961364746e-01) (9, 2.92146444320678710938e-01) (10, 3.21537017822265625000e-01) (11, 2.88561761379241943359e-01) (12, 2.72878587245941162109e-01) (13, 2.86313951015472412109e-01) (14, 2.94559001922607421875e-01) (15, 2.69445896148681640625e-01) (16, 1.92667692899703979492e-01) (17, 1.81704044342041015625e-01) (18, 3.15820753574371337891e-01) (0, -1.08832418918609619141e-01) (1, 1.36727467179298400879e-02) (2, -4.20340448617935180664e-02) (3, -1.06180742383003234863e-01) (4, -1.96654275059700012207e-02) (5, -1.56939804553985595703e-01) (6, -1.27187743782997131348e-01) (7, -8.42974334955215454102e-02) (8, -2.69131436944007873535e-02) (9, 3.08757349848747253418e-02) (10, -1.11472725868225097656e-01) (11, 3.80291417241096496582e-02) (12, -8.43330770730972290039e-02) (13, -2.60749235749244689941e-02) (14, -8.12635868787765502930e-02) (15, -3.70029434561729431152e-02) (16, -1.48390501737594604492e-01) (17, -3.91741991043090820312e-02) (18, -4.07108068466186523438e-02) (0, -6.65381848812103271484e-02) (1, -1.47359281778335571289e-01) (2, -1.07472851872444152832e-01) (3, -1.36270165443420410156e-01) (4, -1.32556781172752380371e-01) (5, -1.21851325035095214844e-01) (6, 4.83145564794540405273e-03) (7, -3.76240834593772888184e-02) (8, 1.20280608534812927246e-02) (9, -8.43179076910018920898e-02) (10, 2.89817526936531066895e-02) (11, -1.43670678138732910156e-01) (12, -1.12915799021720886230e-01) (13, -1.57812014222145080566e-02) (14, -7.45672732591629028320e-02) (15, -9.22038853168487548828e-02) (16, -1.10722541809082031250e-01) (17, -1.53555378317832946777e-01) (18, -4.51844781637191772461e-02) (0, -5.56071847677230834961e-02) (1, -2.99526378512382507324e-02) (2, -5.39354532957077026367e-02) (3, -1.33117944002151489258e-01) (4, -1.53285264968872070312e-01) (5, -1.05362817645072937012e-01) (6, -7.28372335433959960938e-02) (7, -1.52808055281639099121e-02) (8, -6.44009560346603393555e-02) (9, -2.69070789217948913574e-02) (10, -6.73658102750778198242e-02) (11, -5.71512803435325622559e-02) (12, 1.84283182024955749512e-02) (13, -1.15317821502685546875e-01) (14, 1.35459080338478088379e-02) (15, 2.60770544409751892090e-02) (16, 3.70970889925956726074e-02) (17, -1.49341791868209838867e-01) (18, -2.73055061697959899902e-02) (0, 3.60322237014770507812e-01) (1, 3.51473331451416015625e-01) (2, 2.28310346603393554688e-01) (3, 2.27957308292388916016e-01) (4, 2.94310927391052246094e-01) (5, 2.99622058868408203125e-01) (6, 1.64062440395355224609e-01) (7, 2.13123247027397155762e-01) (8, 1.78193047642707824707e-01) (9, 3.06319177150726318359e-01) (10, 3.22454333305358886719e-01) (11, 3.05621683597564697266e-01) (12, 1.99135452508926391602e-01) (13, 2.85394668579101562500e-01) (14, 2.43523269891738891602e-01) (15, 3.11343133449554443359e-01) (16, 3.59762310981750488281e-01) (17, 3.40787112712860107422e-01) (18, 2.24792450666427612305e-01) (19, 6.24532923102378845215e-02) (20, 1.08501784503459930420e-01) (21, 4.54853922128677368164e-02) (22, -3.59023451805114746094e-01) (23, -3.23294341564178466797e-01) (24, 6.43219724297523498535e-02) (25, 1.15300558507442474365e-01) (26, 1.12570919096469879150e-01) (27, 3.53788733482360839844e-02) (28, 6.87373951077461242676e-02) (29, -3.62820386886596679688e-01) (30, -3.37969064712524414062e-01) (31, 2.64393016695976257324e-02) (32, -2.66750335693359375000e-01) (33, -2.88786947727203369141e-01) (34, 3.01123782992362976074e-02) (35, -3.33414018154144287109e-01) (36, -3.05052816867828369141e-01) (37, 4.92629781365394592285e-02) (38, -2.69219785928726196289e-01) (39, 9.53100845217704772949e-02) (40, -3.55430424213409423828e-01) (41, -3.34587723016738891602e-01) (42, 5.63658997416496276855e-02) (43, -2.90502399206161499023e-01) (44, -2.89640307426452636719e-01) (45, 8.73233750462532043457e-02) (46, 9.97430309653282165527e-02) (47, 3.72069627046585083008e-02) (48, -2.94643044471740722656e-01) (49, -2.81808137893676757812e-01) 
