FANN_FLO_2.1
num_layers=3
learning_rate=0.700000
connection_rate=1.000000
network_type=0
learning_momentum=0.000000
training_algorithm=2
train_error_function=1
train_stop_function=0
cascade_output_change_fraction=0.010000
quickprop_decay=-0.000100
quickprop_mu=1.750000
rprop_increase_factor=1.200000
rprop_decrease_factor=0.500000
rprop_delta_min=0.000000
rprop_delta_max=50.000000
rprop_delta_zero=0.100000
cascade_output_stagnation_epochs=12
cascade_candidate_change_fraction=0.010000
cascade_candidate_stagnation_epochs=12
cascade_max_out_epochs=150
cascade_min_out_epochs=50
cascade_max_cand_epochs=150
cascade_min_cand_epochs=50
cascade_num_candidate_groups=2
bit_fail_limit=3.49999994039535522461e-01
cascade_candidate_limit=1.00000000000000000000e+03
cascade_weight_multiplier=4.00000005960464477539e-01
cascade_activation_functions_count=10
cascade_activation_functions=3 5 7 8 10 11 14 15 16 17 
cascade_activation_steepnesses_count=4
cascade_activation_steepnesses=2.50000000000000000000e-01 5.00000000000000000000e-01 7.50000000000000000000e-01 1.00000000000000000000e+00 
layer_sizes=19 31 2 
scale_included=0
neurons (num_inputs, activation_function, activation_steepness)=(0, 0, 0.00000000000000000000e+00) (0, 0, 0.00000000000000000000e+00) (0, 0, 0.00000000000000000000e+00) (0, 0, 0.00000000000000000000e+00) (0, 0, 0.00000000000000000000e+00) (0, 0, 0.00000000000000000000e+00) (0, 0, 0.00000000000000000000e+00) (0, 0, 0.00000000000000000000e+00) (0, 0, 0.00000000000000000000e+00) (0, 0, 0.00000000000000000000e+00) (0, 0, 0.00000000000000000000e+00) (0, 0, 0.00000000000000000000e+00) (0, 0, 0.00000000000000000000e+00) (0, 0, 0.00000000000000000000e+00) (0, 0, 0.00000000000000000000e+00) (0, 0, 0.00000000000000000000e+00) (0, 0, 0.00000000000000000000e+00) (0, 0, 0.00000000000000000000e+00) (0, 0, 0.00000000000000000000e+00) (19, 4, 5.00000000000000000000e-01) (19, 4, 5.00000000000000000000e-01) (19, 4, 5.00000000000000000000e-01) (19, 4, 5.00000000000000000000e-01) (19, 4, 5.00000000000000000000e-01) (19, 4, 5.00000000000000000000e-01) (19, 4, 5.00000000000000000000e-01) (19, 4, 5.00000000000000000000e-01) (19, 4, 5.00000000000000000000e-01) (19, 4, 5.00000000000000000000e-01) (19, 4, 5.00000000000000000000e-01) (19, 4, 5.00000000000000000000e-01) (19, 4, 5.00000000000000000000e-01) (19, 4, 5.00000000000000000000e-01) (19, 4, 5.00000000000000000000e-01) (19, 4, 5.00000000000000000000e-01) (19, 4, 5.00000000000000000000e-01) (19, 4, 5.00000000000000000000e-01) (19, 4, 5.00000000000000000000e-01) (19, 4, 5.00000000000000000000e-01) (19, 4, 5.00000000000000000000e-01) (19, 4, 5.00000000000000000000e-01) (19, 4, 5.00000000000000000000e-01) (19, 4, 5.00000000000000000000e-01) (19, 4, 5.00000000000000000000e-01) (19, 4, 5.00000000000000000000e-01) (19, 4, 5.00000000000000000000e-01) (19, 4, 5.00000000000000000000e-01) (19, 4, 5.00000000000000000000e-01) (19, 4, 5.00000000000000000000e-01) (0, 0, 0.00000000000000000000e+00) (31, 4, 5.00000000000000000000e-01) (0, 0, 0.00000000000000000000e+00) 
connections (connected_to_neuron, weight)=(0, 1.23349547386169433594e-01) (1, 3.39715242385864257812e-01) (2, 2.09689408540725708008e-01) (3, 1.81736871600151062012e-01) (4, 1.71544179320335388184e-01) (5, 2.62997835874557495117e-01) (6, 1.24394506216049194336e-01) (7, 2.18325763940811157227e-01) (8, 1.21031433343887329102e-01) (9, 9.51443240046501159668e-02) (10, 2.10544407367706298828e-01) (11, 1.39874756336212158203e-01) (12, 1.94874003529548645020e-01) (13, 1.67267411947250366211e-01) (14, 1.83171331882476806641e-01) (15, 8.04524198174476623535e-02) (16, 8.36996659636497497559e-02) (17, 2.60225147008895874023e-01) (18, 1.24052204191684722900e-01) (0, -1.78709924221038818359e-01) (1, 1.01870968937873840332e-02) (2, -2.52739712595939636230e-02) (3, -2.23570376634597778320e-01) (4, -3.62964272499084472656e-01) (5, -3.56065154075622558594e-01) (6, -2.02580183744430541992e-01) (7, -1.80817246437072753906e-01) (8, -2.11017042398452758789e-01) (9, -1.79142951965332031250e-01) (10, -2.71503567695617675781e-01) (11, -1.76626473665237426758e-01) (12, -1.76805466413497924805e-01) (13, -1.85279011726379394531e-01) (14, -2.00424402952194213867e-01) (15, -3.48607897758483886719e-01) (16, -2.68349528312683105469e-01) (17, -1.66498690843582153320e-01) (18, -3.59433412551879882812e-01) (0, -2.13404417037963867188e-01) (1, -1.00070983171463012695e-01) (2, -1.32926672697067260742e-01) (3, -3.42450708150863647461e-01) (4, -1.84742361307144165039e-01) (5, -1.80881321430206298828e-01) (6, -2.88050651550292968750e-01) (7, -2.83396065235137939453e-01) (8, -2.53522783517837524414e-01) (9, -1.73181235790252685547e-01) (10, -2.72949159145355224609e-01) (11, -2.72664755582809448242e-01) (12, -2.92329370975494384766e-01) (13, -1.95484429597854614258e-01) (14, -3.22535157203674316406e-01) (15, -2.64066487550735473633e-01) (16, -1.81329280138015747070e-01) (17, -2.16862916946411132812e-01) (18, -2.31141597032546997070e-01) (0, 2.31510996818542480469e-01) (1, 2.09181040525436401367e-01) (2, 3.21451663970947265625e-01) (3, 1.69479534029960632324e-01) (4, 1.62355720996856689453e-01) (5, 2.32409656047821044922e-01) (6, 2.29118883609771728516e-01) (7, 1.20957791805267333984e-01) (8, 2.57466644048690795898e-01) (9, 1.61651879549026489258e-01) (10, 2.03012198209762573242e-01) (11, 1.45711362361907958984e-01) (12, 9.08085703849792480469e-02) (13, 1.39527037739753723145e-01) (14, 1.50755032896995544434e-01) (15, 2.59644687175750732422e-01) (16, 1.68013334274291992188e-01) (17, 1.20102331042289733887e-01) (18, 2.79751658439636230469e-01) (0, -3.37724477052688598633e-01) (1, -1.47038877010345458984e-01) (2, -1.22273385524749755859e-01) (3, -2.92853474617004394531e-01) (4, -2.04039543867111206055e-01) (5, -3.08476924896240234375e-01) (6, -1.87381029129028320312e-01) (7, -3.28858733177185058594e-01) (8, -3.44268620014190673828e-01) (9, -3.38476300239562988281e-01) (10, -1.86904579401016235352e-01) (11, -3.21060121059417724609e-01) (12, -2.73428261280059814453e-01) (13, -3.24823200702667236328e-01) (14, -3.19352924823760986328e-01) (15, -1.80103719234466552734e-01) (16, -2.19034552574157714844e-01) (17, -3.29724550247192382812e-01) (18, -2.96391069889068603516e-01) (0, 1.83153733611106872559e-01) (1, 2.68681406974792480469e-01) (2, 3.44225287437438964844e-01) (3, 1.26130878925323486328e-01) (4, 2.01726600527763366699e-01) (5, 1.38960689306259155273e-01) (6, 2.32201069593429565430e-01) (7, 1.23407907783985137939e-01) (8, 2.36595660448074340820e-01) (9, 1.82984948158264160156e-01) (10, 1.47888645529747009277e-01) (11, 8.43081772327423095703e-02) (12, 8.74161422252655029297e-02) (13, 1.23008839786052703857e-01) (14, 1.29484847187995910645e-01) (15, 1.71769484877586364746e-01) (16, 2.49547123908996582031e-01) (17, 2.58131265640258789062e-01) (18, 1.31946980953216552734e-01) (0, 1.52668550610542297363e-01) (1, 3.04288744926452636719e-01) (2, 1.96698158979415893555e-01) (3, 2.37864881753921508789e-01) (4, 1.14870399236679077148e-01) (5, 1.46761432290077209473e-01) (6, 1.39269679784774780273e-01) (7, 2.25482314825057983398e-01) (8, 2.01183766126632690430e-01) (9, 2.15402036905288696289e-01) (10, 1.81824341416358947754e-01) (11, 2.41480350494384765625e-01) (12, 2.79906421899795532227e-01) (13, 1.07040658593177795410e-01) (14, 1.52263417840003967285e-01) (15, 2.11134612560272216797e-01) (16, 2.59185761213302612305e-01) (17, 2.55090445280075073242e-01) (18, 2.24813401699066162109e-01) (0, 1.58943980932235717773e-01) (1, 1.75474375486373901367e-01) (2, 2.13762164115905761719e-01) (3, 2.32388019561767578125e-01) (4, 2.65461951494216918945e-01) (5, 1.38709038496017456055e-01) (6, 2.02807649970054626465e-01) (7, 1.08081974089145660400e-01) (8, 2.53665477037429809570e-01) (9, 2.75743126869201660156e-01) (10, 1.34489387273788452148e-01) (11, 8.31389129161834716797e-02) (12, 2.35679984092712402344e-01) (13, 1.93419054150581359863e-01) (14, 1.13881528377532958984e-01) (15, 1.26724362373352050781e-01) (16, 1.76365360617637634277e-01) (17, 9.24166217446327209473e-02) (18, 1.66011810302734375000e-01) (0, -3.63576829433441162109e-01) (1, -4.76742386817932128906e-02) (2, -1.00880742073059082031e-01) (3, -3.46738636493682861328e-01) (4, -2.52052664756774902344e-01) (5, -2.65153497457504272461e-01) (6, -2.50412076711654663086e-01) (7, -2.91572630405426025391e-01) (8, -2.76894003152847290039e-01) (9, -1.73327744007110595703e-01) (10, -3.35236072540283203125e-01) (11, -3.28651189804077148438e-01) (12, -2.56287515163421630859e-01) (13, -2.39819422364234924316e-01) (14, -2.60719776153564453125e-01) (15, -3.33305776119232177734e-01) (16, -2.85623908042907714844e-01) (17, -2.96668708324432373047e-01) (18, -3.26426744461059570312e-01) (0, 1.73808887600898742676e-01) (1, 2.09873229265213012695e-01) (2, 3.55086565017700195312e-01) (3, 2.71884679794311523438e-01) (4, 8.54598060250282287598e-02) (5, 2.42869436740875244141e-01) (6, 2.26552903652191162109e-01) (7, 1.94405838847160339355e-01) (8, 9.87703651189804077148e-02) (9, 1.53422147035598754883e-01) (10, 8.59290733933448791504e-02) (11, 1.29846096038818359375e-01) (12, 2.43327438831329345703e-01) (13, 1.24215945601463317871e-01) (14, 2.17315435409545898438e-01) (15, 1.40320837497711181641e-01) (16, 9.21960920095443725586e-02) (17, 2.59568542242050170898e-01) (18, 8.85631889104843139648e-02) (0, 2.01419353485107421875e-01) (1, 2.59042441844940185547e-01) (2, 3.41898798942565917969e-01) (3, 2.24649339914321899414e-01) (4, 2.01321214437484741211e-01) (5, 1.25514566898345947266e-01) (6, 2.43365675210952758789e-01) (7, 1.66674777865409851074e-01) (8, 2.22806304693222045898e-01) (9, 2.25614488124847412109e-01) (10, 2.22875565290451049805e-01) (11, 1.89320474863052368164e-01) (12, 2.29209661483764648438e-01) (13, 2.46919780969619750977e-01) (14, 1.00785426795482635498e-01) (15, 2.20557510852813720703e-01) (16, 2.29784220457077026367e-01) (17, 1.03360280394554138184e-01) (18, 9.60812643170356750488e-02) (0, -2.86337316036224365234e-01) (1, -8.33441466093063354492e-02) (2, -5.03452867269515991211e-03) (3, -2.59214818477630615234e-01) (4, -2.39334940910339355469e-01) (5, -3.18271636962890625000e-01) (6, -2.07435518503189086914e-01) (7, -1.84644579887390136719e-01) (8, -3.37057322263717651367e-01) (9, -3.38257551193237304688e-01) (10, -3.10580313205718994141e-01) (11, -3.39224040508270263672e-01) (12, -3.54043781757354736328e-01) (13, -2.29914069175720214844e-01) (14, -1.81426763534545898438e-01) (15, -2.55338370800018310547e-01) (16, -2.88010299205780029297e-01) (17, -2.04627573490142822266e-01) (18, -1.91617578268051147461e-01) (0, 1.11444234848022460938e-01) (1, 2.47152358293533325195e-01) (2, 3.05408418178558349609e-01) (3, 1.31566196680068969727e-01) (4, 1.52808487415313720703e-01) (5, 1.72175318002700805664e-01) (6, 2.70337492227554321289e-01) (7, 8.20270627737045288086e-02) (8, 1.48714452981948852539e-01) (9, 1.63741692900657653809e-01) (10, 1.26434773206710815430e-01) (11, 1.09011702239513397217e-01) (12, 2.79520422220230102539e-01) (13, 2.19727188348770141602e-01) (14, 2.74597704410552978516e-01) (15, 8.37826579809188842773e-02) (16, 2.55043804645538330078e-01) (17, 2.41270184516906738281e-01) (18, 1.48053795099258422852e-01) (0, 2.60158568620681762695e-01) (1, 2.88884520530700683594e-01) (2, 2.98200726509094238281e-01) (3, 1.91355362534523010254e-01) (4, 2.29321032762527465820e-01) (5, 1.18586599826812744141e-01) (6, 2.04974517226219177246e-01) (7, 1.26634061336517333984e-01) (8, 2.58453547954559326172e-01) (9, 1.48866713047027587891e-01) (10, 1.22740596532821655273e-01) (11, 2.21176832914352416992e-01) (12, 2.39057272672653198242e-01) (13, 1.55265629291534423828e-01) (14, 2.69217967987060546875e-01) (15, 2.66294270753860473633e-01) (16, 1.27808779478073120117e-01) (17, 2.01928853988647460938e-01) (18, 1.38101562857627868652e-01) (0, 1.92809626460075378418e-01) (1, 3.55338335037231445312e-01) (2, 1.87242507934570312500e-01) (3, 1.16770565509796142578e-01) (4, 8.27354714274406433105e-02) (5, 2.54977822303771972656e-01) (6, 1.32381677627563476562e-01) (7, 2.58695393800735473633e-01) (8, 2.13356971740722656250e-01) (9, 2.10562795400619506836e-01) (10, 2.48847305774688720703e-01) (11, 9.62894335389137268066e-02) (12, 2.56419152021408081055e-01) (13, 1.56539455056190490723e-01) (14, 2.78557866811752319336e-01) (15, 2.42041200399398803711e-01) (16, 1.06401920318603515625e-01) (17, 2.16890633106231689453e-01) (18, 2.00518250465393066406e-01) (0, 2.30210214853286743164e-01) (1, 3.47142040729522705078e-01) (2, 2.31732696294784545898e-01) (3, 2.63355731964111328125e-01) (4, 1.39543130993843078613e-01) (5, 2.21232771873474121094e-01) (6, 1.79295346140861511230e-01) (7, 1.36827334761619567871e-01) (8, 1.76931574940681457520e-01) (9, 2.08923190832138061523e-01) (10, 9.19632017612457275391e-02) (11, 1.45488590002059936523e-01) (12, 1.46568641066551208496e-01) (13, 9.90729779005050659180e-02) (14, 2.39505618810653686523e-01) (15, 9.06207337975502014160e-02) (16, 1.82554379105567932129e-01) (17, 1.11309871077537536621e-01) (18, 1.04956805706024169922e-01) (0, -3.15061509609222412109e-01) (1, -5.01629486680030822754e-02) (2, -1.28576293587684631348e-01) (3, -2.25652456283569335938e-01) (4, -3.56616258621215820312e-01) (5, -2.64992713928222656250e-01) (6, -3.48323643207550048828e-01) (7, -2.91449934244155883789e-01) (8, -2.14742749929428100586e-01) (9, -1.97220593690872192383e-01) (10, -3.02343666553497314453e-01) (11, -3.06150972843170166016e-01) (12, -2.95543134212493896484e-01) (13, -2.09315866231918334961e-01) (14, -1.87700510025024414062e-01) (15, -2.98333466053009033203e-01) (16, -3.05961370468139648438e-01) (17, -3.08780193328857421875e-01) (18, -2.84433931112289428711e-01) (0, -2.96914219856262207031e-01) (1, -4.93964776396751403809e-02) (2, -4.64836210012435913086e-02) (3, -2.94205397367477416992e-01) (4, -3.25878798961639404297e-01) (5, -2.60678589344024658203e-01) (6, -2.40837991237640380859e-01) (7, -1.79974347352981567383e-01) (8, -2.44487255811691284180e-01) (9, -3.13134312629699707031e-01) (10, -2.64345586299896240234e-01) (11, -2.72071510553359985352e-01) (12, -3.21724355220794677734e-01) (13, -2.36604511737823486328e-01) (14, -2.27707475423812866211e-01) (15, -2.95329213142395019531e-01) (16, -2.13833302259445190430e-01) (17, -3.12293261289596557617e-01) (18, -3.28564047813415527344e-01) (0, 2.52275079488754272461e-01) (1, 1.91243857145309448242e-01) (2, 2.51312166452407836914e-01) (3, 1.35451331734657287598e-01) (4, 2.50494092702865600586e-01) (5, 1.73995435237884521484e-01) (6, 2.61285781860351562500e-01) (7, 1.50232940912246704102e-01) (8, 8.50309580564498901367e-02) (9, 2.35151201486587524414e-01) (10, 1.05949081480503082275e-01) (11, 2.06114351749420166016e-01) (12, 8.38250666856765747070e-02) (13, 1.67825698852539062500e-01) (14, 1.66402667760848999023e-01) (15, 2.49409526586532592773e-01) (16, 1.45733416080474853516e-01) (17, 2.61371493339538574219e-01) (18, 1.90720036625862121582e-01) (0, -2.92449712753295898438e-01) (1, -1.39090195298194885254e-02) (2, -8.82967561483383178711e-03) (3, -2.44343429803848266602e-01) (4, -2.95759826898574829102e-01) (5, -2.51110196113586425781e-01) (6, -2.24815338850021362305e-01) (7, -2.87036418914794921875e-01) (8, -2.36488461494445800781e-01) (9, -2.77654886245727539062e-01) (10, -3.61269176006317138672e-01) (11, -2.67091780900955200195e-01) (12, -2.27362632751464843750e-01) (13, -2.99514591693878173828e-01) (14, -3.57439011335372924805e-01) (15, -2.93183863162994384766e-01) (16, -3.56828212738037109375e-01) (17, -2.27166235446929931641e-01) (18, -1.98904573917388916016e-01) (0, 2.39031970500946044922e-01) (1, 2.13982284069061279297e-01) (2, 2.16117829084396362305e-01) (3, 2.24207282066345214844e-01) (4, 1.71370074152946472168e-01) (5, 1.36801317334175109863e-01) (6, 1.39708325266838073730e-01) (7, 1.97773456573486328125e-01) (8, 9.83966514468193054199e-02) (9, 2.72408634424209594727e-01) (10, 9.17437151074409484863e-02) (11, 2.56545096635818481445e-01) (12, 2.73202955722808837891e-01) (13, 2.41667002439498901367e-01) (14, 2.17123746871948242188e-01) (15, 1.18800982832908630371e-01) (16, 2.07996994256973266602e-01) (17, 1.25546410679817199707e-01) (18, 1.78390353918075561523e-01) (0, -3.17359745502471923828e-01) (1, -7.72788673639297485352e-02) (2, -6.57969713211059570312e-02) (3, -2.93793946504592895508e-01) (4, -2.10575610399246215820e-01) (5, -3.60145628452301025391e-01) (6, -1.83078616857528686523e-01) (7, -2.18178063631057739258e-01) (8, -3.34628790616989135742e-01) (9, -3.21894854307174682617e-01) (10, -3.02495718002319335938e-01) (11, -2.61120885610580444336e-01) (12, -2.74631857872009277344e-01) (13, -3.53741586208343505859e-01) (14, -3.50357800722122192383e-01) (15, -2.79250413179397583008e-01) (16, -1.77468806505203247070e-01) (17, -3.34237873554229736328e-01) (18, -3.51762712001800537109e-01) (0, 1.52044147253036499023e-01) (1, 2.09750548005104064941e-01) (2, 2.93206095695495605469e-01) (3, 2.46984988451004028320e-01) (4, 1.96511551737785339355e-01) (5, 8.96638110280036926270e-02) (6, 9.95549485087394714355e-02) (7, 1.39890134334564208984e-01) (8, 2.53494799137115478516e-01) (9, 2.07169055938720703125e-01) (10, 2.09922194480895996094e-01) (11, 8.23317989706993103027e-02) (12, 2.70506501197814941406e-01) (13, 1.22745528817176818848e-01) (14, 1.03986084461212158203e-01) (15, 2.14086055755615234375e-01) (16, 2.64058709144592285156e-01) (17, 1.54533833265304565430e-01) (18, 1.69879883527755737305e-01) (0, 9.11674723029136657715e-02) (1, 2.55604088306427001953e-01) (2, 3.53897809982299804688e-01) (3, 9.22205075621604919434e-02) (4, 2.69931703805923461914e-01) (5, 2.62024015188217163086e-01) (6, 1.57520145177841186523e-01) (7, 1.60869613289833068848e-01) (8, 2.55564898252487182617e-01) (9, 1.99249759316444396973e-01) (10, 1.10501036047935485840e-01) (11, 1.10760018229484558105e-01) (12, 2.63531446456909179688e-01) (13, 9.31647941470146179199e-02) (14, 1.40636175870895385742e-01) (15, 1.92017704248428344727e-01) (16, 1.61254405975341796875e-01) (17, 1.22620612382888793945e-01) (18, 2.04504624009132385254e-01) (0, -2.14963018894195556641e-01) (1, -9.50995087623596191406e-02) (2, 2.26343795657157897949e-02) (3, -2.28033483028411865234e-01) (4, -1.74863040447235107422e-01) (5, -3.38825643062591552734e-01) (6, -2.58001059293746948242e-01) (7, -2.39438593387603759766e-01) (8, -2.60131865739822387695e-01) (9, -2.52178013324737548828e-01) (10, -1.71968251466751098633e-01) (11, -2.86368608474731445312e-01) (12, -2.12917715311050415039e-01) (13, -3.23967039585113525391e-01) (14, -3.30142557621002197266e-01) (15, -3.22024166584014892578e-01) (16, -2.75886297225952148438e-01) (17, -2.36426025629043579102e-01) (18, -2.28210747241973876953e-01) (0, -3.54026854038238525391e-01) (1, -1.40954375267028808594e-01) (2, -6.02528974413871765137e-02) (3, -3.14436197280883789062e-01) (4, -3.44976902008056640625e-01) (5, -2.42959976196289062500e-01) (6, -2.43851542472839355469e-01) (7, -2.28670477867126464844e-01) (8, -2.80733555555343627930e-01) (9, -3.04595768451690673828e-01) (10, -3.57154071331024169922e-01) (11, -3.03849697113037109375e-01) (12, -2.17834442853927612305e-01) (13, -3.59217524528503417969e-01) (14, -1.84514224529266357422e-01) (15, -3.46461266279220581055e-01) (16, -1.90278947353363037109e-01) (17, -2.34261125326156616211e-01) (18, -2.42488741874694824219e-01) (0, -3.23952496051788330078e-01) (1, -8.10363292694091796875e-02) (2, -1.75750777125358581543e-02) (3, -2.28405773639678955078e-01) (4, -2.31594443321228027344e-01) (5, -2.23869472742080688477e-01) (6, -1.90229415893554687500e-01) (7, -2.01663792133331298828e-01) (8, -1.79050028324127197266e-01) (9, -3.09598207473754882812e-01) (10, -2.32861846685409545898e-01) (11, -3.24897140264511108398e-01) (12, -3.61911118030548095703e-01) (13, -2.55960941314697265625e-01) (14, -3.51376056671142578125e-01) (15, -1.93109452724456787109e-01) (16, -2.06499159336090087891e-01) (17, -2.47439175844192504883e-01) (18, -3.26038658618927001953e-01) (0, 9.61328446865081787109e-02) (1, 3.08680415153503417969e-01) (2, 2.07286834716796875000e-01) (3, 2.01526761054992675781e-01) (4, 1.80239886045455932617e-01) (5, 2.11653172969818115234e-01) (6, 1.74724489450454711914e-01) (7, 1.14420115947723388672e-01) (8, 1.78873673081398010254e-01) (9, 2.49655514955520629883e-01) (10, 8.02634209394454956055e-02) (11, 1.07167348265647888184e-01) (12, 8.15398693084716796875e-02) (13, 1.60543099045753479004e-01) (14, 1.67805567383766174316e-01) (15, 2.28042125701904296875e-01) (16, 2.23599612712860107422e-01) (17, 1.58596828579902648926e-01) (18, 2.56758004426956176758e-01) (0, -1.92361921072006225586e-01) (1, -3.85358929634094238281e-02) (2, -1.12619668245315551758e-01) (3, -2.42679953575134277344e-01) (4, -3.37575525045394897461e-01) (5, -2.47607186436653137207e-01) (6, -3.49827170372009277344e-01) (7, -3.60595494508743286133e-01) (8, -3.44231009483337402344e-01) (9, -3.06371748447418212891e-01) (10, -2.05907404422760009766e-01) (11, -3.01607728004455566406e-01) (12, -3.36873352527618408203e-01) (13, -2.46126368641853332520e-01) (14, -2.61709928512573242188e-01) (15, -1.74630522727966308594e-01) (16, -2.31311976909637451172e-01) (17, -2.76210755109786987305e-01) (18, -2.89957523345947265625e-01) (0, -3.32055747509002685547e-01) (1, -7.26121664047241210938e-02) (2, -3.26306149363517761230e-02) (3, -2.66790270805358886719e-01) (4, -3.59857410192489624023e-01) (5, -3.39224398136138916016e-01) (6, -3.60644578933715820312e-01) (7, -1.68884575366973876953e-01) (8, -2.58955508470535278320e-01) (9, -2.80859649181365966797e-01) (10, -2.23898321390151977539e-01) (11, -2.74805337190628051758e-01) (12, -2.69046902656555175781e-01) (13, -2.87057995796203613281e-01) (14, -1.99436366558074951172e-01) (15, -3.42580020427703857422e-01) (16, -3.58085989952087402344e-01) (17, -1.66959732770919799805e-01) (18, -3.07997643947601318359e-01) (19, -1.27780541777610778809e-01) (20, 3.64840626716613769531e-02) (21, 4.35713902115821838379e-02) (22, -1.23648852109909057617e-01) (23, 7.77845159173011779785e-02) (24, -1.03748157620429992676e-01) (25, -1.35222703218460083008e-01) (26, -1.27943694591522216797e-01) (27, 9.44921150803565979004e-02) (28, -9.91179347038269042969e-02) (29, -1.15095853805541992188e-01) (30, 2.81147360801696777344e-02) (31, -1.03677213191986083984e-01) (32, -1.43030315637588500977e-01) (33, -1.50368273258209228516e-01) (34, -7.96568542718887329102e-02) (35, 5.12079969048500061035e-02) (36, 1.08732603490352630615e-01) (37, -1.59240067005157470703e-01) (38, 9.61196646094322204590e-02) (39, -1.44936814904212951660e-01) (40, 9.09921005368232727051e-02) (41, -1.23879611492156982422e-01) (42, -8.46275687217712402344e-02) (43, 1.08572982251644134521e-01) (44, 4.21262979507446289062e-02) (45, 7.26307258009910583496e-02) (46, -1.23378157615661621094e-01) (47, 2.73828804492950439453e-02) (48, 8.00267681479454040527e-02) (49, -1.83823779225349426270e-02) 
