FANN_FLO_2.1
num_layers=3
learning_rate=0.700000
connection_rate=1.000000
network_type=0
learning_momentum=0.000000
training_algorithm=2
train_error_function=1
train_stop_function=0
cascade_output_change_fraction=0.010000
quickprop_decay=-0.000100
quickprop_mu=1.750000
rprop_increase_factor=1.200000
rprop_decrease_factor=0.500000
rprop_delta_min=0.000000
rprop_delta_max=50.000000
rprop_delta_zero=0.100000
cascade_output_stagnation_epochs=12
cascade_candidate_change_fraction=0.010000
cascade_candidate_stagnation_epochs=12
cascade_max_out_epochs=150
cascade_min_out_epochs=50
cascade_max_cand_epochs=150
cascade_min_cand_epochs=50
cascade_num_candidate_groups=2
bit_fail_limit=3.49999994039535522461e-01
cascade_candidate_limit=1.00000000000000000000e+03
cascade_weight_multiplier=4.00000005960464477539e-01
cascade_activation_functions_count=10
cascade_activation_functions=3 5 7 8 10 11 14 15 16 17 
cascade_activation_steepnesses_count=4
cascade_activation_steepnesses=2.50000000000000000000e-01 5.00000000000000000000e-01 7.50000000000000000000e-01 1.00000000000000000000e+00 
layer_sizes=19 20 2 
scale_included=0
neurons (num_inputs, activation_function, activation_steepness)=(0, 0, 0.00000000000000000000e+00) (0, 0, 0.00000000000000000000e+00) (0, 0, 0.00000000000000000000e+00) (0, 0, 0.00000000000000000000e+00) (0, 0, 0.00000000000000000000e+00) (0, 0, 0.00000000000000000000e+00) (0, 0, 0.00000000000000000000e+00) (0, 0, 0.00000000000000000000e+00) (0, 0, 0.00000000000000000000e+00) (0, 0, 0.00000000000000000000e+00) (0, 0, 0.00000000000000000000e+00) (0, 0, 0.00000000000000000000e+00) (0, 0, 0.00000000000000000000e+00) (0, 0, 0.00000000000000000000e+00) (0, 0, 0.00000000000000000000e+00) (0, 0, 0.00000000000000000000e+00) (0, 0, 0.00000000000000000000e+00) (0, 0, 0.00000000000000000000e+00) (0, 0, 0.00000000000000000000e+00) (19, 4, 5.00000000000000000000e-01) (19, 4, 5.00000000000000000000e-01) (19, 4, 5.00000000000000000000e-01) (19, 4, 5.00000000000000000000e-01) (19, 4, 5.00000000000000000000e-01) (19, 4, 5.00000000000000000000e-01) (19, 4, 5.00000000000000000000e-01) (19, 4, 5.00000000000000000000e-01) (19, 4, 5.00000000000000000000e-01) (19, 4, 5.00000000000000000000e-01) (19, 4, 5.00000000000000000000e-01) (19, 4, 5.00000000000000000000e-01) (19, 4, 5.00000000000000000000e-01) (19, 4, 5.00000000000000000000e-01) (19, 4, 5.00000000000000000000e-01) (19, 4, 5.00000000000000000000e-01) (19, 4, 5.00000000000000000000e-01) (19, 4, 5.00000000000000000000e-01) (19, 4, 5.00000000000000000000e-01) (0, 0, 0.00000000000000000000e+00) (20, 4, 5.00000000000000000000e-01) (0, 0, 0.00000000000000000000e+00) 
connections (connected_to_neuron, weight)=(0, -1.84810066223144531250e+01) (1, 5.20211362838745117188e+00) (2, 1.91206943988800048828e+00) (3, 1.16290998458862304688e+00) (4, -4.13275748491287231445e-01) (5, 2.11463123559951782227e-01) (6, 1.38188064098358154297e+00) (7, 1.64205288887023925781e+00) (8, -1.14946489334106445312e+01) (9, -5.36963224411010742188e+00) (10, 4.04454767704010009766e-01) (11, 8.80102038383483886719e-01) (12, -4.63022619485855102539e-01) (13, -4.49297100305557250977e-01) (14, -3.64776283502578735352e-01) (15, -1.89105913043022155762e-01) (16, 1.71996402740478515625e+00) (17, -2.51664876937866210938e-01) (18, -7.63202369213104248047e-01) (0, -2.82934722900390625000e+01) (1, 2.37061619758605957031e+00) (2, 2.45609641075134277344e+00) (3, 1.07282233238220214844e+00) (4, -5.21917581558227539062e-01) (5, 1.77627965807914733887e-01) (6, 1.31816768646240234375e+00) (7, 1.49615836143493652344e+00) (8, -1.24404013156890869141e+00) (9, -8.86730957031250000000e+00) (10, -6.51831054687500000000e+00) (11, 8.74711275100708007812e-01) (12, -4.19592857360839843750e-01) (13, -7.95579314231872558594e-01) (14, -7.01660394668579101562e-01) (15, -2.33619332313537597656e-01) (16, 1.44596493244171142578e+00) (17, -2.23104774951934814453e-01) (18, -8.91340553760528564453e-01) (0, -2.02247486114501953125e+01) (1, 2.69983053207397460938e+00) (2, 2.10941076278686523438e+00) (3, 1.12744319438934326172e+00) (4, -4.96319055557250976562e-01) (5, 3.10183048248291015625e-01) (6, 1.44813728332519531250e+00) (7, 1.60536921024322509766e+00) (8, -5.49063730239868164062e+00) (9, -5.62879180908203125000e+00) (10, 2.68201541900634765625e+00) (11, 9.47663247585296630859e-01) (12, -3.79165112972259521484e-01) (13, -4.82602953910827636719e-01) (14, -3.62862884998321533203e-01) (15, -2.43135005235671997070e-01) (16, 1.43365144729614257812e+00) (17, -1.23306155204772949219e-01) (18, -8.28665018081665039062e-01) (0, -2.16420402526855468750e+01) (1, 4.33157014846801757812e+00) (2, 1.96311414241790771484e+00) (3, 1.17647254467010498047e+00) (4, -2.58579820394515991211e-01) (5, 7.49173104763031005859e-01) (6, 1.35204064846038818359e+00) (7, 1.29392111301422119141e+00) (8, -8.11582946777343750000e+00) (9, -1.08167686462402343750e+01) (10, 3.36356568336486816406e+00) (11, 7.62935101985931396484e-01) (12, -5.39929211139678955078e-01) (13, -5.15264391899108886719e-01) (14, -3.73938411474227905273e-01) (15, -2.82756775617599487305e-01) (16, 1.47765374183654785156e+00) (17, -2.08017110824584960938e-01) (18, -8.62017512321472167969e-01) (0, -8.12275314331054687500e+00) (1, 1.72480893135070800781e+00) (2, 7.87399590015411376953e-01) (3, 4.98809695243835449219e-01) (4, -9.81978699564933776855e-02) (5, 3.31427156925201416016e-01) (6, 5.54091334342956542969e-01) (7, 5.89662551879882812500e-01) (8, -6.80651903152465820312e+00) (9, -1.39181566238403320312e+01) (10, -1.18848121166229248047e+00) (11, 4.10618990659713745117e-01) (12, -3.08854609727859497070e-01) (13, -3.07349711656570434570e-01) (14, -2.13933035731315612793e-01) (15, -7.12239071726799011230e-02) (16, 6.17278933525085449219e-01) (17, -2.14661821722984313965e-01) (18, -4.41659986972808837891e-01) (0, -2.14690341949462890625e+01) (1, 2.44024300575256347656e+00) (2, 2.02990984916687011719e+00) (3, 1.05773484706878662109e+00) (4, -2.00265496969223022461e-01) (5, 9.29461538791656494141e-01) (6, 1.27315902709960937500e+00) (7, 1.48702514171600341797e+00) (8, -8.34528446197509765625e+00) (9, -7.52538061141967773438e+00) (10, 2.19578862190246582031e+00) (11, 9.17466342449188232422e-01) (12, -4.55682843923568725586e-01) (13, -4.87260043621063232422e-01) (14, -4.07202810049057006836e-01) (15, -2.73473173379898071289e-01) (16, 1.42571139335632324219e+00) (17, -2.46737107634544372559e-01) (18, -9.23526406288146972656e-01) (0, -2.15846557617187500000e+01) (1, 4.38634538650512695312e+00) (2, 1.95240986347198486328e+00) (3, 1.06680417060852050781e+00) (4, -2.52972841262817382812e-01) (5, 7.85491406917572021484e-01) (6, 1.37600541114807128906e+00) (7, 1.41659557819366455078e+00) (8, -8.12590408325195312500e+00) (9, -1.07725276947021484375e+01) (10, 3.31832528114318847656e+00) (11, 8.12107503414154052734e-01) (12, -4.99936819076538085938e-01) (13, -3.63229364156723022461e-01) (14, -5.19912660121917724609e-01) (15, -2.72465199232101440430e-01) (16, 1.44784474372863769531e+00) (17, -2.08077073097229003906e-01) (18, -8.78730475902557373047e-01) (0, -7.54216957092285156250e+00) (1, 1.68083310127258300781e+00) (2, 8.51992189884185791016e-01) (3, 4.06204074621200561523e-01) (4, -1.41245752573013305664e-01) (5, 4.24423992633819580078e-01) (6, 5.51818966865539550781e-01) (7, 5.99060893058776855469e-01) (8, -6.84991407394409179688e+00) (9, -1.38505716323852539062e+01) (10, -2.97084897756576538086e-01) (11, 2.99551367759704589844e-01) (12, -1.33927524089813232422e-01) (13, -1.25160917639732360840e-01) (14, -1.85152232646942138672e-01) (15, -1.75566852092742919922e-01) (16, 4.63441818952560424805e-01) (17, -2.15434059500694274902e-01) (18, -2.71623402833938598633e-01) (0, -1.04701929092407226562e+01) (1, 2.27645230293273925781e+00) (2, 7.51345574855804443359e-01) (3, 4.86821383237838745117e-01) (4, -1.06744460761547088623e-01) (5, 3.03425103425979614258e-01) (6, 5.93739151954650878906e-01) (7, 6.10514760017395019531e-01) (8, -3.56133460998535156250e+00) (9, -1.29200248718261718750e+01) (10, 4.67670828104019165039e-01) (11, 3.80668193101882934570e-01) (12, -1.35650217533111572266e-01) (13, -2.29656606912612915039e-01) (14, -1.95276886224746704102e-01) (15, -8.68016630411148071289e-02) (16, 6.08329892158508300781e-01) (17, -2.05694705247879028320e-01) (18, -3.43765199184417724609e-01) (0, -8.84346675872802734375e+00) (1, 7.19258904457092285156e-01) (2, 7.28070735931396484375e-01) (3, 3.96794497966766357422e-01) (4, -1.43596962094306945801e-01) (5, 4.00264769792556762695e-01) (6, 6.23465597629547119141e-01) (7, 6.48200929164886474609e-01) (8, -3.61719512939453125000e+00) (9, -1.42323246002197265625e+01) (10, -1.07214570045471191406e-01) (11, 4.20037865638732910156e-01) (12, -3.00508022308349609375e-01) (13, -2.02220141887664794922e-01) (14, -2.76625037193298339844e-01) (15, -1.12512841820716857910e-01) (16, 5.10740101337432861328e-01) (17, -5.09329587221145629883e-02) (18, -2.83108025789260864258e-01) (0, -1.04230852127075195312e+01) (1, 2.19351530075073242188e+00) (2, 7.76795744895935058594e-01) (3, 4.89924758672714233398e-01) (4, -1.54319316148757934570e-01) (5, 3.27953189611434936523e-01) (6, 6.22982740402221679688e-01) (7, 6.87981128692626953125e-01) (8, -3.58772182464599609375e+00) (9, -1.30049057006835937500e+01) (10, 2.68959164619445800781e-01) (11, 2.70174682140350341797e-01) (12, -2.93972134590148925781e-01) (13, -2.86949038505554199219e-01) (14, -2.50198900699615478516e-01) (15, -1.01451680064201354980e-01) (16, 6.46753311157226562500e-01) (17, -2.48627737164497375488e-02) (18, -3.08081656694412231445e-01) (0, -1.98512687683105468750e+01) (1, 7.12369346618652343750e+00) (2, 2.15686821937561035156e+00) (3, 1.04474246501922607422e+00) (4, -2.14538395404815673828e-01) (5, 7.83071398735046386719e-01) (6, 1.46380853652954101562e+00) (7, 1.41922807693481445312e+00) (8, -8.63104629516601562500e+00) (9, -6.52884006500244140625e+00) (10, 3.19555258750915527344e+00) (11, 9.29658770561218261719e-01) (12, -4.68299448490142822266e-01) (13, -4.16075915098190307617e-01) (14, -4.95514601469039916992e-01) (15, -2.07996979355812072754e-01) (16, 1.39398920536041259766e+00) (17, -2.45363920927047729492e-01) (18, -7.23516821861267089844e-01) (0, -9.83046245574951171875e+00) (1, 1.90469121932983398438e+00) (2, 8.40032458305358886719e-01) (3, 4.65501189231872558594e-01) (4, -5.87876588106155395508e-02) (5, 3.50339293479919433594e-01) (6, 4.47581470012664794922e-01) (7, 6.29877626895904541016e-01) (8, -3.47683048248291015625e+00) (9, -1.30581054687500000000e+01) (10, -1.35944902896881103516e+00) (11, 3.05116534233093261719e-01) (12, -2.00407490134239196777e-01) (13, -1.94678276777267456055e-01) (14, -2.26853460073471069336e-01) (15, -1.10952317714691162109e-01) (16, 6.37938916683197021484e-01) (17, -1.88582807779312133789e-01) (18, -2.97081351280212402344e-01) (0, -7.45957279205322265625e+00) (1, 1.68069577217102050781e+00) (2, 7.56657242774963378906e-01) (3, 5.22045969963073730469e-01) (4, -1.87884181737899780273e-01) (5, 3.72953534126281738281e-01) (6, 4.88003879785537719727e-01) (7, 6.60906195640563964844e-01) (8, -6.81336164474487304688e+00) (9, -1.39148492813110351562e+01) (10, -7.84637629985809326172e-01) (11, 4.02881979942321777344e-01) (12, -2.62185782194137573242e-01) (13, -1.36717617511749267578e-01) (14, -2.23624467849731445312e-01) (15, -1.54650568962097167969e-01) (16, 6.59044086933135986328e-01) (17, -1.86766907572746276855e-01) (18, -4.44529742002487182617e-01) (0, -9.51432037353515625000e+00) (1, 1.20251750946044921875e+00) (2, 8.15944612026214599609e-01) (3, 4.00135695934295654297e-01) (4, -2.08617910742759704590e-01) (5, 3.51899266242980957031e-01) (6, 4.65574145317077636719e-01) (7, 5.06515443325042724609e-01) (8, -3.66517925262451171875e+00) (9, -1.29735164642333984375e+01) (10, 1.84062018990516662598e-01) (11, 3.45111489295959472656e-01) (12, -2.99013257026672363281e-01) (13, -2.64086306095123291016e-01) (14, -2.45444238185882568359e-01) (15, -4.07669432461261749268e-02) (16, 5.82867145538330078125e-01) (17, -1.97344839572906494141e-01) (18, -4.01470392942428588867e-01) (0, -8.23311805725097656250e+00) (1, 1.80578255653381347656e+00) (2, 9.05142486095428466797e-01) (3, 4.03236150741577148438e-01) (4, -2.01952055096626281738e-01) (5, 3.34721714258193969727e-01) (6, 6.44660711288452148438e-01) (7, 7.07984983921051025391e-01) (8, -6.84495306015014648438e+00) (9, -1.38762521743774414062e+01) (10, -1.08182036876678466797e+00) (11, 2.56770431995391845703e-01) (12, -2.35591858625411987305e-01) (13, -1.98290035128593444824e-01) (14, -2.71512657403945922852e-01) (15, -2.16429606080055236816e-01) (16, 5.05668103694915771484e-01) (17, -5.45037314295768737793e-02) (18, -3.47452223300933837891e-01) (0, -5.44513940811157226562e-01) (1, -9.88157615065574645996e-02) (2, 3.10470461845397949219e-01) (3, 1.79197988472878932953e-03) (4, -2.09151272429153323174e-04) (5, 4.27611358463764190674e-02) (6, -6.77993893623352050781e-02) (7, 1.47328734397888183594e-01) (8, 4.44846928119659423828e-01) (9, -2.57103943824768066406e+00) (10, -1.18930630385875701904e-01) (11, 6.78190067410469055176e-02) (12, 2.08753701299428939819e-02) (13, 6.89443759620189666748e-03) (14, 2.95490901917219161987e-02) (15, -5.74292130768299102783e-02) (16, 2.06588089466094970703e-01) (17, -1.36203438043594360352e-01) (18, -1.69450685381889343262e-01) (0, -7.33961629867553710938e+00) (1, 1.28586971759796142578e+00) (2, 6.41753673553466796875e-01) (3, 4.88770872354507446289e-01) (4, -2.06265762448310852051e-01) (5, 3.62514823675155639648e-01) (6, 5.09204745292663574219e-01) (7, 6.44802331924438476562e-01) (8, -6.81249952316284179688e+00) (9, -1.38216600418090820312e+01) (10, -7.68119990825653076172e-01) (11, 4.10941421985626220703e-01) (12, -1.25238284468650817871e-01) (13, -1.34671702980995178223e-01) (14, -1.11182853579521179199e-01) (15, -2.28768736124038696289e-02) (16, 4.48251634836196899414e-01) (17, -1.14050820469856262207e-01) (18, -3.89838695526123046875e-01) (0, 5.44974505901336669922e-01) (1, 3.00863921642303466797e-01) (2, -2.94264703989028930664e-01) (3, -4.59006318124011158943e-04) (4, -7.19118043780326843262e-02) (5, -1.20026944205164909363e-02) (6, -3.24739009141921997070e-01) (7, -8.84516537189483642578e-02) (8, 4.33594346046447753906e-01) (9, 4.61722850799560546875e-01) (10, 2.01668903231620788574e-01) (11, 3.09055503457784652710e-02) (12, -1.06284670531749725342e-01) (13, -2.35114805400371551514e-02) (14, -7.93086290359497070312e-02) (15, -6.41172844916582107544e-03) (16, -2.44463771581649780273e-01) (17, 3.56593951582908630371e-02) (18, -1.80498789995908737183e-02) (19, 2.57314586639404296875e+00) (20, -4.51097822189331054688e+00) (21, 3.45539689064025878906e+00) (22, 3.55099892616271972656e+00) (23, -1.11549940109252929688e+01) (24, -9.48497653007507324219e-03) (25, 3.60295510292053222656e+00) (26, -1.11281156539916992188e+01) (27, 3.13786354064941406250e+01) (28, 9.40934848785400390625e+00) (29, 2.52845783233642578125e+01) (30, 1.44076824188232421875e+00) (31, 1.31875782012939453125e+01) (32, -1.11016569137573242188e+01) (33, -1.08169183731079101562e+01) (34, -1.11200132369995117188e+01) (35, 1.54694414138793945312e+00) (36, 2.00456523895263671875e+00) (37, -3.41954088211059570312e+00) (38, -2.28496640920639038086e-01) 
