FANN_FLO_2.1
num_layers=3
learning_rate=0.700000
connection_rate=1.000000
network_type=0
learning_momentum=0.000000
training_algorithm=2
train_error_function=1
train_stop_function=0
cascade_output_change_fraction=0.010000
quickprop_decay=-0.000100
quickprop_mu=1.750000
rprop_increase_factor=1.200000
rprop_decrease_factor=0.500000
rprop_delta_min=0.000000
rprop_delta_max=50.000000
rprop_delta_zero=0.100000
cascade_output_stagnation_epochs=12
cascade_candidate_change_fraction=0.010000
cascade_candidate_stagnation_epochs=12
cascade_max_out_epochs=150
cascade_min_out_epochs=50
cascade_max_cand_epochs=150
cascade_min_cand_epochs=50
cascade_num_candidate_groups=2
bit_fail_limit=3.49999994039535522461e-01
cascade_candidate_limit=1.00000000000000000000e+03
cascade_weight_multiplier=4.00000005960464477539e-01
cascade_activation_functions_count=10
cascade_activation_functions=3 5 7 8 10 11 14 15 16 17 
cascade_activation_steepnesses_count=4
cascade_activation_steepnesses=2.50000000000000000000e-01 5.00000000000000000000e-01 7.50000000000000000000e-01 1.00000000000000000000e+00 
layer_sizes=19 31 2 
scale_included=0
neurons (num_inputs, activation_function, activation_steepness)=(0, 0, 0.00000000000000000000e+00) (0, 0, 0.00000000000000000000e+00) (0, 0, 0.00000000000000000000e+00) (0, 0, 0.00000000000000000000e+00) (0, 0, 0.00000000000000000000e+00) (0, 0, 0.00000000000000000000e+00) (0, 0, 0.00000000000000000000e+00) (0, 0, 0.00000000000000000000e+00) (0, 0, 0.00000000000000000000e+00) (0, 0, 0.00000000000000000000e+00) (0, 0, 0.00000000000000000000e+00) (0, 0, 0.00000000000000000000e+00) (0, 0, 0.00000000000000000000e+00) (0, 0, 0.00000000000000000000e+00) (0, 0, 0.00000000000000000000e+00) (0, 0, 0.00000000000000000000e+00) (0, 0, 0.00000000000000000000e+00) (0, 0, 0.00000000000000000000e+00) (0, 0, 0.00000000000000000000e+00) (19, 4, 5.00000000000000000000e-01) (19, 4, 5.00000000000000000000e-01) (19, 4, 5.00000000000000000000e-01) (19, 4, 5.00000000000000000000e-01) (19, 4, 5.00000000000000000000e-01) (19, 4, 5.00000000000000000000e-01) (19, 4, 5.00000000000000000000e-01) (19, 4, 5.00000000000000000000e-01) (19, 4, 5.00000000000000000000e-01) (19, 4, 5.00000000000000000000e-01) (19, 4, 5.00000000000000000000e-01) (19, 4, 5.00000000000000000000e-01) (19, 4, 5.00000000000000000000e-01) (19, 4, 5.00000000000000000000e-01) (19, 4, 5.00000000000000000000e-01) (19, 4, 5.00000000000000000000e-01) (19, 4, 5.00000000000000000000e-01) (19, 4, 5.00000000000000000000e-01) (19, 4, 5.00000000000000000000e-01) (19, 4, 5.00000000000000000000e-01) (19, 4, 5.00000000000000000000e-01) (19, 4, 5.00000000000000000000e-01) (19, 4, 5.00000000000000000000e-01) (19, 4, 5.00000000000000000000e-01) (19, 4, 5.00000000000000000000e-01) (19, 4, 5.00000000000000000000e-01) (19, 4, 5.00000000000000000000e-01) (19, 4, 5.00000000000000000000e-01) (19, 4, 5.00000000000000000000e-01) (19, 4, 5.00000000000000000000e-01) (0, 0, 0.00000000000000000000e+00) (31, 4, 5.00000000000000000000e-01) (0, 0, 0.00000000000000000000e+00) 
connections (connected_to_neuron, weight)=(0, -1.43301784992218017578e-01) (1, -1.13000690937042236328e-01) (2, -4.24641370773315429688e-02) (3, -1.34735912084579467773e-01) (4, -1.46476402878761291504e-01) (5, -6.88410997390747070312e-02) (6, -5.22442683577537536621e-02) (7, -1.09386771917343139648e-01) (8, -1.03377237915992736816e-01) (9, -1.01147055625915527344e-01) (10, -1.84889361262321472168e-02) (11, 1.64337828755378723145e-02) (12, -3.72946262359619140625e-02) (13, -5.07765561342239379883e-02) (14, -4.15176749229431152344e-02) (15, -2.75386497378349304199e-02) (16, -8.20841789245605468750e-02) (17, -2.86105051636695861816e-02) (18, -9.66581404209136962891e-02) (0, 2.66275480389595031738e-02) (1, -1.10695973038673400879e-01) (2, -1.07111096382141113281e-01) (3, -5.62127605080604553223e-02) (4, -7.85002857446670532227e-03) (5, 2.47127488255500793457e-02) (6, -9.27514135837554931641e-02) (7, -1.12876728177070617676e-01) (8, -1.59015774726867675781e-01) (9, -1.79996713995933532715e-02) (10, 3.96187528967857360840e-02) (11, 3.23980972170829772949e-02) (12, -1.25293463468551635742e-01) (13, -4.71453890204429626465e-02) (14, -1.25483199954032897949e-02) (15, -1.39507204294204711914e-01) (16, -1.37446865439414978027e-01) (17, -1.09369277954101562500e-01) (18, -9.44853574037551879883e-03) (0, -4.16679829359054565430e-02) (1, -1.53887510299682617188e-01) (2, -2.74816676974296569824e-02) (3, -1.24372929334640502930e-01) (4, 2.42170169949531555176e-02) (5, -2.45022103190422058105e-02) (6, -4.84590083360671997070e-02) (7, -9.04072821140289306641e-02) (8, -1.15271970629692077637e-01) (9, -1.59355178475379943848e-02) (10, -6.82197809219360351562e-02) (11, -9.96429473161697387695e-03) (12, -1.10013708472251892090e-01) (13, -4.03547063469886779785e-02) (14, -8.14490914344787597656e-02) (15, -1.54788970947265625000e-01) (16, 2.18695774674415588379e-02) (17, -7.80138373374938964844e-02) (18, -1.85750648379325866699e-02) (0, -3.12457308173179626465e-02) (1, 1.29587128758430480957e-02) (2, -4.30074557662010192871e-02) (3, -6.62101656198501586914e-02) (4, -3.41720655560493469238e-02) (5, 3.00084725022315979004e-02) (6, -8.76769274473190307617e-02) (7, -2.61149778962135314941e-02) (8, -1.54323518276214599609e-01) (9, -1.55245468020439147949e-01) (10, -5.04939556121826171875e-02) (11, -9.18694883584976196289e-02) (12, -9.03610140085220336914e-02) (13, -1.37603223323822021484e-01) (14, -1.37309119105339050293e-01) (15, 5.74118643999099731445e-03) (16, -1.47875696420669555664e-01) (17, 1.30851939320564270020e-02) (18, -1.17013379931449890137e-01) (0, -8.37500095367431640625e-02) (1, -2.64244005084037780762e-02) (2, -1.54905200004577636719e-01) (3, -1.31470099091529846191e-01) (4, -5.79448789358139038086e-02) (5, -1.19551926851272583008e-01) (6, -1.49231761693954467773e-01) (7, 2.16695293784141540527e-02) (8, -4.01516333222389221191e-02) (9, -6.85212910175323486328e-02) (10, -7.72128254175186157227e-02) (11, -1.55864417552947998047e-01) (12, -5.32945841550827026367e-02) (13, 3.79759743809700012207e-02) (14, 2.21037343144416809082e-02) (15, -1.42575711011886596680e-01) (16, -1.09956681728363037109e-01) (17, -8.19750875234603881836e-02) (18, 4.70554083585739135742e-03) (0, -1.53938502073287963867e-01) (1, -8.44957083463668823242e-02) (2, -1.59403085708618164062e-01) (3, -1.27621427178382873535e-01) (4, 2.66417339444160461426e-02) (5, -7.23642408847808837891e-02) (6, -6.57714456319808959961e-02) (7, -6.06991499662399291992e-02) (8, -1.05726346373558044434e-02) (9, -1.34266674518585205078e-01) (10, -6.00256696343421936035e-02) (11, -9.14059132337570190430e-02) (12, -9.91118103265762329102e-02) (13, -1.21305659413337707520e-02) (14, -1.18436902761459350586e-01) (15, -8.93735140562057495117e-03) (16, -5.01646995544433593750e-02) (17, -1.58039450645446777344e-01) (18, -8.80967825651168823242e-03) (0, 2.19587847590446472168e-01) (1, 2.28720664978027343750e-01) (2, 3.24134409427642822266e-01) (3, 3.42797219753265380859e-01) (4, 2.09095075726509094238e-01) (5, 2.76666313409805297852e-01) (6, 3.46406936645507812500e-01) (7, 2.76972979307174682617e-01) (8, 3.00535976886749267578e-01) (9, 3.23809862136840820312e-01) (10, 2.88157522678375244141e-01) (11, 2.79499292373657226562e-01) (12, 3.60367357730865478516e-01) (13, 3.09872031211853027344e-01) (14, 2.34594792127609252930e-01) (15, 2.50493973493576049805e-01) (16, 2.68044710159301757812e-01) (17, 2.43229031562805175781e-01) (18, 1.66095182299613952637e-01) (0, 1.77568286657333374023e-01) (1, 2.05851733684539794922e-01) (2, 1.65933966636657714844e-01) (3, 2.68149673938751220703e-01) (4, 2.07436665892601013184e-01) (5, 2.03837960958480834961e-01) (6, 3.20328950881958007812e-01) (7, 1.84749707579612731934e-01) (8, 3.04163873195648193359e-01) (9, 2.97597050666809082031e-01) (10, 3.29552352428436279297e-01) (11, 2.02130869030952453613e-01) (12, 2.29258418083190917969e-01) (13, 3.61844062805175781250e-01) (14, 3.28868269920349121094e-01) (15, 3.05122435092926025391e-01) (16, 2.08328440785408020020e-01) (17, 1.91970586776733398438e-01) (18, 2.65491515398025512695e-01) (0, 3.31905364990234375000e-01) (1, 3.49187970161437988281e-01) (2, 2.17941045761108398438e-01) (3, 3.50856542587280273438e-01) (4, 2.62204438447952270508e-01) (5, 2.85876274108886718750e-01) (6, 3.37889313697814941406e-01) (7, 3.21658134460449218750e-01) (8, 3.23884189128875732422e-01) (9, 3.37448000907897949219e-01) (10, 3.04161846637725830078e-01) (11, 2.64406979084014892578e-01) (12, 3.04100394248962402344e-01) (13, 2.31080502271652221680e-01) (14, 1.85778945684432983398e-01) (15, 2.02543646097183227539e-01) (16, 1.66750907897949218750e-01) (17, 1.98313981294631958008e-01) (18, 2.78837144374847412109e-01) (0, -9.22272950410842895508e-02) (1, -1.04141592979431152344e-01) (2, -1.47704869508743286133e-01) (3, -1.15762710571289062500e-01) (4, -6.38987645506858825684e-02) (5, 1.34502276778221130371e-02) (6, 1.81025341153144836426e-02) (7, 9.29633527994155883789e-03) (8, 3.58130782842636108398e-03) (9, -4.88099679350852966309e-02) (10, 1.07924565672874450684e-02) (11, -5.11128902435302734375e-02) (12, -9.43586230278015136719e-02) (13, -1.25311598181724548340e-01) (14, -1.52046650648117065430e-01) (15, -8.80063474178314208984e-02) (16, 3.72296646237373352051e-02) (17, -1.21016368269920349121e-01) (18, 3.80421653389930725098e-02) (0, -6.52213543653488159180e-02) (1, -1.52354016900062561035e-02) (2, -1.01300209760665893555e-01) (3, 7.28047639131546020508e-03) (4, -7.71515667438507080078e-02) (5, -1.26418247818946838379e-01) (6, -1.51408493518829345703e-01) (7, 3.73940840363502502441e-02) (8, -1.57603651285171508789e-01) (9, -8.43423604965209960938e-02) (10, 1.79925039410591125488e-02) (11, -4.01545539498329162598e-02) (12, -1.17442354559898376465e-01) (13, -9.36189442873001098633e-02) (14, -9.36124026775360107422e-02) (15, 1.64607837796211242676e-02) (16, 1.65283605456352233887e-02) (17, -4.79781776666641235352e-02) (18, -9.06274467706680297852e-03) (0, -1.57528877258300781250e-01) (1, -2.79486849904060363770e-02) (2, 2.63515934348106384277e-02) (3, -1.48724481463432312012e-01) (4, -5.23542389273643493652e-02) (5, -1.57588571310043334961e-01) (6, -3.09699103236198425293e-02) (7, -1.51346608996391296387e-01) (8, -1.22332736849784851074e-01) (9, -8.63414406776428222656e-02) (10, 1.94784775376319885254e-02) (11, -6.51223808526992797852e-02) (12, -1.51724964380264282227e-01) (13, -8.13548117876052856445e-02) (14, 2.97236666083335876465e-02) (15, -7.43109732866287231445e-02) (16, 1.54281929135322570801e-02) (17, -1.38436093926429748535e-01) (18, -1.35340303182601928711e-01) (0, -1.04303836822509765625e-01) (1, -7.46889710426330566406e-02) (2, -1.37589484453201293945e-01) (3, -1.06579929590225219727e-01) (4, -1.28726571798324584961e-01) (5, -1.47372066974639892578e-01) (6, -1.22375562787055969238e-01) (7, -6.08723610639572143555e-03) (8, -1.47977873682975769043e-01) (9, -1.04093790054321289062e-01) (10, -1.44187197089195251465e-01) (11, 5.87036460638046264648e-03) (12, 2.33203545212745666504e-02) (13, -9.48054492473602294922e-02) (14, -3.51668372750282287598e-02) (15, -8.89617353677749633789e-02) (16, -1.97611823678016662598e-02) (17, 3.39414551854133605957e-02) (18, 1.41868963837623596191e-02) (0, -8.72440636157989501953e-04) (1, -1.03066891431808471680e-01) (2, -8.52241218090057373047e-02) (3, -1.89197808504104614258e-03) (4, -3.85627299547195434570e-02) (5, 3.63764241337776184082e-02) (6, -6.15670233964920043945e-02) (7, 3.00661474466323852539e-03) (8, -1.07839435338973999023e-01) (9, -9.72037017345428466797e-02) (10, -1.42458662390708923340e-01) (11, -1.42693907022476196289e-01) (12, -9.63189452886581420898e-02) (13, -7.24494159221649169922e-02) (14, -9.73677784204483032227e-02) (15, -1.00291177630424499512e-01) (16, -3.38664278388023376465e-02) (17, -3.29380556941032409668e-02) (18, -2.99862101674079895020e-02) (0, -1.81853696703910827637e-02) (1, -8.14919173717498779297e-02) (2, -7.45942294597625732422e-02) (3, -1.45273968577384948730e-01) (4, -5.95857053995132446289e-02) (5, -9.67783033847808837891e-02) (6, 6.94843381643295288086e-03) (7, -5.75344190001487731934e-02) (8, -2.10410133004188537598e-02) (9, -7.61770308017730712891e-02) (10, -1.47350400686264038086e-01) (11, -1.58078432083129882812e-01) (12, -6.40474110841751098633e-02) (13, -8.48035365343093872070e-02) (14, -1.32943093776702880859e-01) (15, -1.44804641604423522949e-02) (16, -1.32999345660209655762e-02) (17, 2.78891399502754211426e-02) (18, -1.07283502817153930664e-01) (0, 1.70354217290878295898e-01) (1, 3.59142780303955078125e-01) (2, 3.28840613365173339844e-01) (3, 2.39578664302825927734e-01) (4, 2.14538529515266418457e-01) (5, 1.64985150098800659180e-01) (6, 3.21044206619262695312e-01) (7, 2.05555140972137451172e-01) (8, 1.80948436260223388672e-01) (9, 2.15990141034126281738e-01) (10, 3.62038373947143554688e-01) (11, 1.94799661636352539062e-01) (12, 2.13654100894927978516e-01) (13, 3.00311923027038574219e-01) (14, 3.58182013034820556641e-01) (15, 1.81236043572425842285e-01) (16, 2.50025391578674316406e-01) (17, 1.92262887954711914062e-01) (18, 1.78106635808944702148e-01) (0, -6.98620676994323730469e-02) (1, -1.18281021714210510254e-02) (2, -3.47905680537223815918e-02) (3, 3.48870828747749328613e-02) (4, -9.29537564516067504883e-02) (5, -1.13708093762397766113e-01) (6, -1.31786555051803588867e-01) (7, 2.33203247189521789551e-02) (8, -9.54566001892089843750e-02) (9, 2.08891853690147399902e-02) (10, -1.55324548482894897461e-01) (11, 2.05478444695472717285e-02) (12, -9.22926962375640869141e-02) (13, -3.21740657091140747070e-03) (14, -1.14984512329101562500e-01) (15, 1.53886750340461730957e-02) (16, -2.68509238958358764648e-03) (17, 3.16590741276741027832e-02) (18, -1.45935565233230590820e-01) (0, 2.09342613816261291504e-02) (1, 2.11618095636367797852e-03) (2, -7.33929872512817382812e-02) (3, -1.55847460031509399414e-01) (4, 3.17402258515357971191e-02) (5, 1.79125741124153137207e-02) (6, 1.68170109391212463379e-02) (7, 3.49891930818557739258e-03) (8, -3.37235853075981140137e-02) (9, -3.22008654475212097168e-02) (10, -3.97808551788330078125e-02) (11, -3.67231145501136779785e-02) (12, -4.52544242143630981445e-02) (13, -3.10714915394783020020e-02) (14, -5.86596578359603881836e-02) (15, -1.32970824837684631348e-01) (16, -8.06518942117691040039e-02) (17, -1.56420469284057617188e-01) (18, 1.35684758424758911133e-03) (0, -3.54714021086692810059e-02) (1, -7.92846828699111938477e-03) (2, -9.36234891414642333984e-02) (3, 2.99114510416984558105e-02) (4, -1.18189826607704162598e-01) (5, -5.64380064606666564941e-02) (6, 6.39272481203079223633e-03) (7, 2.60015577077865600586e-03) (8, -1.39114007353782653809e-01) (9, -1.29120498895645141602e-01) (10, 3.18842455744743347168e-02) (11, 3.85162457823753356934e-02) (12, -9.74562168121337890625e-02) (13, 1.35110393166542053223e-02) (14, -1.59991219639778137207e-01) (15, -1.23226717114448547363e-02) (16, -1.47167980670928955078e-01) (17, -9.20544415712356567383e-02) (18, 1.06928497552871704102e-03) (0, 2.55556195974349975586e-01) (1, 3.48678648471832275391e-01) (2, 2.58272290229797363281e-01) (3, 1.98115542531013488770e-01) (4, 3.43740999698638916016e-01) (5, 2.71192103624343872070e-01) (6, 3.41400563716888427734e-01) (7, 3.35407853126525878906e-01) (8, 2.15308874845504760742e-01) (9, 3.12067985534667968750e-01) (10, 3.42283964157104492188e-01) (11, 1.82888090610504150391e-01) (12, 2.15958043932914733887e-01) (13, 2.22615271806716918945e-01) (14, 3.10597240924835205078e-01) (15, 2.23548203706741333008e-01) (16, 1.90349251031875610352e-01) (17, 2.15664088726043701172e-01) (18, 2.82069414854049682617e-01) (0, 3.56306314468383789062e-01) (1, 2.56290405988693237305e-01) (2, 2.88490056991577148438e-01) (3, 2.67916679382324218750e-01) (4, 2.91683435440063476562e-01) (5, 3.39064300060272216797e-01) (6, 2.69564688205718994141e-01) (7, 1.89814686775207519531e-01) (8, 2.31250435113906860352e-01) (9, 2.42028057575225830078e-01) (10, 1.81402057409286499023e-01) (11, 2.40296632051467895508e-01) (12, 2.81259715557098388672e-01) (13, 3.47665190696716308594e-01) (14, 2.24741518497467041016e-01) (15, 2.46635138988494873047e-01) (16, 2.12445676326751708984e-01) (17, 1.90140187740325927734e-01) (18, 3.01860630512237548828e-01) (0, 1.87634319067001342773e-01) (1, 1.85921490192413330078e-01) (2, 1.98290750384330749512e-01) (3, 2.88462549448013305664e-01) (4, 2.05822810530662536621e-01) (5, 2.79750525951385498047e-01) (6, 1.82904869318008422852e-01) (7, 2.98095524311065673828e-01) (8, 3.07262718677520751953e-01) (9, 1.80220246315002441406e-01) (10, 1.77343994379043579102e-01) (11, 2.36151069402694702148e-01) (12, 2.06747531890869140625e-01) (13, 2.21666097640991210938e-01) (14, 3.57803523540496826172e-01) (15, 2.20002233982086181641e-01) (16, 1.93511545658111572266e-01) (17, 1.64409369230270385742e-01) (18, 2.44129925966262817383e-01) (0, 3.07405531406402587891e-01) (1, 1.80320382118225097656e-01) (2, 2.60373383760452270508e-01) (3, 3.11340093612670898438e-01) (4, 3.08864295482635498047e-01) (5, 2.97935724258422851562e-01) (6, 2.21140086650848388672e-01) (7, 3.17185342311859130859e-01) (8, 3.50050032138824462891e-01) (9, 3.06313037872314453125e-01) (10, 2.19019457697868347168e-01) (11, 2.75906026363372802734e-01) (12, 1.68076261878013610840e-01) (13, 2.73521125316619873047e-01) (14, 2.85160183906555175781e-01) (15, 3.02944779396057128906e-01) (16, 2.08705484867095947266e-01) (17, 3.28916013240814208984e-01) (18, 3.07633638381958007812e-01) (0, -1.09798043966293334961e-01) (1, -1.56547352671623229980e-02) (2, -1.49171143770217895508e-01) (3, -1.59230753779411315918e-01) (4, -3.12214717268943786621e-02) (5, 2.06608846783638000488e-02) (6, 7.60541111230850219727e-03) (7, -1.59189328551292419434e-02) (8, 1.06102749705314636230e-02) (9, -1.13186120986938476562e-01) (10, -1.59199863672256469727e-01) (11, -1.12104669213294982910e-01) (12, 1.69181898236274719238e-02) (13, -9.58576500415802001953e-02) (14, -1.19588553905487060547e-01) (15, 3.52540239691734313965e-02) (16, -1.25524342060089111328e-01) (17, -1.27442061901092529297e-01) (18, -1.58526569604873657227e-01) (0, 4.08021360635757446289e-03) (1, -6.38242214918136596680e-02) (2, -1.33590310811996459961e-01) (3, -9.23198014497756958008e-02) (4, -5.88889718055725097656e-02) (5, 1.29915550351142883301e-02) (6, -9.10433679819107055664e-02) (7, -5.85602968931198120117e-03) (8, -6.20978847146034240723e-02) (9, -1.19057476520538330078e-01) (10, -3.89377474784851074219e-02) (11, -6.67481571435928344727e-02) (12, -7.63114392757415771484e-02) (13, -6.45066052675247192383e-03) (14, -5.63166365027427673340e-02) (15, -1.53751790523529052734e-01) (16, -1.46143555641174316406e-01) (17, -7.46634900569915771484e-02) (18, -1.09116122126579284668e-01) (0, 1.69322684407234191895e-01) (1, 2.22089782357215881348e-01) (2, 2.78860390186309814453e-01) (3, 2.22677946090698242188e-01) (4, 1.64070367813110351562e-01) (5, 3.46443891525268554688e-01) (6, 2.98106491565704345703e-01) (7, 2.91861712932586669922e-01) (8, 3.35721611976623535156e-01) (9, 2.88957536220550537109e-01) (10, 3.25082719326019287109e-01) (11, 2.81022936105728149414e-01) (12, 1.68202176690101623535e-01) (13, 1.89757272601127624512e-01) (14, 2.66306072473526000977e-01) (15, 2.21976727247238159180e-01) (16, 1.78807348012924194336e-01) (17, 2.30931252241134643555e-01) (18, 2.77490198612213134766e-01) (0, 1.93746060132980346680e-01) (1, 3.05830001831054687500e-01) (2, 3.00233542919158935547e-01) (3, 2.41384446620941162109e-01) (4, 1.64228051900863647461e-01) (5, 1.96718603372573852539e-01) (6, 2.65456587076187133789e-01) (7, 3.44537913799285888672e-01) (8, 2.64495372772216796875e-01) (9, 1.89631372690200805664e-01) (10, 3.50185751914978027344e-01) (11, 1.87590107321739196777e-01) (12, 2.42734163999557495117e-01) (13, 2.48851358890533447266e-01) (14, 2.60430097579956054688e-01) (15, 2.64485418796539306641e-01) (16, 2.22546204924583435059e-01) (17, 3.49946677684783935547e-01) (18, 1.69566571712493896484e-01) (0, 3.21067750453948974609e-01) (1, 2.01099842786788940430e-01) (2, 3.00761163234710693359e-01) (3, 3.08973848819732666016e-01) (4, 3.39705765247344970703e-01) (5, 2.50978469848632812500e-01) (6, 2.10931122303009033203e-01) (7, 3.35215389728546142578e-01) (8, 1.80972561240196228027e-01) (9, 2.21587032079696655273e-01) (10, 2.28986233472824096680e-01) (11, 1.87259227037429809570e-01) (12, 2.81550943851470947266e-01) (13, 2.42730468511581420898e-01) (14, 1.86637967824935913086e-01) (15, 2.40244597196578979492e-01) (16, 2.06658244132995605469e-01) (17, 3.20917546749114990234e-01) (18, 2.76623040437698364258e-01) (0, 2.19202607870101928711e-01) (1, 3.54004502296447753906e-01) (2, 1.69692516326904296875e-01) (3, 2.37771898508071899414e-01) (4, 2.48205453157424926758e-01) (5, 2.04991400241851806641e-01) (6, 3.06353628635406494141e-01) (7, 3.01201820373535156250e-01) (8, 3.14594388008117675781e-01) (9, 2.03743264079093933105e-01) (10, 3.28810155391693115234e-01) (11, 3.28302323818206787109e-01) (12, 1.92837387323379516602e-01) (13, 2.33859986066818237305e-01) (14, 3.00415992736816406250e-01) (15, 3.07129800319671630859e-01) (16, 3.46599519252777099609e-01) (17, 3.13528835773468017578e-01) (18, 2.95133650302886962891e-01) (0, 2.77698785066604614258e-03) (1, 3.29638049006462097168e-02) (2, -1.73051133751869201660e-02) (3, -8.69226157665252685547e-02) (4, -1.48315593600273132324e-01) (5, 1.99320986866950988770e-02) (6, -4.13543358445167541504e-02) (7, -8.23034495115280151367e-02) (8, -1.14135444164276123047e-01) (9, -1.14317983388900756836e-01) (10, 1.76262930035591125488e-02) (11, 5.29981404542922973633e-03) (12, 3.37984636425971984863e-02) (13, 1.06024518609046936035e-02) (14, -4.45251241326332092285e-02) (15, 2.62546315789222717285e-02) (16, 2.16203853487968444824e-02) (17, -6.61356896162033081055e-02) (18, 1.74709931015968322754e-02) (19, 7.89301618933677673340e-02) (20, 3.53225767612457275391e-02) (21, 1.22343085706233978271e-01) (22, 7.59937688708305358887e-02) (23, 8.31709131598472595215e-02) (24, 1.09616614878177642822e-01) (25, -3.05613726377487182617e-01) (26, -2.65642642974853515625e-01) (27, -2.71649837493896484375e-01) (28, 5.33363595604896545410e-02) (29, 8.02270844578742980957e-02) (30, 3.24528142809867858887e-02) (31, 9.02622565627098083496e-02) (32, 9.38174203038215637207e-02) (33, 4.52493950724601745605e-02) (34, -3.25566709041595458984e-01) (35, 7.23020955920219421387e-02) (36, 3.72587963938713073730e-02) (37, 6.44694194197654724121e-02) (38, -2.94606387615203857422e-01) (39, -2.65725731849670410156e-01) (40, -2.68154293298721313477e-01) (41, -2.85121202468872070312e-01) (42, 4.00769487023353576660e-02) (43, 2.92429327964782714844e-02) (44, -3.45959186553955078125e-01) (45, -3.51762413978576660156e-01) (46, -2.86480545997619628906e-01) (47, -2.94412910938262939453e-01) (48, 7.46895149350166320801e-02) (49, -3.25382739305496215820e-01) 
