FANN_FLO_2.1
num_layers=3
learning_rate=0.700000
connection_rate=1.000000
network_type=0
learning_momentum=0.000000
training_algorithm=2
train_error_function=1
train_stop_function=0
cascade_output_change_fraction=0.010000
quickprop_decay=-0.000100
quickprop_mu=1.750000
rprop_increase_factor=1.200000
rprop_decrease_factor=0.500000
rprop_delta_min=0.000000
rprop_delta_max=50.000000
rprop_delta_zero=0.100000
cascade_output_stagnation_epochs=12
cascade_candidate_change_fraction=0.010000
cascade_candidate_stagnation_epochs=12
cascade_max_out_epochs=150
cascade_min_out_epochs=50
cascade_max_cand_epochs=150
cascade_min_cand_epochs=50
cascade_num_candidate_groups=2
bit_fail_limit=3.49999994039535522461e-01
cascade_candidate_limit=1.00000000000000000000e+03
cascade_weight_multiplier=4.00000005960464477539e-01
cascade_activation_functions_count=10
cascade_activation_functions=3 5 7 8 10 11 14 15 16 17 
cascade_activation_steepnesses_count=4
cascade_activation_steepnesses=2.50000000000000000000e-01 5.00000000000000000000e-01 7.50000000000000000000e-01 1.00000000000000000000e+00 
layer_sizes=19 31 2 
scale_included=0
neurons (num_inputs, activation_function, activation_steepness)=(0, 0, 0.00000000000000000000e+00) (0, 0, 0.00000000000000000000e+00) (0, 0, 0.00000000000000000000e+00) (0, 0, 0.00000000000000000000e+00) (0, 0, 0.00000000000000000000e+00) (0, 0, 0.00000000000000000000e+00) (0, 0, 0.00000000000000000000e+00) (0, 0, 0.00000000000000000000e+00) (0, 0, 0.00000000000000000000e+00) (0, 0, 0.00000000000000000000e+00) (0, 0, 0.00000000000000000000e+00) (0, 0, 0.00000000000000000000e+00) (0, 0, 0.00000000000000000000e+00) (0, 0, 0.00000000000000000000e+00) (0, 0, 0.00000000000000000000e+00) (0, 0, 0.00000000000000000000e+00) (0, 0, 0.00000000000000000000e+00) (0, 0, 0.00000000000000000000e+00) (0, 0, 0.00000000000000000000e+00) (19, 4, 5.00000000000000000000e-01) (19, 4, 5.00000000000000000000e-01) (19, 4, 5.00000000000000000000e-01) (19, 4, 5.00000000000000000000e-01) (19, 4, 5.00000000000000000000e-01) (19, 4, 5.00000000000000000000e-01) (19, 4, 5.00000000000000000000e-01) (19, 4, 5.00000000000000000000e-01) (19, 4, 5.00000000000000000000e-01) (19, 4, 5.00000000000000000000e-01) (19, 4, 5.00000000000000000000e-01) (19, 4, 5.00000000000000000000e-01) (19, 4, 5.00000000000000000000e-01) (19, 4, 5.00000000000000000000e-01) (19, 4, 5.00000000000000000000e-01) (19, 4, 5.00000000000000000000e-01) (19, 4, 5.00000000000000000000e-01) (19, 4, 5.00000000000000000000e-01) (19, 4, 5.00000000000000000000e-01) (19, 4, 5.00000000000000000000e-01) (19, 4, 5.00000000000000000000e-01) (19, 4, 5.00000000000000000000e-01) (19, 4, 5.00000000000000000000e-01) (19, 4, 5.00000000000000000000e-01) (19, 4, 5.00000000000000000000e-01) (19, 4, 5.00000000000000000000e-01) (19, 4, 5.00000000000000000000e-01) (19, 4, 5.00000000000000000000e-01) (19, 4, 5.00000000000000000000e-01) (19, 4, 5.00000000000000000000e-01) (0, 0, 0.00000000000000000000e+00) (31, 4, 5.00000000000000000000e-01) (0, 0, 0.00000000000000000000e+00) 
connections (connected_to_neuron, weight)=(0, -2.99230635166168212891e-01) (1, 1.92594155669212341309e-02) (2, -1.46912574768066406250e-01) (3, -2.03552305698394775391e-01) (4, -3.19496333599090576172e-01) (5, -1.90437614917755126953e-01) (6, -3.00875723361968994141e-01) (7, -2.34432876110076904297e-01) (8, -3.29420328140258789062e-01) (9, -1.83555543422698974609e-01) (10, -2.33687192201614379883e-01) (11, -1.96498006582260131836e-01) (12, -3.57911348342895507812e-01) (13, -2.32157349586486816406e-01) (14, -2.84359604120254516602e-01) (15, -2.47615963220596313477e-01) (16, -2.97196090221405029297e-01) (17, -1.90838664770126342773e-01) (18, -2.41326883435249328613e-01) (0, -1.96625858545303344727e-01) (1, -1.02434426546096801758e-01) (2, -5.52944391965866088867e-02) (3, -1.77587747573852539062e-01) (4, -3.32972049713134765625e-01) (5, -2.77172565460205078125e-01) (6, -2.54922509193420410156e-01) (7, -2.98730701208114624023e-01) (8, -1.82613521814346313477e-01) (9, -2.01231747865676879883e-01) (10, -3.17982554435729980469e-01) (11, -3.48507761955261230469e-01) (12, -1.85331106185913085938e-01) (13, -2.75462567806243896484e-01) (14, -3.15164148807525634766e-01) (15, -1.79244995117187500000e-01) (16, -1.86608582735061645508e-01) (17, -3.46286416053771972656e-01) (18, -2.51774698495864868164e-01) (0, 2.50750720500946044922e-01) (1, 1.70993283390998840332e-01) (2, 2.99879789352416992188e-01) (3, 2.11456924676895141602e-01) (4, 2.76442050933837890625e-01) (5, 8.12873691320419311523e-02) (6, 1.16730377078056335449e-01) (7, 2.07258760929107666016e-01) (8, 1.17866337299346923828e-01) (9, 9.93547290563583374023e-02) (10, 1.74839377403259277344e-01) (11, 2.45183855295181274414e-01) (12, 1.24901026487350463867e-01) (13, 1.31519973278045654297e-01) (14, 1.76078915596008300781e-01) (15, 2.78083473443984985352e-01) (16, 2.69015192985534667969e-01) (17, 2.57954299449920654297e-01) (18, 1.57684043049812316895e-01) (0, 1.15502715110778808594e-01) (1, 2.58089631795883178711e-01) (2, 3.28413188457489013672e-01) (3, 1.71863898634910583496e-01) (4, 2.36330956220626831055e-01) (5, 1.34216830134391784668e-01) (6, 1.02053500711917877197e-01) (7, 1.33075818419456481934e-01) (8, 1.25246465206146240234e-01) (9, 1.37391477823257446289e-01) (10, 2.58530974388122558594e-01) (11, 2.50031918287277221680e-01) (12, 2.06170558929443359375e-01) (13, 2.28413045406341552734e-01) (14, 2.58090078830718994141e-01) (15, 2.39554345607757568359e-01) (16, 1.09781756997108459473e-01) (17, 2.21918404102325439453e-01) (18, 1.02446995675563812256e-01) (0, 1.46584808826446533203e-01) (1, 2.54823327064514160156e-01) (2, 2.31200635433197021484e-01) (3, 1.20860114693641662598e-01) (4, 2.15895086526870727539e-01) (5, 2.68434196710586547852e-01) (6, 9.34081673622131347656e-02) (7, 2.30920583009719848633e-01) (8, 2.02082052826881408691e-01) (9, 1.12945735454559326172e-01) (10, 1.98957577347755432129e-01) (11, 1.99919208884239196777e-01) (12, 1.62044793367385864258e-01) (13, 2.06810206174850463867e-01) (14, 1.79200664162635803223e-01) (15, 1.45533934235572814941e-01) (16, 1.08772486448287963867e-01) (17, 2.59030014276504516602e-01) (18, 2.37349927425384521484e-01) (0, 2.60048657655715942383e-01) (1, 2.41592168807983398438e-01) (2, 2.55299031734466552734e-01) (3, 1.42494246363639831543e-01) (4, 2.20622569322586059570e-01) (5, 1.23364366590976715088e-01) (6, 1.04805082082748413086e-01) (7, 1.78872644901275634766e-01) (8, 2.32326388359069824219e-01) (9, 2.29292929172515869141e-01) (10, 2.45862960815429687500e-01) (11, 1.38417765498161315918e-01) (12, 1.07326023280620574951e-01) (13, 1.48375198245048522949e-01) (14, 2.61852890253067016602e-01) (15, 8.13435241580009460449e-02) (16, 2.60495007038116455078e-01) (17, 2.59747803211212158203e-01) (18, 1.01338125765323638916e-01) (0, -3.34266930818557739258e-01) (1, -3.60890254378318786621e-02) (2, 1.17529407143592834473e-02) (3, -3.12327861785888671875e-01) (4, -3.09775292873382568359e-01) (5, -2.08793371915817260742e-01) (6, -2.05919384956359863281e-01) (7, -3.03164899349212646484e-01) (8, -3.08454066514968872070e-01) (9, -2.03352034091949462891e-01) (10, -3.53747427463531494141e-01) (11, -2.48955965042114257812e-01) (12, -2.18612998723983764648e-01) (13, -2.44438901543617248535e-01) (14, -3.00329864025115966797e-01) (15, -2.59973108768463134766e-01) (16, -1.83577060699462890625e-01) (17, -1.95733487606048583984e-01) (18, -3.08269977569580078125e-01) (0, 1.35004967451095581055e-01) (1, 2.32469916343688964844e-01) (2, 3.37791204452514648438e-01) (3, 1.88216358423233032227e-01) (4, 2.72266745567321777344e-01) (5, 1.07131965458393096924e-01) (6, 8.67984220385551452637e-02) (7, 1.40946522355079650879e-01) (8, 2.08161324262619018555e-01) (9, 8.72169807553291320801e-02) (10, 1.75694197416305541992e-01) (11, 2.12109386920928955078e-01) (12, 2.42282629013061523438e-01) (13, 1.64073839783668518066e-01) (14, 1.08991786837577819824e-01) (15, 1.44832015037536621094e-01) (16, 1.11447468400001525879e-01) (17, 2.17478305101394653320e-01) (18, 2.77811050415039062500e-01) (0, -3.53650331497192382812e-01) (1, -1.31657794117927551270e-02) (2, -1.17322921752929687500e-01) (3, -2.90366560220718383789e-01) (4, -2.06473946571350097656e-01) (5, -2.23739892244338989258e-01) (6, -2.12186872959136962891e-01) (7, -2.40297377109527587891e-01) (8, -2.93667614459991455078e-01) (9, -2.87674516439437866211e-01) (10, -3.61419320106506347656e-01) (11, -1.90554291009902954102e-01) (12, -2.61623859405517578125e-01) (13, -3.28034192323684692383e-01) (14, -2.86395192146301269531e-01) (15, -2.59756445884704589844e-01) (16, -3.42443287372589111328e-01) (17, -2.60407984256744384766e-01) (18, -2.92656183242797851562e-01) (0, 1.55460938811302185059e-01) (1, 2.35789775848388671875e-01) (2, 3.34471106529235839844e-01) (3, 1.87828287482261657715e-01) (4, 1.50050789117813110352e-01) (5, 2.23546266555786132812e-01) (6, 2.61951625347137451172e-01) (7, 1.40676245093345642090e-01) (8, 2.65569120645523071289e-01) (9, 1.40070021152496337891e-01) (10, 2.76738286018371582031e-01) (11, 2.60428190231323242188e-01) (12, 1.36469721794128417969e-01) (13, 1.66602432727813720703e-01) (14, 2.06986129283905029297e-01) (15, 1.35456696152687072754e-01) (16, 1.40556812286376953125e-01) (17, 2.58246272802352905273e-01) (18, 2.65091478824615478516e-01) (0, 1.12491071224212646484e-01) (1, 2.41292208433151245117e-01) (2, 2.13883787393569946289e-01) (3, 2.76574641466140747070e-01) (4, 1.09730184078216552734e-01) (5, 1.55144870281219482422e-01) (6, 2.39795029163360595703e-01) (7, 1.54909580945968627930e-01) (8, 8.52527320384979248047e-02) (9, 1.62550330162048339844e-01) (10, 1.03390604257583618164e-01) (11, 2.05831468105316162109e-01) (12, 1.29495143890380859375e-01) (13, 1.44743204116821289062e-01) (14, 2.18817979097366333008e-01) (15, 1.93599224090576171875e-01) (16, 1.41972661018371582031e-01) (17, 2.54489481449127197266e-01) (18, 1.24849453568458557129e-01) (0, -1.79421067237854003906e-01) (1, -1.41481742262840270996e-01) (2, -1.23545646667480468750e-01) (3, -2.75668263435363769531e-01) (4, -1.71914905309677124023e-01) (5, -1.89512073993682861328e-01) (6, -3.45315694808959960938e-01) (7, -3.36554378271102905273e-01) (8, -2.85194933414459228516e-01) (9, -2.86666691303253173828e-01) (10, -2.23096370697021484375e-01) (11, -1.96266621351242065430e-01) (12, -2.69073009490966796875e-01) (13, -3.25837135314941406250e-01) (14, -3.60298395156860351562e-01) (15, -3.50484609603881835938e-01) (16, -2.10812151432037353516e-01) (17, -3.35911452770233154297e-01) (18, -2.79611766338348388672e-01) (0, 1.93447098135948181152e-01) (1, 2.69224643707275390625e-01) (2, 2.74015307426452636719e-01) (3, 1.06894552707672119141e-01) (4, 9.66117084026336669922e-02) (5, 2.72884964942932128906e-01) (6, 9.74197909235954284668e-02) (7, 2.54337280988693237305e-01) (8, 1.66692644357681274414e-01) (9, 1.23302891850471496582e-01) (10, 2.71605372428894042969e-01) (11, 1.91463366150856018066e-01) (12, 2.44595736265182495117e-01) (13, 2.40397006273269653320e-01) (14, 2.72462546825408935547e-01) (15, 1.97642832994461059570e-01) (16, 1.02907545864582061768e-01) (17, 8.70048850774765014648e-02) (18, 2.10977077484130859375e-01) (0, 2.11747318506240844727e-01) (1, 2.41034790873527526855e-01) (2, 2.87505984306335449219e-01) (3, 2.44978040456771850586e-01) (4, 2.65647381544113159180e-01) (5, 2.55468249320983886719e-01) (6, 1.74789771437644958496e-01) (7, 2.11503356695175170898e-01) (8, 2.56632447242736816406e-01) (9, 1.41389116644859313965e-01) (10, 2.46726155281066894531e-01) (11, 2.46419876813888549805e-01) (12, 9.85691323876380920410e-02) (13, 1.71345889568328857422e-01) (14, 1.30313783884048461914e-01) (15, 1.03760190308094024658e-01) (16, 2.17428237199783325195e-01) (17, 2.36114799976348876953e-01) (18, 1.01078465580940246582e-01) (0, 1.45732372999191284180e-01) (1, 3.27859222888946533203e-01) (2, 3.45765292644500732422e-01) (3, 2.09081381559371948242e-01) (4, 1.50555804371833801270e-01) (5, 1.11199900507926940918e-01) (6, 2.56581276655197143555e-01) (7, 8.12069550156593322754e-02) (8, 1.65199369192123413086e-01) (9, 2.25546985864639282227e-01) (10, 8.81396681070327758789e-02) (11, 8.32629501819610595703e-02) (12, 1.20271004736423492432e-01) (13, 1.14672362804412841797e-01) (14, 2.18353718519210815430e-01) (15, 1.90882816910743713379e-01) (16, 8.73328223824501037598e-02) (17, 1.22699201107025146484e-01) (18, 1.25354692339897155762e-01) (0, -2.87688314914703369141e-01) (1, 1.06430873274803161621e-02) (2, 3.84789928793907165527e-02) (3, -3.27589243650436401367e-01) (4, -2.08153784275054931641e-01) (5, -2.56582796573638916016e-01) (6, -2.02826946973800659180e-01) (7, -3.28462660312652587891e-01) (8, -2.87838280200958251953e-01) (9, -3.13361734151840209961e-01) (10, -2.86387443542480468750e-01) (11, -3.29677522182464599609e-01) (12, -3.05481672286987304688e-01) (13, -2.46589899063110351562e-01) (14, -2.52273559570312500000e-01) (15, -1.77392959594726562500e-01) (16, -2.59157955646514892578e-01) (17, -2.83780634403228759766e-01) (18, -3.17258536815643310547e-01) (0, -1.80106371641159057617e-01) (1, -5.97074776887893676758e-02) (2, -1.43419265747070312500e-01) (3, -2.91570186614990234375e-01) (4, -2.35799312591552734375e-01) (5, -2.94709771871566772461e-01) (6, -2.02810287475585937500e-01) (7, -2.48538494110107421875e-01) (8, -2.02077299356460571289e-01) (9, -3.28923851251602172852e-01) (10, -2.38848984241485595703e-01) (11, -3.50450426340103149414e-01) (12, -2.36056119203567504883e-01) (13, -2.11210668087005615234e-01) (14, -2.33718276023864746094e-01) (15, -3.18704664707183837891e-01) (16, -2.85287439823150634766e-01) (17, -2.41675496101379394531e-01) (18, -2.55762070417404174805e-01) (0, -2.08765029907226562500e-01) (1, -1.25944659113883972168e-01) (2, 8.18904489278793334961e-03) (3, -2.10695207118988037109e-01) (4, -1.70008897781372070312e-01) (5, -3.55223178863525390625e-01) (6, -2.51912891864776611328e-01) (7, -3.15597593784332275391e-01) (8, -2.64726072549819946289e-01) (9, -2.66675382852554321289e-01) (10, -2.29059249162673950195e-01) (11, -2.14430779218673706055e-01) (12, -3.54116678237915039062e-01) (13, -2.55008518695831298828e-01) (14, -3.43863517045974731445e-01) (15, -3.29963922500610351562e-01) (16, -3.19490820169448852539e-01) (17, -2.97922104597091674805e-01) (18, -1.92682087421417236328e-01) (0, 2.20080792903900146484e-01) (1, 3.01789164543151855469e-01) (2, 1.85957938432693481445e-01) (3, 1.26854404807090759277e-01) (4, 1.61910280585289001465e-01) (5, 1.45906746387481689453e-01) (6, 1.74656063318252563477e-01) (7, 1.64363339543342590332e-01) (8, 1.74442067742347717285e-01) (9, 1.67738124728202819824e-01) (10, 9.45177450776100158691e-02) (11, 2.79591679573059082031e-01) (12, 2.17362046241760253906e-01) (13, 1.23550996184349060059e-01) (14, 2.41574764251708984375e-01) (15, 2.66671478748321533203e-01) (16, 2.67435550689697265625e-01) (17, 1.08917169272899627686e-01) (18, 9.07815545797348022461e-02) (0, 8.55021327733993530273e-02) (1, 2.38281726837158203125e-01) (2, 2.16572433710098266602e-01) (3, 2.64830172061920166016e-01) (4, 1.20572127401828765869e-01) (5, 1.75642579793930053711e-01) (6, 1.44590795040130615234e-01) (7, 2.57233232259750366211e-01) (8, 2.38771945238113403320e-01) (9, 1.59928649663925170898e-01) (10, 2.40740716457366943359e-01) (11, 2.49063432216644287109e-01) (12, 1.28767237067222595215e-01) (13, 1.10950961709022521973e-01) (14, 2.72666871547698974609e-01) (15, 2.31967926025390625000e-01) (16, 2.04796463251113891602e-01) (17, 1.34221762418746948242e-01) (18, 1.85157030820846557617e-01) (0, 2.53925442695617675781e-01) (1, 3.28799664974212646484e-01) (2, 3.51952314376831054688e-01) (3, 1.94164723157882690430e-01) (4, 2.46256023645401000977e-01) (5, 1.44723370671272277832e-01) (6, 8.55226516723632812500e-02) (7, 9.90457981824874877930e-02) (8, 1.82600602507591247559e-01) (9, 8.82413759827613830566e-02) (10, 1.92723572254180908203e-01) (11, 2.24878162145614624023e-01) (12, 2.47083246707916259766e-01) (13, 2.47848868370056152344e-01) (14, 1.15733534097671508789e-01) (15, 2.53480017185211181641e-01) (16, 1.58315539360046386719e-01) (17, 1.29180163145065307617e-01) (18, 2.51023024320602416992e-01) (0, 2.63991773128509521484e-01) (1, 3.13450992107391357422e-01) (2, 1.86530262231826782227e-01) (3, 1.45833194255828857422e-01) (4, 1.38429388403892517090e-01) (5, 1.02576717734336853027e-01) (6, 1.26806229352951049805e-01) (7, 1.52309939265251159668e-01) (8, 1.93104714155197143555e-01) (9, 2.30980545282363891602e-01) (10, 2.09736496210098266602e-01) (11, 1.61014527082443237305e-01) (12, 9.09165740013122558594e-02) (13, 1.54784515500068664551e-01) (14, 1.83182299137115478516e-01) (15, 2.64800965785980224609e-01) (16, 2.29991823434829711914e-01) (17, 1.92468389868736267090e-01) (18, 1.36179640889167785645e-01) (0, -3.52986156940460205078e-01) (1, -4.99707683920860290527e-02) (2, -9.87479686737060546875e-02) (3, -3.00937473773956298828e-01) (4, -2.71984040737152099609e-01) (5, -2.51839816570281982422e-01) (6, -2.87845313549041748047e-01) (7, -2.32056438922882080078e-01) (8, -1.88482433557510375977e-01) (9, -2.39993900060653686523e-01) (10, -1.93382441997528076172e-01) (11, -1.94512486457824707031e-01) (12, -1.87293410301208496094e-01) (13, -2.56042450666427612305e-01) (14, -3.21453988552093505859e-01) (15, -2.93071568012237548828e-01) (16, -2.69718378782272338867e-01) (17, -1.72613590955734252930e-01) (18, -3.32406282424926757812e-01) (0, -1.67858421802520751953e-01) (1, -8.19843262434005737305e-03) (2, -3.09563800692558288574e-02) (3, -3.27841877937316894531e-01) (4, -2.54369199275970458984e-01) (5, -1.99230551719665527344e-01) (6, -2.83836662769317626953e-01) (7, -2.58298039436340332031e-01) (8, -2.31137603521347045898e-01) (9, -3.45406085252761840820e-01) (10, -2.55821704864501953125e-01) (11, -2.11089730262756347656e-01) (12, -2.00779736042022705078e-01) (13, -3.20545554161071777344e-01) (14, -2.24820673465728759766e-01) (15, -1.76657706499099731445e-01) (16, -3.02008062601089477539e-01) (17, -2.65320390462875366211e-01) (18, -2.55659878253936767578e-01) (0, 1.52719184756278991699e-01) (1, 3.55202913284301757812e-01) (2, 3.11176240444183349609e-01) (3, 2.70915210247039794922e-01) (4, 1.91813647747039794922e-01) (5, 1.31881833076477050781e-01) (6, 2.57844030857086181641e-01) (7, 1.04335620999336242676e-01) (8, 8.86605530977249145508e-02) (9, 2.37830221652984619141e-01) (10, 1.32242605090141296387e-01) (11, 1.21353343129158020020e-01) (12, 1.05543136596679687500e-01) (13, 1.83331385254859924316e-01) (14, 1.70408397912979125977e-01) (15, 1.73943191766738891602e-01) (16, 1.83005943894386291504e-01) (17, 1.00724846124649047852e-01) (18, 2.02411025762557983398e-01) (0, 2.42156654596328735352e-01) (1, 3.30906331539154052734e-01) (2, 3.58849108219146728516e-01) (3, 1.08766712248325347900e-01) (4, 1.61979913711547851562e-01) (5, 1.16161830723285675049e-01) (6, 2.51811295747756958008e-01) (7, 1.12496256828308105469e-01) (8, 2.44448214769363403320e-01) (9, 1.61000102758407592773e-01) (10, 2.48563647270202636719e-01) (11, 1.29329308867454528809e-01) (12, 1.57654136419296264648e-01) (13, 2.13085830211639404297e-01) (14, 2.53164678812026977539e-01) (15, 2.58512735366821289062e-01) (16, 1.43185019493103027344e-01) (17, 2.30418384075164794922e-01) (18, 1.61666810512542724609e-01) (0, 2.54097759723663330078e-01) (1, 2.25030571222305297852e-01) (2, 3.04755210876464843750e-01) (3, 1.53059408068656921387e-01) (4, 1.89265683293342590332e-01) (5, 1.08260460197925567627e-01) (6, 2.53390729427337646484e-01) (7, 2.57948905229568481445e-01) (8, 2.67043709754943847656e-01) (9, 1.23763114213943481445e-01) (10, 2.06611156463623046875e-01) (11, 2.33775317668914794922e-01) (12, 1.81380525231361389160e-01) (13, 1.82410418987274169922e-01) (14, 9.16985943913459777832e-02) (15, 9.82215628027915954590e-02) (16, 1.29681259393692016602e-01) (17, 2.72941410541534423828e-01) (18, 2.46431231498718261719e-01) (0, -3.54240536689758300781e-01) (1, -1.32027566432952880859e-01) (2, -2.72703096270561218262e-02) (3, -1.76167070865631103516e-01) (4, -2.55729049444198608398e-01) (5, -2.53922432661056518555e-01) (6, -2.89992034435272216797e-01) (7, -3.12099277973175048828e-01) (8, -2.68242627382278442383e-01) (9, -1.69479787349700927734e-01) (10, -2.62667655944824218750e-01) (11, -2.70890951156616210938e-01) (12, -2.80359923839569091797e-01) (13, -2.25330680608749389648e-01) (14, -3.48510563373565673828e-01) (15, -2.32777655124664306641e-01) (16, -3.10149431228637695312e-01) (17, -2.96869397163391113281e-01) (18, -2.99804776906967163086e-01) (0, -2.34708666801452636719e-01) (1, 3.95423844456672668457e-02) (2, -5.10560274124145507812e-02) (3, -3.42708855867385864258e-01) (4, -3.23537468910217285156e-01) (5, -3.10332596302032470703e-01) (6, -1.75537675619125366211e-01) (7, -2.77372002601623535156e-01) (8, -2.07026928663253784180e-01) (9, -3.17232489585876464844e-01) (10, -3.42557549476623535156e-01) (11, -1.80585741996765136719e-01) (12, -3.20671319961547851562e-01) (13, -3.38644742965698242188e-01) (14, -2.17857301235198974609e-01) (15, -3.43479722738265991211e-01) (16, -2.79451608657836914062e-01) (17, -3.58812510967254638672e-01) (18, -1.77916198968887329102e-01) (0, 1.90809532999992370605e-01) (1, 3.39797258377075195312e-01) (2, 1.88662797212600708008e-01) (3, 1.87548995018005371094e-01) (4, 2.55772590637207031250e-01) (5, 8.99121835827827453613e-02) (6, 2.74004131555557250977e-01) (7, 1.07328191399574279785e-01) (8, 1.84821039438247680664e-01) (9, 2.07024723291397094727e-01) (10, 1.84207931160926818848e-01) (11, 1.02429360151290893555e-01) (12, 2.50218987464904785156e-01) (13, 1.50477021932601928711e-01) (14, 1.87101870775222778320e-01) (15, 1.41124486923217773438e-01) (16, 1.99255645275115966797e-01) (17, 2.09549993276596069336e-01) (18, 2.26699203252792358398e-01) (19, 9.73680987954139709473e-02) (20, 1.21504388749599456787e-01) (21, -1.03760600090026855469e-01) (22, -1.44311994314193725586e-01) (23, -9.14917141199111938477e-02) (24, -1.41295656561851501465e-01) (25, 8.79575982689857482910e-02) (26, -1.24610558152198791504e-01) (27, 1.14492796361446380615e-01) (28, -1.47644013166427612305e-01) (29, -9.28061604499816894531e-02) (30, 5.08533939719200134277e-02) (31, -1.35064810514450073242e-01) (32, -7.42942243814468383789e-02) (33, -1.03063568472862243652e-01) (34, 5.45732006430625915527e-02) (35, 6.76148161292076110840e-02) (36, 5.80213442444801330566e-02) (37, -6.33730515837669372559e-02) (38, -1.50824621319770812988e-01) (39, -1.49370372295379638672e-01) (40, -1.07952594757080078125e-01) (41, 8.49087461829185485840e-02) (42, 1.17337115108966827393e-01) (43, -1.43161579966545104980e-01) (44, -1.56607687473297119141e-01) (45, -1.45366400480270385742e-01) (46, 7.09707960486412048340e-02) (47, 6.21136203408241271973e-02) (48, -8.44855308532714843750e-02) (49, 1.16202905774116516113e-02) 
