FANN_FLO_2.1
num_layers=3
learning_rate=0.700000
connection_rate=1.000000
network_type=0
learning_momentum=0.000000
training_algorithm=2
train_error_function=1
train_stop_function=0
cascade_output_change_fraction=0.010000
quickprop_decay=-0.000100
quickprop_mu=1.750000
rprop_increase_factor=1.200000
rprop_decrease_factor=0.500000
rprop_delta_min=0.000000
rprop_delta_max=50.000000
rprop_delta_zero=0.100000
cascade_output_stagnation_epochs=12
cascade_candidate_change_fraction=0.010000
cascade_candidate_stagnation_epochs=12
cascade_max_out_epochs=150
cascade_min_out_epochs=50
cascade_max_cand_epochs=150
cascade_min_cand_epochs=50
cascade_num_candidate_groups=2
bit_fail_limit=3.49999994039535522461e-01
cascade_candidate_limit=1.00000000000000000000e+03
cascade_weight_multiplier=4.00000005960464477539e-01
cascade_activation_functions_count=10
cascade_activation_functions=3 5 7 8 10 11 14 15 16 17 
cascade_activation_steepnesses_count=4
cascade_activation_steepnesses=2.50000000000000000000e-01 5.00000000000000000000e-01 7.50000000000000000000e-01 1.00000000000000000000e+00 
layer_sizes=19 20 2 
scale_included=0
neurons (num_inputs, activation_function, activation_steepness)=(0, 0, 0.00000000000000000000e+00) (0, 0, 0.00000000000000000000e+00) (0, 0, 0.00000000000000000000e+00) (0, 0, 0.00000000000000000000e+00) (0, 0, 0.00000000000000000000e+00) (0, 0, 0.00000000000000000000e+00) (0, 0, 0.00000000000000000000e+00) (0, 0, 0.00000000000000000000e+00) (0, 0, 0.00000000000000000000e+00) (0, 0, 0.00000000000000000000e+00) (0, 0, 0.00000000000000000000e+00) (0, 0, 0.00000000000000000000e+00) (0, 0, 0.00000000000000000000e+00) (0, 0, 0.00000000000000000000e+00) (0, 0, 0.00000000000000000000e+00) (0, 0, 0.00000000000000000000e+00) (0, 0, 0.00000000000000000000e+00) (0, 0, 0.00000000000000000000e+00) (0, 0, 0.00000000000000000000e+00) (19, 4, 5.00000000000000000000e-01) (19, 4, 5.00000000000000000000e-01) (19, 4, 5.00000000000000000000e-01) (19, 4, 5.00000000000000000000e-01) (19, 4, 5.00000000000000000000e-01) (19, 4, 5.00000000000000000000e-01) (19, 4, 5.00000000000000000000e-01) (19, 4, 5.00000000000000000000e-01) (19, 4, 5.00000000000000000000e-01) (19, 4, 5.00000000000000000000e-01) (19, 4, 5.00000000000000000000e-01) (19, 4, 5.00000000000000000000e-01) (19, 4, 5.00000000000000000000e-01) (19, 4, 5.00000000000000000000e-01) (19, 4, 5.00000000000000000000e-01) (19, 4, 5.00000000000000000000e-01) (19, 4, 5.00000000000000000000e-01) (19, 4, 5.00000000000000000000e-01) (19, 4, 5.00000000000000000000e-01) (0, 0, 0.00000000000000000000e+00) (20, 4, 5.00000000000000000000e-01) (0, 0, 0.00000000000000000000e+00) 
connections (connected_to_neuron, weight)=(0, 3.42787578701972961426e-02) (1, -1.16960972547531127930e-01) (2, -3.09250503778457641602e-03) (3, -1.57362744212150573730e-02) (4, -1.19388386607170104980e-01) (5, -5.65491616725921630859e-04) (6, -1.44215419888496398926e-01) (7, -6.84858709573745727539e-02) (8, -8.20190012454986572266e-02) (9, -1.33383691310882568359e-01) (10, -1.96627154946327209473e-02) (11, -1.11221283674240112305e-01) (12, -1.36044532060623168945e-01) (13, -1.40247300267219543457e-01) (14, 2.36975029110908508301e-02) (15, -1.56030207872390747070e-01) (16, -3.94898653030395507812e-02) (17, -1.46140784025192260742e-01) (18, -2.82030180096626281738e-02) (0, -4.81905937194824218750e-02) (1, 2.07573398947715759277e-02) (2, 2.87329182028770446777e-02) (3, -1.25711441040039062500e-01) (4, -7.20083415508270263672e-02) (5, -8.42699557542800903320e-02) (6, 3.49490866065025329590e-02) (7, -5.07099032402038574219e-02) (8, -1.21230840682983398438e-01) (9, 3.34544107317924499512e-02) (10, 2.83086672425270080566e-02) (11, -5.62366396188735961914e-02) (12, -9.10014659166336059570e-03) (13, 1.38524398207664489746e-02) (14, -2.20150277018547058105e-02) (15, -4.64902967214584350586e-02) (16, -2.51065939664840698242e-03) (17, -3.65235209465026855469e-02) (18, -9.08099412918090820312e-02) (0, -8.27710330486297607422e-02) (1, 2.72757038474082946777e-02) (2, -1.72273740172386169434e-02) (3, 1.94408521056175231934e-02) (4, -9.74867492914199829102e-02) (5, -9.97767001390457153320e-02) (6, 1.30960866808891296387e-02) (7, -1.34015649557113647461e-01) (8, -4.08800989389419555664e-02) (9, -1.11659780144691467285e-01) (10, -1.05790525674819946289e-01) (11, -6.13714829087257385254e-02) (12, -1.10458314418792724609e-01) (13, -1.12926676869392395020e-01) (14, 1.35099142789840698242e-03) (15, -1.33909910917282104492e-01) (16, -6.39201700687408447266e-02) (17, -1.46245002746582031250e-01) (18, 2.02821567654609680176e-02) (0, 1.66051462292671203613e-01) (1, 2.42708206176757812500e-01) (2, 2.12618917226791381836e-01) (3, 3.01964342594146728516e-01) (4, 3.30552697181701660156e-01) (5, 2.14572951197624206543e-01) (6, 3.43454003334045410156e-01) (7, 2.47271656990051269531e-01) (8, 3.10613453388214111328e-01) (9, 2.96419262886047363281e-01) (10, 3.34255516529083251953e-01) (11, 2.48585611581802368164e-01) (12, 1.94108992815017700195e-01) (13, 2.05699056386947631836e-01) (14, 1.99697241187095642090e-01) (15, 3.27261149883270263672e-01) (16, 2.93589115142822265625e-01) (17, 1.68450757861137390137e-01) (18, 1.67697012424468994141e-01) (0, 2.99597620964050292969e-01) (1, 3.53276669979095458984e-01) (2, 3.36621880531311035156e-01) (3, 2.19404861330986022949e-01) (4, 3.53384852409362792969e-01) (5, 3.55357348918914794922e-01) (6, 3.07225167751312255859e-01) (7, 3.49546372890472412109e-01) (8, 2.41454482078552246094e-01) (9, 3.41351568698883056641e-01) (10, 3.11436712741851806641e-01) (11, 3.32820236682891845703e-01) (12, 3.25899839401245117188e-01) (13, 2.14284911751747131348e-01) (14, 3.02259206771850585938e-01) (15, 2.86278545856475830078e-01) (16, 2.99557745456695556641e-01) (17, 2.82794743776321411133e-01) (18, 3.46926748752593994141e-01) (0, 2.13694542646408081055e-01) (1, 1.80043041706085205078e-01) (2, 1.99235171079635620117e-01) (3, 3.61316144466400146484e-01) (4, 2.56093114614486694336e-01) (5, 1.72706261277198791504e-01) (6, 2.89982080459594726562e-01) (7, 3.44918608665466308594e-01) (8, 2.63242542743682861328e-01) (9, 3.33071291446685791016e-01) (10, 3.45469594001770019531e-01) (11, 3.23379158973693847656e-01) (12, 2.49388948082923889160e-01) (13, 2.95874774456024169922e-01) (14, 1.83520585298538208008e-01) (15, 2.46393322944641113281e-01) (16, 3.48260641098022460938e-01) (17, 2.32291728258132934570e-01) (18, 3.42797756195068359375e-01) (0, -1.06242716312408447266e-01) (1, -6.13097921013832092285e-02) (2, -7.36224800348281860352e-02) (3, -1.30610391497611999512e-02) (4, -1.56685680150985717773e-01) (5, -5.61627298593521118164e-02) (6, 3.31387594342231750488e-02) (7, -7.70320892333984375000e-02) (8, -1.18370682001113891602e-01) (9, -9.60307866334915161133e-02) (10, -2.93058529496192932129e-02) (11, 1.65345743298530578613e-02) (12, -1.43510222434997558594e-01) (13, -1.63590535521507263184e-02) (14, 1.34328380227088928223e-02) (15, -7.42577612400054931641e-02) (16, -9.00099873542785644531e-02) (17, -3.77135425806045532227e-02) (18, -9.14080739021301269531e-02) (0, 1.88425153493881225586e-01) (1, 2.77314484119415283203e-01) (2, 2.40367010235786437988e-01) (3, 2.64098018407821655273e-01) (4, 3.11276197433471679688e-01) (5, 2.35111474990844726562e-01) (6, 3.34323406219482421875e-01) (7, 1.88871949911117553711e-01) (8, 1.86765879392623901367e-01) (9, 1.89932227134704589844e-01) (10, 2.06618219614028930664e-01) (11, 2.48217612504959106445e-01) (12, 2.09118768572807312012e-01) (13, 2.74943977594375610352e-01) (14, 1.99215292930603027344e-01) (15, 2.27335214614868164062e-01) (16, 2.38829448819160461426e-01) (17, 2.22307980060577392578e-01) (18, 3.45982432365417480469e-01) (0, 1.83827355504035949707e-02) (1, -8.12830030918121337891e-02) (2, 3.65278944373130798340e-02) (3, -1.15685105323791503906e-01) (4, -1.59584254026412963867e-01) (5, 2.76861265301704406738e-02) (6, -1.19079604744911193848e-01) (7, -1.08577683568000793457e-02) (8, -1.26593634486198425293e-01) (9, -9.90696102380752563477e-02) (10, -1.02829858660697937012e-01) (11, -1.01312607526779174805e-01) (12, -8.28959047794342041016e-04) (13, 2.78314724564552307129e-02) (14, -7.64196664094924926758e-02) (15, -2.53364369273185729980e-02) (16, -6.96624964475631713867e-02) (17, -5.75354546308517456055e-02) (18, -3.83232012391090393066e-02) (0, 1.86079204082489013672e-01) (1, 2.48977154493331909180e-01) (2, 1.74700275063514709473e-01) (3, 2.03338950872421264648e-01) (4, 3.33521246910095214844e-01) (5, 3.07135403156280517578e-01) (6, 2.40451753139495849609e-01) (7, 2.88376688957214355469e-01) (8, 3.63036334514617919922e-01) (9, 1.67429000139236450195e-01) (10, 1.95121422410011291504e-01) (11, 2.21465513110160827637e-01) (12, 1.86706125736236572266e-01) (13, 1.85596168041229248047e-01) (14, 3.30571591854095458984e-01) (15, 3.32915246486663818359e-01) (16, 3.21909427642822265625e-01) (17, 3.47115159034729003906e-01) (18, 1.79919540882110595703e-01) (0, -5.38669526576995849609e-04) (1, -9.34650748968124389648e-02) (2, -1.07423111796379089355e-01) (3, -1.00213572382926940918e-01) (4, -1.29415720701217651367e-01) (5, -1.29944652318954467773e-01) (6, -1.96357294917106628418e-02) (7, -5.78271895647048950195e-02) (8, -1.41516923904418945312e-01) (9, -1.14964023232460021973e-01) (10, -4.03199568390846252441e-02) (11, -9.75393354892730712891e-02) (12, 1.65088251233100891113e-02) (13, 2.37478986382484436035e-02) (14, -1.08971297740936279297e-01) (15, -1.20526224374771118164e-01) (16, -1.24272167682647705078e-01) (17, -8.23147594928741455078e-02) (18, -1.04211345314979553223e-01) (0, 2.04036504030227661133e-01) (1, 2.57408291101455688477e-01) (2, 2.77005851268768310547e-01) (3, 2.53010332584381103516e-01) (4, 3.60427796840667724609e-01) (5, 3.25698733329772949219e-01) (6, 2.34421953558921813965e-01) (7, 3.45530390739440917969e-01) (8, 3.45377743244171142578e-01) (9, 1.79915845394134521484e-01) (10, 2.61268317699432373047e-01) (11, 3.52347671985626220703e-01) (12, 3.23323547840118408203e-01) (13, 3.14648091793060302734e-01) (14, 3.06455492973327636719e-01) (15, 2.12985292077064514160e-01) (16, 2.59617060422897338867e-01) (17, 1.99813753366470336914e-01) (18, 2.85664469003677368164e-01) (0, -1.45530909299850463867e-01) (1, 2.20710709691047668457e-02) (2, -9.16815996170043945312e-02) (3, -1.32710605859756469727e-01) (4, -1.06985613703727722168e-01) (5, -1.47200345993041992188e-01) (6, -3.60825881361961364746e-02) (7, -7.99676775932312011719e-02) (8, -5.67213073372840881348e-02) (9, -1.55021637678146362305e-01) (10, -8.84881615638732910156e-02) (11, -6.06363490223884582520e-02) (12, -1.55030220746994018555e-01) (13, -3.27798053622245788574e-02) (14, 2.97787860035896301270e-02) (15, -1.48113399744033813477e-01) (16, 1.81979611515998840332e-02) (17, 1.33295133709907531738e-02) (18, -1.10480561852455139160e-02) (0, 1.99426680803298950195e-01) (1, 1.80090501904487609863e-01) (2, 1.96836113929748535156e-01) (3, 2.40381389856338500977e-01) (4, 3.05688619613647460938e-01) (5, 3.24950873851776123047e-01) (6, 2.64681249856948852539e-01) (7, 3.13515722751617431641e-01) (8, 2.74170190095901489258e-01) (9, 1.94096803665161132812e-01) (10, 2.00781226158142089844e-01) (11, 3.45790266990661621094e-01) (12, 3.13110113143920898438e-01) (13, 2.57184982299804687500e-01) (14, 3.23873579502105712891e-01) (15, 3.59321415424346923828e-01) (16, 3.30411314964294433594e-01) (17, 2.38394886255264282227e-01) (18, 3.18827867507934570312e-01) (0, 3.13104316592216491699e-02) (1, -5.51005452871322631836e-03) (2, -4.75124940276145935059e-02) (3, 1.75679102540016174316e-02) (4, 2.39764079451560974121e-02) (5, -6.85358941555023193359e-02) (6, -1.22810557484626770020e-01) (7, -1.16886585950851440430e-01) (8, -1.52789324522018432617e-01) (9, 2.99161151051521301270e-02) (10, -4.00200486183166503906e-02) (11, -5.70100396871566772461e-02) (12, -7.64919072389602661133e-03) (13, 1.17816030979156494141e-04) (14, -5.99467381834983825684e-02) (15, 3.52325513958930969238e-02) (16, -8.64890068769454956055e-02) (17, -6.06916770339012145996e-02) (18, -8.49547088146209716797e-02) (0, 2.50155717134475708008e-01) (1, 1.82758778333663940430e-01) (2, 2.42401555180549621582e-01) (3, 2.58709013462066650391e-01) (4, 3.38185548782348632812e-01) (5, 2.99880146980285644531e-01) (6, 3.01087200641632080078e-01) (7, 1.88726842403411865234e-01) (8, 3.47756147384643554688e-01) (9, 3.53635311126708984375e-01) (10, 1.64009362459182739258e-01) (11, 3.21105003356933593750e-01) (12, 2.27251648902893066406e-01) (13, 2.34116703271865844727e-01) (14, 2.15018212795257568359e-01) (15, 2.26970374584197998047e-01) (16, 3.06914508342742919922e-01) (17, 3.28216969966888427734e-01) (18, 3.58553469181060791016e-01) (0, -9.98085141181945800781e-02) (1, -1.21745467185974121094e-01) (2, -1.59968808293342590332e-02) (3, -9.96303856372833251953e-02) (4, -1.27835214138031005859e-01) (5, 3.36323007941246032715e-02) (6, 1.81695595383644104004e-02) (7, -6.42590299248695373535e-02) (8, -4.14939150214195251465e-02) (9, -2.81496420502662658691e-02) (10, -1.50909870862960815430e-01) (11, 1.77075043320655822754e-02) (12, -3.00459191203117370605e-02) (13, -2.19266191124916076660e-02) (14, 3.93333807587623596191e-02) (15, 3.61078605055809020996e-02) (16, 2.49266847968101501465e-02) (17, -9.71044898033142089844e-02) (18, -7.51759111881256103516e-02) (0, -1.21534615755081176758e-01) (1, -7.21104443073272705078e-02) (2, -2.45235860347747802734e-04) (3, 3.82870808243751525879e-02) (4, -1.48990958929061889648e-01) (5, -1.31095796823501586914e-01) (6, 3.31552699208259582520e-02) (7, 5.34780323505401611328e-04) (8, -5.17915114760398864746e-02) (9, -9.99159365892410278320e-02) (10, -1.27187117934226989746e-01) (11, -7.37302601337432861328e-02) (12, -2.45915874838829040527e-02) (13, -1.50818228721618652344e-01) (14, -4.20645922422409057617e-02) (15, -1.96469202637672424316e-02) (16, -4.56397086381912231445e-02) (17, -1.06434106826782226562e-01) (18, -7.81228691339492797852e-02) (0, -5.09957820177078247070e-02) (1, -1.26042410731315612793e-01) (2, -3.46691682934761047363e-02) (3, -1.24725252389907836914e-01) (4, -9.71278697252273559570e-02) (5, -6.80956542491912841797e-02) (6, -1.23573213815689086914e-01) (7, -1.35069116950035095215e-01) (8, -1.46658405661582946777e-01) (9, -1.27760306000709533691e-01) (10, -1.07356891036033630371e-01) (11, 1.27650126814842224121e-02) (12, -9.84092205762863159180e-02) (13, -3.80168110132217407227e-03) (14, -1.34755060076713562012e-01) (15, -6.83154910802841186523e-02) (16, -1.83802321553230285645e-02) (17, -1.56545698642730712891e-01) (18, -1.03571772575378417969e-01) (19, 1.13179020583629608154e-01) (20, 5.56090995669364929199e-02) (21, 7.79852494597434997559e-02) (22, -3.33999156951904296875e-01) (23, -3.39814007282257080078e-01) (24, -2.69920587539672851562e-01) (25, 1.16650961339473724365e-01) (26, -2.79357373714447021484e-01) (27, 1.12566865980625152588e-01) (28, -3.20768475532531738281e-01) (29, 1.16600908339023590088e-01) (30, -3.20602864027023315430e-01) (31, 9.98722538352012634277e-02) (32, -2.79003739356994628906e-01) (33, 5.60306534171104431152e-02) (34, -3.25078189373016357422e-01) (35, 8.34767147898674011230e-02) (36, 4.90618273615837097168e-02) (37, 3.80250737071037292480e-02) (38, -3.44726562500000000000e-01) 
