FANN_FLO_2.1
num_layers=3
learning_rate=0.700000
connection_rate=1.000000
network_type=0
learning_momentum=0.000000
training_algorithm=2
train_error_function=1
train_stop_function=0
cascade_output_change_fraction=0.010000
quickprop_decay=-0.000100
quickprop_mu=1.750000
rprop_increase_factor=1.200000
rprop_decrease_factor=0.500000
rprop_delta_min=0.000000
rprop_delta_max=50.000000
rprop_delta_zero=0.100000
cascade_output_stagnation_epochs=12
cascade_candidate_change_fraction=0.010000
cascade_candidate_stagnation_epochs=12
cascade_max_out_epochs=150
cascade_min_out_epochs=50
cascade_max_cand_epochs=150
cascade_min_cand_epochs=50
cascade_num_candidate_groups=2
bit_fail_limit=3.49999994039535522461e-01
cascade_candidate_limit=1.00000000000000000000e+03
cascade_weight_multiplier=4.00000005960464477539e-01
cascade_activation_functions_count=10
cascade_activation_functions=3 5 7 8 10 11 14 15 16 17 
cascade_activation_steepnesses_count=4
cascade_activation_steepnesses=2.50000000000000000000e-01 5.00000000000000000000e-01 7.50000000000000000000e-01 1.00000000000000000000e+00 
layer_sizes=19 20 2 
scale_included=0
neurons (num_inputs, activation_function, activation_steepness)=(0, 0, 0.00000000000000000000e+00) (0, 0, 0.00000000000000000000e+00) (0, 0, 0.00000000000000000000e+00) (0, 0, 0.00000000000000000000e+00) (0, 0, 0.00000000000000000000e+00) (0, 0, 0.00000000000000000000e+00) (0, 0, 0.00000000000000000000e+00) (0, 0, 0.00000000000000000000e+00) (0, 0, 0.00000000000000000000e+00) (0, 0, 0.00000000000000000000e+00) (0, 0, 0.00000000000000000000e+00) (0, 0, 0.00000000000000000000e+00) (0, 0, 0.00000000000000000000e+00) (0, 0, 0.00000000000000000000e+00) (0, 0, 0.00000000000000000000e+00) (0, 0, 0.00000000000000000000e+00) (0, 0, 0.00000000000000000000e+00) (0, 0, 0.00000000000000000000e+00) (0, 0, 0.00000000000000000000e+00) (19, 4, 5.00000000000000000000e-01) (19, 4, 5.00000000000000000000e-01) (19, 4, 5.00000000000000000000e-01) (19, 4, 5.00000000000000000000e-01) (19, 4, 5.00000000000000000000e-01) (19, 4, 5.00000000000000000000e-01) (19, 4, 5.00000000000000000000e-01) (19, 4, 5.00000000000000000000e-01) (19, 4, 5.00000000000000000000e-01) (19, 4, 5.00000000000000000000e-01) (19, 4, 5.00000000000000000000e-01) (19, 4, 5.00000000000000000000e-01) (19, 4, 5.00000000000000000000e-01) (19, 4, 5.00000000000000000000e-01) (19, 4, 5.00000000000000000000e-01) (19, 4, 5.00000000000000000000e-01) (19, 4, 5.00000000000000000000e-01) (19, 4, 5.00000000000000000000e-01) (19, 4, 5.00000000000000000000e-01) (0, 0, 0.00000000000000000000e+00) (20, 4, 5.00000000000000000000e-01) (0, 0, 0.00000000000000000000e+00) 
connections (connected_to_neuron, weight)=(0, -1.49703934788703918457e-01) (1, 6.07393562793731689453e-01) (2, 1.23329041525721549988e-02) (3, 1.08267322182655334473e-01) (4, -3.33567522466182708740e-02) (5, -8.58815945684909820557e-03) (6, -6.49059414863586425781e-02) (7, -3.47028896212577819824e-02) (8, 2.32909992337226867676e-01) (9, 3.21705043315887451172e-01) (10, -1.53462994098663330078e+00) (11, -9.24327671527862548828e-02) (12, 7.90280401706695556641e-02) (13, 7.54911527037620544434e-02) (14, 2.22680896520614624023e-01) (15, -1.28383174538612365723e-01) (16, -3.73714566230773925781e-01) (17, 2.17982321977615356445e-01) (18, 4.32252474129199981689e-02) (0, 5.60535669326782226562e-01) (1, -3.37849569320678710938e+00) (2, -9.30768623948097229004e-02) (3, 2.96241074800491333008e-01) (4, 4.78968441486358642578e-01) (5, 3.77226918935775756836e-01) (6, 4.08095240592956542969e-01) (7, 4.12080854177474975586e-01) (8, -3.62566143274307250977e-01) (9, 1.16236485540866851807e-01) (10, 1.30693836212158203125e+01) (11, 5.49145281314849853516e-01) (12, 3.03188830614089965820e-01) (13, 4.50056999921798706055e-01) (14, 4.62334126234054565430e-01) (15, 4.03573423624038696289e-01) (16, 5.79033970832824707031e-01) (17, -4.17716562747955322266e-01) (18, 4.65853393077850341797e-01) (0, 3.93550157546997070312e-01) (1, -3.04240298271179199219e+00) (2, -1.77887633442878723145e-01) (3, 4.23904240131378173828e-01) (4, 3.72439414262771606445e-01) (5, 4.02614444494247436523e-01) (6, 3.54372829198837280273e-01) (7, 3.57481569051742553711e-01) (8, -3.00412505865097045898e-01) (9, 1.72556489706039428711e-01) (10, 1.31695480346679687500e+01) (11, 5.94506680965423583984e-01) (12, 4.17285263538360595703e-01) (13, 3.26770663261413574219e-01) (14, 4.48551535606384277344e-01) (15, 4.18606460094451904297e-01) (16, 4.43667590618133544922e-01) (17, -3.96864473819732666016e-01) (18, 3.37839782238006591797e-01) (0, 1.84842765331268310547e-01) (1, -2.79562401771545410156e+00) (2, -9.41603600978851318359e-01) (3, -5.55828958749771118164e-02) (4, 2.74331625550985336304e-02) (5, 5.48903197050094604492e-02) (6, 1.27407446503639221191e-01) (7, -1.20992608368396759033e-01) (8, -3.01942992210388183594e+00) (9, -7.11223423480987548828e-01) (10, 1.22334289550781250000e+00) (11, 2.54149675369262695312e-01) (12, -1.03083169087767601013e-02) (13, 2.99741942435503005981e-02) (14, -1.56378038227558135986e-02) (15, 1.40891429036855697632e-02) (16, 1.46301805973052978516e-01) (17, -2.32452601194381713867e-01) (18, 8.78833383321762084961e-02) (0, 4.62446451187133789062e-01) (1, -3.06329131126403808594e+00) (2, -4.56121191382408142090e-02) (3, 3.78421008586883544922e-01) (4, 3.35187315940856933594e-01) (5, 3.06979596614837646484e-01) (6, 4.19261515140533447266e-01) (7, 3.41415405273437500000e-01) (8, -3.24734061956405639648e-01) (9, 2.00410425662994384766e-01) (10, 1.31099834442138671875e+01) (11, 4.86221730709075927734e-01) (12, 4.74648714065551757812e-01) (13, 4.33695614337921142578e-01) (14, 3.35622787475585937500e-01) (15, 4.25908982753753662109e-01) (16, 5.77241241931915283203e-01) (17, -4.26626741886138916016e-01) (18, 3.23368847370147705078e-01) (0, 5.01510143280029296875e-01) (1, -2.92209362983703613281e+00) (2, -1.40862569212913513184e-01) (3, 3.04096460342407226562e-01) (4, 3.62607717514038085938e-01) (5, 3.61330956220626831055e-01) (6, 3.02500188350677490234e-01) (7, 3.34396183490753173828e-01) (8, -2.96525388956069946289e-01) (9, 3.03537011146545410156e-01) (10, 1.31594257354736328125e+01) (11, 4.91844415664672851562e-01) (12, 4.74882453680038452148e-01) (13, 3.61468613147735595703e-01) (14, 4.16131496429443359375e-01) (15, 3.35327029228210449219e-01) (16, 5.67048788070678710938e-01) (17, -3.29790115356445312500e-01) (18, 4.56456184387207031250e-01) (0, 5.61013102531433105469e-01) (1, -3.18631076812744140625e+00) (2, -1.68763801455497741699e-01) (3, 4.12798553705215454102e-01) (4, 4.42398697137832641602e-01) (5, 3.32656055688858032227e-01) (6, 4.88135218620300292969e-01) (7, 4.25247579813003540039e-01) (8, -5.04988193511962890625e-01) (9, -3.07407379150390625000e-02) (10, 1.30739173889160156250e+01) (11, 5.69643199443817138672e-01) (12, 3.80206465721130371094e-01) (13, 4.67332273721694946289e-01) (14, 4.08977150917053222656e-01) (15, 4.47603523731231689453e-01) (16, 5.82536637783050537109e-01) (17, -3.48800063133239746094e-01) (18, 3.49968016147613525391e-01) (0, 5.31664073467254638672e-01) (1, -3.09156727790832519531e+00) (2, -1.78014442324638366699e-01) (3, 3.14833164215087890625e-01) (4, 3.59697043895721435547e-01) (5, 3.86736929416656494141e-01) (6, 4.45931851863861083984e-01) (7, 3.35267782211303710938e-01) (8, -3.30473870038986206055e-01) (9, 3.91629263758659362793e-02) (10, 1.32155799865722656250e+01) (11, 4.54620659351348876953e-01) (12, 3.73135954141616821289e-01) (13, 4.54593956470489501953e-01) (14, 3.32107007503509521484e-01) (15, 3.53107720613479614258e-01) (16, 5.30175447463989257812e-01) (17, -3.09425264596939086914e-01) (18, 3.23544323444366455078e-01) (0, 4.39011663198471069336e-01) (1, -3.26360726356506347656e+00) (2, -5.18491864204406738281e-02) (3, 3.73208552598953247070e-01) (4, 4.74457234144210815430e-01) (5, 3.60422611236572265625e-01) (6, 3.81135910749435424805e-01) (7, 3.09780120849609375000e-01) (8, -3.02090018987655639648e-01) (9, -5.17734698951244354248e-02) (10, 1.31751537322998046875e+01) (11, 6.16807341575622558594e-01) (12, 3.33043992519378662109e-01) (13, 4.29188668727874755859e-01) (14, 3.32566797733306884766e-01) (15, 4.08788084983825683594e-01) (16, 5.23238122463226318359e-01) (17, -4.31377410888671875000e-01) (18, 4.73585933446884155273e-01) (0, 1.97727188467979431152e-01) (1, -7.83230364322662353516e-01) (2, 1.20034419000148773193e-01) (3, 6.98724612593650817871e-02) (4, 1.97704315185546875000e-01) (5, 6.76554664969444274902e-02) (6, 1.36709332466125488281e-01) (7, 1.24891221523284912109e-01) (8, -7.48306155204772949219e-01) (9, -3.10197230428457260132e-02) (10, -4.68485504388809204102e-01) (11, 3.90410244464874267578e-01) (12, 3.71606126427650451660e-02) (13, 5.73598183691501617432e-02) (14, 2.27672234177589416504e-01) (15, 1.04873783886432647705e-01) (16, 8.66987034678459167480e-02) (17, -6.55818521976470947266e-01) (18, 1.92136809229850769043e-01) (0, 4.17227484285831451416e-02) (1, -3.17763304710388183594e+00) (2, -2.62632101774215698242e-01) (3, 3.83751839399337768555e-02) (4, 1.67979359626770019531e-01) (5, 2.25469142198562622070e-01) (6, 5.63172884285449981689e-02) (7, -1.51745993643999099731e-02) (8, -9.29000079631805419922e-01) (9, -2.10162258148193359375e+00) (10, 9.88846719264984130859e-01) (11, 2.48078897595405578613e-01) (12, 9.65273007750511169434e-02) (13, 1.79427400231361389160e-01) (14, 8.18081721663475036621e-02) (15, -4.96878940612077713013e-03) (16, 3.39583843946456909180e-01) (17, 1.31350681185722351074e-01) (18, 1.05156838893890380859e-01) (0, 1.94138839840888977051e-01) (1, -1.35373747348785400391e+00) (2, 1.70733675360679626465e-01) (3, 5.43662868440151214600e-02) (4, 3.13779637217521667480e-02) (5, 7.65078067779541015625e-02) (6, 3.91177646815776824951e-02) (7, 8.74528959393501281738e-02) (8, -7.03683272004127502441e-02) (9, 1.91839799284934997559e-01) (10, 7.25549340248107910156e-01) (11, -7.98149704933166503906e-02) (12, 1.08596622943878173828e-01) (13, 8.09001848101615905762e-02) (14, -1.33752366527915000916e-02) (15, 9.96906310319900512695e-02) (16, -2.52364389598369598389e-02) (17, -7.47442394495010375977e-02) (18, -5.40764145553112030029e-02) (0, 1.26264184713363647461e-01) (1, -9.53326761722564697266e-01) (2, -3.93116846680641174316e-04) (3, 3.52462977170944213867e-02) (4, 1.80774509906768798828e-01) (5, 7.34003558754920959473e-02) (6, 3.59645336866378784180e-02) (7, 5.21554984152317047119e-02) (8, -2.43887019157409667969e+00) (9, -2.00452089309692382812e-01) (10, 2.25027918815612792969e+00) (11, 2.45767161250114440918e-01) (12, 5.30199706554412841797e-02) (13, 7.21048424020409584045e-03) (14, 8.71766358613967895508e-02) (15, 1.32281452417373657227e-01) (16, 2.57086962461471557617e-01) (17, -7.46060848236083984375e-01) (18, 7.99624100327491760254e-02) (0, 4.18132215738296508789e-01) (1, -3.05248236656188964844e+00) (2, -1.81802526116371154785e-01) (3, 4.26653683185577392578e-01) (4, 3.82064312696456909180e-01) (5, 3.68345111608505249023e-01) (6, 3.89596134424209594727e-01) (7, 3.55633825063705444336e-01) (8, -3.55644553899765014648e-01) (9, 2.88144588470458984375e-01) (10, 1.30587024688720703125e+01) (11, 5.24406313896179199219e-01) (12, 4.86945956945419311523e-01) (13, 3.13857495784759521484e-01) (14, 4.16479170322418212891e-01) (15, 3.78909140825271606445e-01) (16, 4.64840948581695556641e-01) (17, -3.49157214164733886719e-01) (18, 3.53407233953475952148e-01) (0, 4.56465721130371093750e-01) (1, -3.41103792190551757812e+00) (2, -1.92377150058746337891e-01) (3, 4.16201621294021606445e-01) (4, 3.36941242218017578125e-01) (5, 4.27837431430816650391e-01) (6, 4.71951067447662353516e-01) (7, 4.12936627864837646484e-01) (8, -3.24708372354507446289e-01) (9, 1.02451622486114501953e-01) (10, 1.31641082763671875000e+01) (11, 6.08097553253173828125e-01) (12, 4.76511329412460327148e-01) (13, 3.36396753787994384766e-01) (14, 5.04065692424774169922e-01) (15, 4.53978925943374633789e-01) (16, 5.37823498249053955078e-01) (17, -4.42797958850860595703e-01) (18, 3.67635428905487060547e-01) (0, 1.48952454328536987305e-01) (1, -5.50162911415100097656e-01) (2, 3.04070472717285156250e-01) (3, 4.79756705462932586670e-02) (4, -1.37819321826100349426e-02) (5, 2.60914713144302368164e-02) (6, -2.15905867516994476318e-02) (7, -1.41208888962864875793e-02) (8, -1.57527044415473937988e-01) (9, 5.45613244175910949707e-02) (10, 1.45940691232681274414e-01) (11, 1.46981194615364074707e-01) (12, 7.14176967740058898926e-02) (13, -3.67335788905620574951e-02) (14, 1.00911922752857208252e-01) (15, -4.19943630695343017578e-02) (16, 8.08331891894340515137e-02) (17, -3.53398561477661132812e-01) (18, 1.13960705697536468506e-01) (0, 4.05884444713592529297e-01) (1, -2.94954371452331542969e+00) (2, -1.32654294371604919434e-01) (3, 3.09380829334259033203e-01) (4, 4.31631684303283691406e-01) (5, 3.95705819129943847656e-01) (6, 2.99561321735382080078e-01) (7, 3.95043730735778808594e-01) (8, -2.76704460382461547852e-01) (9, 3.76262515783309936523e-03) (10, 1.31693840026855468750e+01) (11, 4.41283047199249267578e-01) (12, 4.07637953758239746094e-01) (13, 3.29900503158569335938e-01) (14, 4.10408616065979003906e-01) (15, 3.82375538349151611328e-01) (16, 5.06424427032470703125e-01) (17, -2.94520944356918334961e-01) (18, 4.22549009323120117188e-01) (0, 5.55853903293609619141e-01) (1, -3.34557914733886718750e+00) (2, 8.25858637690544128418e-02) (3, 4.33321177959442138672e-01) (4, 4.16287988424301147461e-01) (5, 3.32991123199462890625e-01) (6, 3.95454466342926025391e-01) (7, 3.90227615833282470703e-01) (8, -4.50528591871261596680e-01) (9, 2.24138379096984863281e-01) (10, 1.31391029357910156250e+01) (11, 5.18217504024505615234e-01) (12, 3.01547735929489135742e-01) (13, 4.93756026029586791992e-01) (14, 3.69781345129013061523e-01) (15, 3.28206002712249755859e-01) (16, 4.76862907409667968750e-01) (17, -4.21399116516113281250e-01) (18, 3.98168772459030151367e-01) (0, 1.19623169302940368652e-01) (1, -7.12655305862426757812e-01) (2, -1.46065363660454750061e-02) (3, -3.35949137806892395020e-02) (4, 3.61775942146778106689e-02) (5, 4.96000684797763824463e-02) (6, 4.11314107477664947510e-02) (7, 1.08357027173042297363e-01) (8, -9.48192030191421508789e-02) (9, -5.23878410458564758301e-02) (10, 9.27773714065551757812e-01) (11, -1.46981691941618919373e-02) (12, 1.44184567034244537354e-02) (13, 5.89286275207996368408e-02) (14, -3.99983115494251251221e-02) (15, 1.32898064330220222473e-02) (16, 8.23267921805381774902e-03) (17, -3.44989895820617675781e-02) (18, -3.03843151777982711792e-03) (19, 1.30150449275970458984e+00) (20, -5.66654205322265625000e-02) (21, -1.19791001081466674805e-01) (22, -5.87449908256530761719e-01) (23, -1.17642194032669067383e-01) (24, -1.10320940613746643066e-01) (25, -3.31293009221553802490e-02) (26, -5.89985959231853485107e-02) (27, -4.41459603607654571533e-02) (28, -5.67272126674652099609e-01) (29, -1.08062756061553955078e+00) (30, -5.85629701614379882812e-01) (31, -5.56911170482635498047e-01) (32, -8.91986191272735595703e-02) (33, -6.48457854986190795898e-02) (34, -5.05408763885498046875e-01) (35, -4.71326746046543121338e-02) (36, -8.63103196024894714355e-02) (37, -4.36161488294601440430e-01) (38, -6.47678896784782409668e-02) 
